FANN_FLO_2.1
num_layers=12
learning_rate=0.700000
connection_rate=1.000000
network_type=1
learning_momentum=0.000000
training_algorithm=2
train_error_function=0
train_stop_function=0
cascade_output_change_fraction=0.010000
quickprop_decay=-0.000100
quickprop_mu=1.750000
rprop_increase_factor=1.200000
rprop_decrease_factor=0.500000
rprop_delta_min=0.000000
rprop_delta_max=50.000000
rprop_delta_zero=0.100000
cascade_output_stagnation_epochs=12
cascade_candidate_change_fraction=0.010000
cascade_candidate_stagnation_epochs=12
cascade_max_out_epochs=150
cascade_min_out_epochs=50
cascade_max_cand_epochs=150
cascade_min_cand_epochs=50
cascade_num_candidate_groups=2
bit_fail_limit=3.49999994039535520000e-001
cascade_candidate_limit=1.00000000000000000000e+003
cascade_weight_multiplier=4.00000005960464480000e-001
cascade_activation_functions_count=10
cascade_activation_functions=3 5 7 8 10 11 14 15 16 17 
cascade_activation_steepnesses_count=4
cascade_activation_steepnesses=2.50000000000000000000e-001 5.00000000000000000000e-001 7.50000000000000000000e-001 1.00000000000000000000e+000 
layer_sizes=3 1 1 1 1 1 1 1 1 1 1 4 
scale_included=0
neurons (num_inputs, activation_function, activation_steepness)=(0, 0, 0.00000000000000000000e+000) (0, 0, 0.00000000000000000000e+000) (0, 0, 0.00000000000000000000e+000) (3, 8, 2.50000000000000000000e-001) (4, 14, 7.50000000000000000000e-001) (5, 15, 1.00000000000000000000e+000) (6, 14, 1.00000000000000000000e+000) (7, 3, 1.00000000000000000000e+000) (8, 7, 2.50000000000000000000e-001) (9, 7, 2.50000000000000000000e-001) (10, 15, 7.50000000000000000000e-001) (11, 3, 1.00000000000000000000e+000) (12, 10, 1.00000000000000000000e+000) (13, 5, 5.00000000000000000000e-001) (13, 5, 5.00000000000000000000e-001) (13, 5, 5.00000000000000000000e-001) (13, 5, 5.00000000000000000000e-001) 
connections (connected_to_neuron, weight)=(0, 2.41378784179687500000e+000) (1, 3.49125900268554690000e+001) (2, 3.35546989440917970000e+001) (0, 8.70826840400695800000e-001) (1, 3.20939469337463380000e+000) (2, -2.07645320892333980000e+000) (3, 4.84163951873779300000e+000) (0, 2.83814263343811040000e+000) (1, 2.32943797111511230000e+000) (2, -2.36221385002136230000e+000) (3, 2.98415589332580570000e+000) (4, 5.77468299865722660000e+000) (0, 2.08695960044860840000e+000) (1, 3.07959389686584470000e+000) (2, -2.24898624420166020000e+000) (3, 2.37729358673095700000e+000) (4, 4.38210439682006840000e+000) (5, 2.20937347412109370000e+000) (0, 4.89859610795974730000e-001) (1, 5.80663919448852540000e-001) (2, -3.22920560836791990000e+000) (3, 6.18224525451660160000e+000) (4, 5.08160114288330080000e+000) (5, 1.14509391784667970000e+000) (6, 5.23695468902587890000e-001) (0, 2.65041756629943850000e+000) (1, 3.08880877494812010000e+000) (2, -2.58426856994628910000e+000) (3, 4.26700592041015630000e+000) (4, -5.54574537277221680000e+000) (5, 8.69021773338317870000e-001) (6, 6.30296087265014650000e+000) (7, -1.30483567714691160000e+000) (0, 2.79535388946533200000e+000) (1, 2.03772807121276860000e+000) (2, -4.08451795578002930000e+000) (3, 1.76483988761901860000e+000) (4, -3.44461083412170410000e+000) (5, 3.00836753845214840000e+000) (6, -1.08428299427032470000e+000) (7, 1.43033771514892580000e+001) (8, 1.14787451171875000000e+003) (0, 3.07235193252563480000e+000) (1, 6.43050730228424070000e-001) (2, 1.91779696941375730000e+000) (3, 3.00629091262817380000e+000) (4, 2.52509260177612300000e+000) (5, 3.05201387405395510000e+000) (6, 2.19953298568725590000e+000) (7, 2.64875221252441410000e+000) (8, -9.95666217803955080000e+000) (9, 1.00522871017456050000e+001) (0, -1.85871094465255740000e-001) (1, 9.36926081776618960000e-002) (2, -1.32071697711944580000e+000) (3, 6.04942989349365230000e+000) (4, 1.12272393703460690000e+000) (5, 2.22509813308715820000e+000) (6, 3.96561360359191890000e+000) (7, 1.20173702239990230000e+001) (8, -4.08645439147949220000e+001) (9, -1.50000000000000000000e+003) (10, 1.69490861892700200000e+000) (0, -1.05501699447631840000e+000) (1, -1.90637791156768800000e+000) (2, -2.87829995155334470000e+000) (3, 9.01998710632324220000e+000) (4, 1.42179031372070310000e+001) (5, 9.16339778900146480000e+000) (6, 6.62643671035766600000e+000) (7, 1.20238656997680660000e+001) (8, -4.00689697265625000000e+001) (9, 2.00069015502929690000e+002) (10, 2.54409217834472660000e+000) (11, 7.14692306518554690000e+001) (0, 1.50000000000000000000e+003) (1, 1.50000000000000000000e+003) (2, 1.50000000000000000000e+003) (3, 1.50000000000000000000e+003) (4, 1.50000000000000000000e+003) (5, 1.50000000000000000000e+003) (6, 1.50000000000000000000e+003) (7, 1.50000000000000000000e+003) (8, 1.50000000000000000000e+003) (9, 1.50000000000000000000e+003) (10, 1.50000000000000000000e+003) (11, 1.50000000000000000000e+003) (12, 1.50000000000000000000e+003) (0, 3.16049346923828130000e+001) (1, 3.14408721923828130000e+001) (2, 3.15247650146484370000e+001) (3, 1.50000000000000000000e+003) (4, 6.37625488281250000000e+002) (5, 2.08479675292968750000e+002) (6, 1.37552124023437500000e+002) (7, -5.87056427001953120000e+001) (8, 8.72458648681640620000e+000) (9, 4.64956665039062500000e+000) (10, 2.36229705810546870000e+000) (11, -5.40038528442382810000e+001) (12, -5.63584518432617190000e+001) (0, 7.91610050201416020000e+000) (1, -7.57301759719848630000e+000) (2, 5.75869035720825200000e+000) (3, 9.45853114128112790000e-001) (4, 1.93843972682952880000e+000) (5, 5.12977027893066410000e+000) (6, 6.92616179585456850000e-002) (7, 8.66131496429443360000e+000) (8, 3.56674835205078120000e+002) (9, 1.50000000000000000000e+003) (10, 1.90983855724334720000e+000) (11, -6.68369233608245850000e-002) (12, 1.02723240852355960000e+000) (0, -1.38317260742187500000e+001) (1, 3.26542162895202640000e+000) (2, 3.89040908813476560000e+001) (3, -1.95827331542968750000e+001) (4, -2.11767625808715820000e+000) (5, 2.86348879337310790000e-001) (6, 1.09071373939514160000e+000) (7, -2.54241704940795900000e-001) (8, 2.25188999176025390000e+001) (9, 4.44301757812500000000e+002) (10, 2.17140763998031620000e-001) (11, -5.33833056688308720000e-002) (12, -9.74117815494537350000e-001) 
