FANN_FLO_2.1
num_layers=8
learning_rate=0.700000
connection_rate=1.000000
network_type=1
learning_momentum=0.000000
training_algorithm=2
train_error_function=0
train_stop_function=0
cascade_output_change_fraction=0.010000
quickprop_decay=-0.000100
quickprop_mu=1.750000
rprop_increase_factor=1.200000
rprop_decrease_factor=0.500000
rprop_delta_min=0.000000
rprop_delta_max=50.000000
rprop_delta_zero=0.100000
cascade_output_stagnation_epochs=12
cascade_candidate_change_fraction=0.010000
cascade_candidate_stagnation_epochs=12
cascade_max_out_epochs=150
cascade_min_out_epochs=50
cascade_max_cand_epochs=150
cascade_min_cand_epochs=50
cascade_num_candidate_groups=2
bit_fail_limit=3.49999994039535520000e-001
cascade_candidate_limit=1.00000000000000000000e+003
cascade_weight_multiplier=4.00000005960464480000e-001
cascade_activation_functions_count=10
cascade_activation_functions=3 5 7 8 10 11 14 15 16 17 
cascade_activation_steepnesses_count=4
cascade_activation_steepnesses=2.50000000000000000000e-001 5.00000000000000000000e-001 7.50000000000000000000e-001 1.00000000000000000000e+000 
layer_sizes=3 1 1 1 1 1 1 4 
scale_included=0
neurons (num_inputs, activation_function, activation_steepness)=(0, 0, 0.00000000000000000000e+000) (0, 0, 0.00000000000000000000e+000) (0, 0, 0.00000000000000000000e+000) (3, 5, 7.50000000000000000000e-001) (4, 8, 7.50000000000000000000e-001) (5, 3, 1.00000000000000000000e+000) (6, 10, 1.00000000000000000000e+000) (7, 3, 7.50000000000000000000e-001) (8, 3, 7.50000000000000000000e-001) (9, 5, 5.00000000000000000000e-001) (9, 5, 5.00000000000000000000e-001) (9, 5, 5.00000000000000000000e-001) (9, 5, 5.00000000000000000000e-001) 
connections (connected_to_neuron, weight)=(1436556014, -6.16393625736236570000e-001) (1436556015, -4.00487810373306270000e-001) (1436556016, -2.13600635528564450000e+000) (1436556014, -6.16468489170074460000e-001) (1436556015, 1.17323231697082520000e+000) (1436556016, -7.03707158565521240000e-001) (1436556014, 1.82435107231140140000e+000) (1436556015, 1.97435811161994930000e-001) (1436556016, 1.74854770302772520000e-001) (1436556014, 9.90666225552558900000e-002) (1436556015, 5.59457206726074220000e+000) (1436556016, 3.03728508949279790000e+000) (-1388800115, -4.12837773561477660000e-001) (-1388800115, 7.45742082595825200000e-001) (-1388800115, -6.79579448699951170000e+000) (-1388800115, 1.69821701049804690000e+001) (-1388800115, -6.14254593849182130000e-001) (-1388800115, 4.91452850341796870000e+002) (1470951702, 8.34778904914855960000e-001) (-1388670324, -3.12706112861633300000e-001) (1470951702, -4.61446714401245120000e+000) (1470951702, 5.80568075180053710000e+000) (39138826, -5.22071659564971920000e-001) (-1388246886, 1.57307997345924380000e-001) (-1387365931, 7.32188339233398440000e+001) (-1385667494, 8.01451086997985840000e-001) (-1385667494, 4.54445779323577880000e-001) (-1385667494, -5.82641935348510740000e+000) (-1385667494, 8.05599498748779300000e+000) (-1385667494, 5.77887439727783200000e+000) (-1385667494, 8.67915439605712890000e+000) (-1385667494, 3.53955345153808590000e+001) (-1390902695, 1.59859024047851560000e+002) (40311243, -6.52837371826171870000e+000) (41213358, 8.45596122741699220000e+000) (41213358, 2.33873558044433590000e+001) (39506345, -6.53789758682250980000e+000) (-1385667494, -4.19671010971069340000e+000) (-1388670324, 1.50000000000000000000e+003) (39856449, 7.13702011108398440000e+001) (1470951702, -1.01818756103515620000e+003) (39138826, 9.22860961914062500000e+002) (39138826, 8.05475921630859380000e+001) (1471218764, 8.05229721069335940000e+001) (-1389134688, 8.05181427001953130000e+001) (-1389134688, 1.50000000000000000000e+003) (-1388800115, 1.01728692626953120000e+003) (-1388800115, 2.23271217346191410000e+001) (-1388800115, 7.05027770996093750000e+000) (-1388800115, 4.69522857666015630000e+000) (-1388800115, 2.33800506591796870000e+000) (-1388800115, 1.25349178910255430000e-001) (-1388800115, -1.06005907058715820000e+000) (-1388800115, 3.81171798706054690000e+000) (-1388800115, 1.14340893924236300000e-001) (-1388800115, 2.75164008140563960000e+000) (-1388800115, -1.09926961362361910000e-001) (-1388800115, -1.12717688083648680000e+000) (-1388800115, -1.77580360323190690000e-002) (-1388800115, 1.38189446926116940000e+000) (-1388800115, 1.05939006805419920000e+000) (-1388800115, 7.57933497428894040000e-001) (-1388800115, -3.39178395271301270000e+000) (-1388800115, 3.30647826194763180000e+000) (-1388800115, 1.73862993717193600000e+000) (-1388800115, -4.07016372680664060000e+000) (-1388800115, -1.60716518759727480000e-001) (-1388800115, 2.09925711154937740000e-001) (-1388800115, -7.84683704376220700000e-001) 
