FANN_FLO_2.1
num_layers=9
learning_rate=0.700000
connection_rate=1.000000
network_type=1
learning_momentum=0.000000
training_algorithm=2
train_error_function=0
train_stop_function=0
cascade_output_change_fraction=0.010000
quickprop_decay=-0.000100
quickprop_mu=1.750000
rprop_increase_factor=1.200000
rprop_decrease_factor=0.500000
rprop_delta_min=0.000000
rprop_delta_max=50.000000
rprop_delta_zero=0.100000
cascade_output_stagnation_epochs=12
cascade_candidate_change_fraction=0.010000
cascade_candidate_stagnation_epochs=12
cascade_max_out_epochs=150
cascade_min_out_epochs=50
cascade_max_cand_epochs=150
cascade_min_cand_epochs=50
cascade_num_candidate_groups=2
bit_fail_limit=3.49999994039535520000e-001
cascade_candidate_limit=1.00000000000000000000e+003
cascade_weight_multiplier=4.00000005960464480000e-001
cascade_activation_functions_count=10
cascade_activation_functions=3 5 7 8 10 11 14 15 16 17 
cascade_activation_steepnesses_count=4
cascade_activation_steepnesses=2.50000000000000000000e-001 5.00000000000000000000e-001 7.50000000000000000000e-001 1.00000000000000000000e+000 
layer_sizes=3 1 1 1 1 1 1 1 4 
scale_included=0
neurons (num_inputs, activation_function, activation_steepness)=(0, 0, 0.00000000000000000000e+000) (0, 0, 0.00000000000000000000e+000) (0, 0, 0.00000000000000000000e+000) (3, 8, 1.00000000000000000000e+000) (4, 14, 1.00000000000000000000e+000) (5, 3, 1.00000000000000000000e+000) (6, 3, 7.50000000000000000000e-001) (7, 3, 1.00000000000000000000e+000) (8, 3, 1.00000000000000000000e+000) (9, 15, 1.00000000000000000000e+000) (10, 5, 5.00000000000000000000e-001) (10, 5, 5.00000000000000000000e-001) (10, 5, 5.00000000000000000000e-001) (10, 5, 5.00000000000000000000e-001) 
connections (connected_to_neuron, weight)=(-6210, 2.79611754417419430000e+000) (-6209, 3.48376822471618650000e+000) (-6208, 2.55427050590515140000e+000) (-6210, 1.76401627063751220000e+000) (-6209, 2.53908658027648930000e+000) (-6208, -2.66638576984405520000e-001) (-6210, 2.48334574699401860000e+000) (-6209, -7.12077412754297260000e-003) (-6208, 5.20155787467956540000e-001) (-6210, -3.96160125732421870000e+000) (-6209, 6.87314939498901370000e+000) (-6208, 4.89239484071731570000e-001) (1431302544, 1.70055186748504640000e+000) (1431302544, 2.43991777300834660000e-001) (1431302544, -3.99617838859558110000e+000) (1431302544, 1.01020841598510740000e+001) (1431302544, 6.41411662101745610000e-001) (1431302544, 7.48263263702392580000e+000) (1431302544, 1.26409876346588130000e+000) (1431302544, -4.95036363601684570000e-001) (1431302544, 9.48094964027404790000e-001) (1431302544, 6.49722623825073240000e+000) (1431302544, -1.23297095298767090000e+000) (1431302544, 2.92030914306640620000e+002) (1431302544, -5.64383411407470700000e+000) (1431302544, -1.32180914282798770000e-001) (1431302544, 2.85234123468399050000e-001) (1431302544, -3.53485751152038570000e+000) (1431302544, 1.21377916336059570000e+001) (1431302544, -9.64878678321838380000e-001) (1431302544, -3.48049998283386230000e-001) (1431302544, 5.92457885742187500000e+001) (1431302544, 7.82484674453735350000e+000) (1431302544, 3.63446927070617680000e+000) (1431302544, 3.00288152694702150000e+000) (1431302544, 3.82147526741027830000e+000) (1431302544, 4.19293045997619630000e-001) (1431302544, 1.49322497844696040000e+000) (1431302544, 7.33692705631256100000e-001) (1431302544, 3.84016871452331540000e+000) (1431302544, 4.96350079774856570000e-001) (1431302544, 2.42394208908081050000e+000) (1431302544, -4.30435180664062500000e+000) (1431302544, 2.75148925781250000000e+001) (1431302544, 2.60844497680664060000e+001) (1431302544, 5.47511279582977290000e-001) (1431302544, -4.50584459304809570000e+000) (1431302544, 3.29275665283203120000e+001) (1431302544, -4.28753509521484370000e+002) (1431302544, 1.20424432754516600000e+001) (1431302544, -3.66959786415100100000e+000) (1431302544, -7.26367952302098270000e-003) (1431302544, 6.03767623901367190000e+001) (1431302544, 6.04992904663085940000e+001) (1431302544, 6.05198440551757810000e+001) (1431302544, 1.50000000000000000000e+003) (1431302544, 1.37599960327148440000e+002) (1431302544, 2.35405731201171870000e+000) (1431302544, -3.05175781250000000000e-004) (1431302544, 5.63594779968261720000e+001) (1431302544, 5.72204589843750000000e-005) (1431302544, 1.38402526855468750000e+002) (1431302544, 1.40544617176055910000e+000) (1431302544, 1.80495068430900570000e-001) (1431302544, -5.48952054977416990000e+000) (1431302544, 5.30170249938964840000e+000) (1431302544, 1.89063623547554020000e-001) (1431302544, -1.50000000000000000000e+003) (1431302544, -8.60840072631835940000e+001) (1431302544, 6.47121295332908630000e-003) (1431302544, -1.50000000000000000000e+003) (1431302544, 5.11341430246829990000e-002) (1431302544, 1.30489456653594970000e+000) (1431302544, 7.32908010482788090000e-001) (1431302544, -5.34761571884155270000e+000) (1431302544, 4.23983335494995120000e+000) (1431302544, 5.19662857055664060000e-001) (1431302544, -1.35784864425659180000e+001) (1431302544, 4.39133977890014650000e+000) (1431302544, -6.32703733444213870000e+000) (1431302544, 3.08787512779235840000e+000) (1431302544, -4.87158656120300290000e-001) 
