FANN_FLO_2.1
num_layers=4
learning_rate=0.700000
connection_rate=1.000000
network_type=0
learning_momentum=0.000000
training_algorithm=2
train_error_function=0
train_stop_function=0
cascade_output_change_fraction=0.010000
quickprop_decay=-0.000100
quickprop_mu=1.750000
rprop_increase_factor=1.200000
rprop_decrease_factor=0.500000
rprop_delta_min=0.000000
rprop_delta_max=50.000000
rprop_delta_zero=0.100000
cascade_output_stagnation_epochs=12
cascade_candidate_change_fraction=0.010000
cascade_candidate_stagnation_epochs=12
cascade_max_out_epochs=150
cascade_max_cand_epochs=150
cascade_num_candidate_groups=2
bit_fail_limit=3.49999994039535520000e-001
cascade_candidate_limit=1.00000000000000000000e+003
cascade_weight_multiplier=4.00000005960464480000e-001
cascade_activation_functions_count=10
cascade_activation_functions=3 5 7 8 10 11 14 15 16 17 
cascade_activation_steepnesses_count=4
cascade_activation_steepnesses=2.50000000000000000000e-001 5.00000000000000000000e-001 7.50000000000000000000e-001 1.00000000000000000000e+000 
layer_sizes=15 10 7 4 
scale_included=0
neurons (num_inputs, activation_function, activation_steepness)=(0, 0, 0.00000000000000000000e+000) (0, 0, 0.00000000000000000000e+000) (0, 0, 0.00000000000000000000e+000) (0, 0, 0.00000000000000000000e+000) (0, 0, 0.00000000000000000000e+000) (0, 0, 0.00000000000000000000e+000) (0, 0, 0.00000000000000000000e+000) (0, 0, 0.00000000000000000000e+000) (0, 0, 0.00000000000000000000e+000) (0, 0, 0.00000000000000000000e+000) (0, 0, 0.00000000000000000000e+000) (0, 0, 0.00000000000000000000e+000) (0, 0, 0.00000000000000000000e+000) (0, 0, 0.00000000000000000000e+000) (0, 0, 0.00000000000000000000e+000) (15, 5, 5.00000000000000000000e-001) (15, 5, 5.00000000000000000000e-001) (15, 5, 5.00000000000000000000e-001) (15, 5, 5.00000000000000000000e-001) (15, 5, 5.00000000000000000000e-001) (15, 5, 5.00000000000000000000e-001) (15, 5, 5.00000000000000000000e-001) (15, 5, 5.00000000000000000000e-001) (15, 5, 5.00000000000000000000e-001) (0, 5, 5.00000000000000000000e-001) (10, 5, 5.00000000000000000000e-001) (10, 5, 5.00000000000000000000e-001) (10, 5, 5.00000000000000000000e-001) (10, 5, 5.00000000000000000000e-001) (10, 5, 5.00000000000000000000e-001) (10, 5, 5.00000000000000000000e-001) (0, 5, 5.00000000000000000000e-001) (7, 5, 5.00000000000000000000e-001) (7, 5, 5.00000000000000000000e-001) (7, 5, 5.00000000000000000000e-001) (0, 5, 5.00000000000000000000e-001) 
connections (connected_to_neuron, weight)=(0, -2.76289060711860660000e-002) (1, -3.74858304858207700000e-002) (2, -1.45997479557991030000e-001) (3, -1.90396055579185490000e-001) (4, 6.93860128521919250000e-002) (5, -2.81496524810791020000e-001) (6, -3.90067428350448610000e-001) (7, 1.12267184257507320000e+000) (8, 7.32162952423095700000e-001) (9, 1.83774995803833010000e+000) (10, 4.78492170572280880000e-001) (11, 5.39847612380981450000e-002) (12, -1.28343856334686280000e+000) (13, 8.60276520252227780000e-001) (14, 3.31290870904922490000e-001) (0, -1.43776525878906250000e+003) (1, 1.50000000000000000000e+003) (2, 1.50000000000000000000e+003) (3, -1.47996813964843750000e+003) (4, 1.26517570018768310000e+000) (5, 1.50000000000000000000e+003) (6, 1.49951757812500000000e+003) (7, 1.49947180175781250000e+003) (8, 2.40375041961669920000e+000) (9, -1.49554711914062500000e+003) (10, 1.08291852474212650000e+000) (11, 1.49985180664062500000e+003) (12, 1.50000000000000000000e+003) (13, 1.49822448730468750000e+003) (14, 1.82293777465820310000e+001) (0, -3.10166209936141970000e-001) (1, 1.80427825450897220000e+000) (2, 1.67036342620849610000e+000) (3, -3.62110555171966550000e-001) (4, -3.95643711090087890000e-001) (5, -4.63169902563095090000e-001) (6, -3.05731117725372310000e-001) (7, 2.12041902542114260000e+000) (8, -1.03481225669384000000e-001) (9, 6.95041939616203310000e-002) (10, 3.89224648475646970000e-001) (11, -1.82591482996940610000e-001) (12, -9.57611203193664550000e-001) (13, -3.20167511701583860000e-001) (14, 5.67740440368652340000e-001) (0, 1.50000000000000000000e+003) (1, -1.49991418457031250000e+003) (2, 1.50000000000000000000e+003) (3, 1.50000000000000000000e+003) (4, 1.50000000000000000000e+003) (5, -1.50000000000000000000e+003) (6, 1.50000000000000000000e+003) (7, -1.50000000000000000000e+003) (8, 1.50000000000000000000e+003) (9, -1.50000000000000000000e+003) (10, 1.50000000000000000000e+003) (11, -7.82994556427001950000e+000) (12, 1.50000000000000000000e+003) (13, 1.50000000000000000000e+003) (14, 1.50000000000000000000e+003) (0, 2.25627347826957700000e-001) (1, 3.22317898273468020000e-001) (2, 8.21490064263343810000e-002) (3, 1.41077011823654170000e-001) (4, 2.72217452526092530000e-001) (5, 2.85690035670995710000e-002) (6, -4.48024924844503400000e-003) (7, 1.86368361115455630000e-001) (8, 1.69374585151672360000e-001) (9, 5.54650783538818360000e-001) (10, -1.88113236427307130000e+000) (11, 4.30452311411499980000e-003) (12, -5.30764937400817870000e-001) (13, 1.02845892310142520000e-001) (14, -1.15939147770404820000e-001) (0, -1.49690991210937500000e+003) (1, 1.50000000000000000000e+003) (2, 1.50000000000000000000e+003) (3, 1.49996716308593750000e+003) (4, -1.49677099609375000000e+003) (5, 1.50000000000000000000e+003) (6, -1.27529968261718750000e+003) (7, 1.50000000000000000000e+003) (8, -1.50000000000000000000e+003) (9, 1.50000000000000000000e+003) (10, 7.52038002014160160000e-001) (11, 1.50000000000000000000e+003) (12, 1.50000000000000000000e+003) (13, 1.50000000000000000000e+003) (14, 1.50000000000000000000e+003) (0, 4.02894645929336550000e-001) (1, 1.35094773769378660000e+000) (2, 1.43106877803802490000e+000) (3, 4.42956924438476560000e-001) (4, 4.60085630416870120000e-001) (5, 4.55584406852722170000e-001) (6, 4.13092434406280520000e-001) (7, 9.89358484745025630000e-001) (8, -2.14800298213958740000e-001) (9, -3.50673615932464600000e-001) (10, -2.32498884201049800000e+000) (11, -7.47586369514465330000e-001) (12, 5.38930594921112060000e-002) (13, -3.07514965534210210000e-001) (14, 4.65217590332031250000e-001) (0, -1.89098864793777470000e-002) (1, -5.96269667148590090000e-001) (2, -1.09447583556175230000e-001) (3, -1.62373762577772140000e-002) (4, 3.69277596473693850000e-002) (5, 2.31094285845756530000e-002) (6, -2.91813343763351440000e-001) (7, 1.29920035600662230000e-001) (8, 2.81085044145584110000e-001) (9, 1.68930962681770320000e-001) (10, 1.77955538034439090000e-001) (11, 1.67430728673934940000e-001) (12, -1.31416440010070800000e-001) (13, -4.60354655981063840000e-001) (14, 1.06177762150764470000e-001) (0, -4.79923546314239500000e-001) (1, -1.78721046447753910000e+000) (2, -4.45565730333328250000e-001) (3, 4.38326090574264530000e-001) (4, -4.35345470905303960000e-001) (5, 1.37628281116485600000e+000) (6, 9.70183014869689940000e-001) (7, -2.71600633859634400000e-001) (8, 1.16373431682586670000e+000) (9, -4.02390480041503910000e-001) (10, -5.32577753067016600000e-001) (11, -1.30391150712966920000e-001) (12, 1.27225315570831300000e+000) (13, 1.09567415714263920000e+000) (14, 1.11804473400115970000e+000) (15, 1.66359692811965940000e-002) (16, -2.49680534005165100000e-001) (17, 1.37434995174407960000e+000) (18, -3.47050786018371580000e-001) (19, 6.83629751205444340000e-001) (20, 4.19726520776748660000e-001) (21, 1.52406120300292970000e+000) (22, 1.56292170286178590000e-001) (23, -2.16243490576744080000e-001) (24, -3.13810914754867550000e-001) (15, 2.75994807481765750000e-001) (16, -1.21906563639640810000e-001) (17, 1.56959331035614010000e+000) (18, -8.95678102970123290000e-002) (19, 1.68857252597808840000e+000) (20, -2.33736187219619750000e-002) (21, 2.58637833595275880000e+000) (22, 2.00247600674629210000e-001) (23, 1.25601708889007570000e-001) (24, -1.89181387424468990000e-001) (15, -3.97536247968673710000e-001) (16, 2.10132434964179990000e-001) (17, -1.41225075721740720000e+000) (18, 4.25206050276756290000e-002) (19, 1.52398085594177250000e+000) (20, 1.10418617725372310000e-001) (21, 1.96736896038055420000e+000) (22, -2.40246608853340150000e-001) (23, 2.42105528712272640000e-001) (24, 7.28609934449195860000e-002) (15, 5.67629718780517580000e+000) (16, 2.03036260604858400000e+000) (17, 3.09407734870910640000e+000) (18, -4.96571636199951170000e+000) (19, 4.32686471939086910000e+000) (20, 1.38095629215240480000e+000) (21, -1.65150523185729980000e+000) (22, 1.25026214122772220000e+000) (23, 8.29416036605834960000e-001) (24, 1.91730725765228270000e+000) (15, -1.48224806785583500000e+000) (16, -7.31942653656005860000e-001) (17, 1.68234574794769290000e+000) (18, -6.52533352375030520000e-001) (19, -1.64757966995239260000e-001) (20, -6.01052641868591310000e-001) (21, -2.00573253631591800000e+000) (22, -6.97749662399291990000e+000) (23, -3.85893702507019040000e+000) (24, -6.89772725105285640000e-001) (15, -1.04430294036865230000e+000) (16, -4.72771972417831420000e-002) (17, -1.18102028965950010000e-001) (18, 2.36249417066574100000e-002) (19, 2.36711907386779790000e+000) (20, 7.78667330741882320000e-002) (21, 1.08364379405975340000e+000) (22, -1.01254530251026150000e-001) (23, 5.20156264305114750000e-001) (24, 3.31043601036071780000e-002) (25, -1.87553620338439940000e+000) (26, -3.14391756057739260000e+000) (27, 9.66950702667236330000e+000) (28, 1.13136553764343260000e+000) (29, -8.57619822025299070000e-001) (30, -8.69428920745849610000e+000) (31, 1.47023272514343260000e+000) (25, 1.75867235660552980000e+000) (26, -2.33879256248474120000e+000) (27, -1.92265343666076660000e+000) (28, 8.45190510153770450000e-002) (29, 4.91834580898284910000e-002) (30, -4.49551701545715330000e-001) (31, 1.82112848758697510000e+000) (25, -3.49918454885482790000e-001) (26, -7.43905484676361080000e-001) (27, -1.14687085151672360000e+000) (28, 1.29892539978027340000e+000) (29, -4.03511166572570800000e-001) (30, 6.67629671096801760000e+000) (31, 1.89295148849487300000e+000) 
