FANN_FLO_2.1
num_layers=4
learning_rate=0.700000
connection_rate=1.000000
network_type=0
learning_momentum=0.000000
training_algorithm=2
train_error_function=0
train_stop_function=0
cascade_output_change_fraction=0.010000
quickprop_decay=-0.000100
quickprop_mu=1.750000
rprop_increase_factor=1.200000
rprop_decrease_factor=0.500000
rprop_delta_min=0.000000
rprop_delta_max=50.000000
rprop_delta_zero=0.100000
cascade_output_stagnation_epochs=12
cascade_candidate_change_fraction=0.010000
cascade_candidate_stagnation_epochs=12
cascade_max_out_epochs=150
cascade_min_out_epochs=50
cascade_max_cand_epochs=150
cascade_min_cand_epochs=50
cascade_num_candidate_groups=2
bit_fail_limit=3.49999994039535520000e-001
cascade_candidate_limit=1.00000000000000000000e+003
cascade_weight_multiplier=4.00000005960464480000e-001
cascade_activation_functions_count=10
cascade_activation_functions=3 5 7 8 10 11 14 15 16 17 
cascade_activation_steepnesses_count=4
cascade_activation_steepnesses=2.50000000000000000000e-001 5.00000000000000000000e-001 7.50000000000000000000e-001 1.00000000000000000000e+000 
layer_sizes=9 7 5 3 
scale_included=0
neurons (num_inputs, activation_function, activation_steepness)=(0, 0, 0.00000000000000000000e+000) (0, 0, 0.00000000000000000000e+000) (0, 0, 0.00000000000000000000e+000) (0, 0, 0.00000000000000000000e+000) (0, 0, 0.00000000000000000000e+000) (0, 0, 0.00000000000000000000e+000) (0, 0, 0.00000000000000000000e+000) (0, 0, 0.00000000000000000000e+000) (0, 0, 0.00000000000000000000e+000) (9, 5, 5.00000000000000000000e-001) (9, 5, 5.00000000000000000000e-001) (9, 5, 5.00000000000000000000e-001) (9, 5, 5.00000000000000000000e-001) (9, 5, 5.00000000000000000000e-001) (9, 5, 5.00000000000000000000e-001) (0, 5, 5.00000000000000000000e-001) (7, 5, 5.00000000000000000000e-001) (7, 5, 5.00000000000000000000e-001) (7, 5, 5.00000000000000000000e-001) (7, 5, 5.00000000000000000000e-001) (0, 5, 5.00000000000000000000e-001) (5, 14, 5.00000000000000000000e-001) (5, 14, 5.00000000000000000000e-001) (0, 14, 5.00000000000000000000e-001) 
connections (connected_to_neuron, weight)=(0, 6.46882176399230960000e-001) (1, 2.31211161613464360000e+000) (2, -5.42951941490173340000e-001) (3, -5.70268034934997560000e-001) (4, -1.32492804527282710000e+000) (5, -1.37978553771972660000e+000) (6, 1.20873010158538820000e+000) (7, 3.11898565292358400000e+000) (8, -9.38281297683715820000e-001) (0, 8.06583940982818600000e-001) (1, 7.67740070819854740000e-001) (2, -5.89127063751220700000e-001) (3, -8.16527456045150760000e-002) (4, -3.07087808847427370000e-001) (5, -9.49536144733428960000e-001) (6, 6.45144820213317870000e-001) (7, 3.71048271656036380000e-001) (8, 6.93855762481689450000e-001) (0, -1.09823668003082280000e+000) (1, -5.34049153327941890000e-001) (2, 3.36019784212112430000e-001) (3, -8.16529810428619380000e-001) (4, -6.56295537948608400000e-001) (5, -1.63092565536499020000e+000) (6, -1.38515293598175050000e-001) (7, 1.08162581920623780000e+000) (8, 1.18318355083465580000e+000) (0, 3.29835861921310420000e-001) (1, -1.17903396487236020000e-001) (2, 3.17639857530593870000e-001) (3, 1.02899260818958280000e-001) (4, -5.41729569435119630000e-001) (5, -2.78636783361434940000e-001) (6, 4.34984207153320310000e-001) (7, 1.49051570892333980000e+000) (8, -2.62725114822387700000e+000) (0, -1.09605707228183750000e-001) (1, 2.87059545516967770000e-002) (2, -3.78337562084198000000e-001) (3, 9.70092490315437320000e-002) (4, 1.07063509523868560000e-001) (5, 3.64585459232330320000e-001) (6, 1.30559012293815610000e-001) (7, 3.82113829255104060000e-002) (8, -1.73804145306348800000e-002) (0, 9.16254520416259770000e-002) (1, -3.22845667600631710000e-001) (2, -4.14061024785041810000e-002) (3, 6.16121664643287660000e-003) (4, 9.84210148453712460000e-003) (5, 5.51577890291810040000e-003) (6, -9.26766917109489440000e-002) (7, -1.94831173866987230000e-002) (8, 2.69131869077682500000e-001) (9, -3.10245484113693240000e-001) (10, -2.57364481687545780000e-001) (11, -6.11578598618507390000e-002) (12, 6.37145698070526120000e-001) (13, -2.75348778814077380000e-002) (14, 2.11397781968116760000e-002) (15, -5.32940506935119630000e-001) (9, 4.29698348045349120000e-001) (10, -5.56046605110168460000e-001) (11, -4.01428461074829100000e-001) (12, -8.44092786312103270000e-001) (13, 1.36632785201072690000e-001) (14, -1.66197568178176880000e-001) (15, -1.17641270160675050000e+000) (9, 7.36379086971282960000e-001) (10, 1.03319421410560610000e-001) (11, 2.09997311234474180000e-001) (12, -8.53789567947387700000e-001) (13, 1.09911318868398670000e-002) (14, -1.05289980769157410000e-001) (15, 1.52686667442321780000e+000) (9, -7.35006332397460940000e-001) (10, 7.25376248359680180000e-001) (11, 4.69656556844711300000e-001) (12, 1.37947261333465580000e+000) (13, 1.05902038514614110000e-001) (14, -2.45322406291961670000e-001) (15, 2.82194435596466060000e-001) (16, -8.07827472686767580000e-001) (17, 9.54125690460205080000e+000) (18, 4.63419198989868160000e-001) (19, -4.47346162796020510000e+000) (20, 1.56722211837768550000e+000) (16, -1.37773836031556130000e-002) (17, -8.09444046020507810000e+000) (18, 3.00006121397018430000e-001) (19, 9.61071109771728520000e+000) (20, 1.79044067859649660000e+000) 
