FANN_FLO_2.1
num_layers=3
learning_rate=0.700000
connection_rate=1.000000
network_type=0
learning_momentum=0.000000
training_algorithm=2
train_error_function=0
train_stop_function=0
cascade_output_change_fraction=0.010000
quickprop_decay=-0.000100
quickprop_mu=1.750000
rprop_increase_factor=1.200000
rprop_decrease_factor=0.500000
rprop_delta_min=0.000000
rprop_delta_max=50.000000
rprop_delta_zero=0.100000
cascade_output_stagnation_epochs=12
cascade_candidate_change_fraction=0.010000
cascade_candidate_stagnation_epochs=12
cascade_max_out_epochs=150
cascade_min_out_epochs=50
cascade_max_cand_epochs=150
cascade_min_cand_epochs=50
cascade_num_candidate_groups=2
bit_fail_limit=3.49999994039535520000e-001
cascade_candidate_limit=1.00000000000000000000e+003
cascade_weight_multiplier=4.00000005960464480000e-001
cascade_activation_functions_count=10
cascade_activation_functions=3 5 7 8 10 11 14 15 16 17 
cascade_activation_steepnesses_count=4
cascade_activation_steepnesses=2.50000000000000000000e-001 5.00000000000000000000e-001 7.50000000000000000000e-001 1.00000000000000000000e+000 
layer_sizes=9 1000 3 
scale_included=0
neurons (num_inputs, activation_function, activation_steepness)=(0, 0, 0.00000000000000000000e+000) (0, 0, 0.00000000000000000000e+000) (0, 0, 0.00000000000000000000e+000) (0, 0, 0.00000000000000000000e+000) (0, 0, 0.00000000000000000000e+000) (0, 0, 0.00000000000000000000e+000) (0, 0, 0.00000000000000000000e+000) (0, 0, 0.00000000000000000000e+000) (0, 0, 0.00000000000000000000e+000) (9, 5, 5.00000000000000000000e-001) (9, 5, 5.00000000000000000000e-001) (9, 5, 5.00000000000000000000e-001) (9, 5, 5.00000000000000000000e-001) (9, 5, 5.00000000000000000000e-001) (9, 5, 5.00000000000000000000e-001) (9, 5, 5.00000000000000000000e-001) (9, 5, 5.00000000000000000000e-001) (9, 5, 5.00000000000000000000e-001) (9, 5, 5.00000000000000000000e-001) (9, 5, 5.00000000000000000000e-001) (9, 5, 5.00000000000000000000e-001) (9, 5, 5.00000000000000000000e-001) (9, 5, 5.00000000000000000000e-001) (9, 5, 5.00000000000000000000e-001) (9, 5, 5.00000000000000000000e-001) (9, 5, 5.00000000000000000000e-001) (9, 5, 5.00000000000000000000e-001) (9, 5, 5.00000000000000000000e-001) (9, 5, 5.00000000000000000000e-001) (9, 5, 5.00000000000000000000e-001) (9, 5, 5.00000000000000000000e-001) (9, 5, 5.00000000000000000000e-001) (9, 5, 5.00000000000000000000e-001) (9, 5, 5.00000000000000000000e-001) (9, 5, 5.00000000000000000000e-001) (9, 5, 5.00000000000000000000e-001) (9, 5, 5.00000000000000000000e-001) (9, 5, 5.00000000000000000000e-001) (9, 5, 5.00000000000000000000e-001) (9, 5, 5.00000000000000000000e-001) (9, 5, 5.00000000000000000000e-001) (9, 5, 5.00000000000000000000e-001) (9, 5, 5.00000000000000000000e-001) (9, 5, 5.00000000000000000000e-001) (9, 5, 5.00000000000000000000e-001) (9, 5, 5.00000000000000000000e-001) (9, 5, 5.00000000000000000000e-001) (9, 5, 5.00000000000000000000e-001) (9, 5, 5.00000000000000000000e-001) (9, 5, 5.00000000000000000000e-001) (9, 5, 5.00000000000000000000e-001) (9, 5, 5.00000000000000000000e-001) (9, 5, 5.00000000000000000000e-001) (9, 5, 5.00000000000000000000e-001) (9, 5, 5.00000000000000000000e-001) (9, 5, 5.00000000000000000000e-001) (9, 5, 5.00000000000000000000e-001) (9, 5, 5.00000000000000000000e-001) (9, 5, 5.00000000000000000000e-001) (9, 5, 5.00000000000000000000e-001) (9, 5, 5.00000000000000000000e-001) (9, 5, 5.00000000000000000000e-001) (9, 5, 5.00000000000000000000e-001) (9, 5, 5.00000000000000000000e-001) (9, 5, 5.00000000000000000000e-001) (9, 5, 5.00000000000000000000e-001) (9, 5, 5.00000000000000000000e-001) (9, 5, 5.00000000000000000000e-001) (9, 5, 5.00000000000000000000e-001) (9, 5, 5.00000000000000000000e-001) (9, 5, 5.00000000000000000000e-001) (9, 5, 5.00000000000000000000e-001) (9, 5, 5.00000000000000000000e-001) (9, 5, 5.00000000000000000000e-001) (9, 5, 5.00000000000000000000e-001) (9, 5, 5.00000000000000000000e-001) (9, 5, 5.00000000000000000000e-001) (9, 5, 5.00000000000000000000e-001) (9, 5, 5.00000000000000000000e-001) (9, 5, 5.00000000000000000000e-001) (9, 5, 5.00000000000000000000e-001) (9, 5, 5.00000000000000000000e-001) (9, 5, 5.00000000000000000000e-001) (9, 5, 5.00000000000000000000e-001) (9, 5, 5.00000000000000000000e-001) (9, 5, 5.00000000000000000000e-001) (9, 5, 5.00000000000000000000e-001) (9, 5, 5.00000000000000000000e-001) (9, 5, 5.00000000000000000000e-001) (9, 5, 5.00000000000000000000e-001) (9, 5, 5.00000000000000000000e-001) (9, 5, 5.00000000000000000000e-001) (9, 5, 5.00000000000000000000e-001) (9, 5, 5.00000000000000000000e-001) (9, 5, 5.00000000000000000000e-001) (9, 5, 5.00000000000000000000e-001) (9, 5, 5.00000000000000000000e-001) (9, 5, 5.00000000000000000000e-001) (9, 5, 5.00000000000000000000e-001) (9, 5, 5.00000000000000000000e-001) (9, 5, 5.00000000000000000000e-001) (9, 5, 5.00000000000000000000e-001) (9, 5, 5.00000000000000000000e-001) (9, 5, 5.00000000000000000000e-001) (9, 5, 5.00000000000000000000e-001) (9, 5, 5.00000000000000000000e-001) (9, 5, 5.00000000000000000000e-001) (9, 5, 5.00000000000000000000e-001) (9, 5, 5.00000000000000000000e-001) (9, 5, 5.00000000000000000000e-001) (9, 5, 5.00000000000000000000e-001) (9, 5, 5.00000000000000000000e-001) (9, 5, 5.00000000000000000000e-001) (9, 5, 5.00000000000000000000e-001) (9, 5, 5.00000000000000000000e-001) (9, 5, 5.00000000000000000000e-001) (9, 5, 5.00000000000000000000e-001) (9, 5, 5.00000000000000000000e-001) (9, 5, 5.00000000000000000000e-001) (9, 5, 5.00000000000000000000e-001) (9, 5, 5.00000000000000000000e-001) (9, 5, 5.00000000000000000000e-001) (9, 5, 5.00000000000000000000e-001) (9, 5, 5.00000000000000000000e-001) (9, 5, 5.00000000000000000000e-001) (9, 5, 5.00000000000000000000e-001) (9, 5, 5.00000000000000000000e-001) (9, 5, 5.00000000000000000000e-001) (9, 5, 5.00000000000000000000e-001) (9, 5, 5.00000000000000000000e-001) (9, 5, 5.00000000000000000000e-001) (9, 5, 5.00000000000000000000e-001) (9, 5, 5.00000000000000000000e-001) (9, 5, 5.00000000000000000000e-001) (9, 5, 5.00000000000000000000e-001) (9, 5, 5.00000000000000000000e-001) (9, 5, 5.00000000000000000000e-001) (9, 5, 5.00000000000000000000e-001) (9, 5, 5.00000000000000000000e-001) (9, 5, 5.00000000000000000000e-001) (9, 5, 5.00000000000000000000e-001) (9, 5, 5.00000000000000000000e-001) (9, 5, 5.00000000000000000000e-001) (9, 5, 5.00000000000000000000e-001) (9, 5, 5.00000000000000000000e-001) (9, 5, 5.00000000000000000000e-001) (9, 5, 5.00000000000000000000e-001) (9, 5, 5.00000000000000000000e-001) (9, 5, 5.00000000000000000000e-001) (9, 5, 5.00000000000000000000e-001) (9, 5, 5.00000000000000000000e-001) (9, 5, 5.00000000000000000000e-001) (9, 5, 5.00000000000000000000e-001) (9, 5, 5.00000000000000000000e-001) (9, 5, 5.00000000000000000000e-001) (9, 5, 5.00000000000000000000e-001) (9, 5, 5.00000000000000000000e-001) (9, 5, 5.00000000000000000000e-001) (9, 5, 5.00000000000000000000e-001) (9, 5, 5.00000000000000000000e-001) (9, 5, 5.00000000000000000000e-001) (9, 5, 5.00000000000000000000e-001) (9, 5, 5.00000000000000000000e-001) (9, 5, 5.00000000000000000000e-001) (9, 5, 5.00000000000000000000e-001) (9, 5, 5.00000000000000000000e-001) (9, 5, 5.00000000000000000000e-001) (9, 5, 5.00000000000000000000e-001) (9, 5, 5.00000000000000000000e-001) (9, 5, 5.00000000000000000000e-001) (9, 5, 5.00000000000000000000e-001) (9, 5, 5.00000000000000000000e-001) (9, 5, 5.00000000000000000000e-001) (9, 5, 5.00000000000000000000e-001) (9, 5, 5.00000000000000000000e-001) (9, 5, 5.00000000000000000000e-001) (9, 5, 5.00000000000000000000e-001) (9, 5, 5.00000000000000000000e-001) (9, 5, 5.00000000000000000000e-001) (9, 5, 5.00000000000000000000e-001) (9, 5, 5.00000000000000000000e-001) (9, 5, 5.00000000000000000000e-001) (9, 5, 5.00000000000000000000e-001) (9, 5, 5.00000000000000000000e-001) (9, 5, 5.00000000000000000000e-001) (9, 5, 5.00000000000000000000e-001) (9, 5, 5.00000000000000000000e-001) (9, 5, 5.00000000000000000000e-001) (9, 5, 5.00000000000000000000e-001) (9, 5, 5.00000000000000000000e-001) (9, 5, 5.00000000000000000000e-001) (9, 5, 5.00000000000000000000e-001) (9, 5, 5.00000000000000000000e-001) (9, 5, 5.00000000000000000000e-001) (9, 5, 5.00000000000000000000e-001) (9, 5, 5.00000000000000000000e-001) (9, 5, 5.00000000000000000000e-001) (9, 5, 5.00000000000000000000e-001) (9, 5, 5.00000000000000000000e-001) (9, 5, 5.00000000000000000000e-001) (9, 5, 5.00000000000000000000e-001) (9, 5, 5.00000000000000000000e-001) (9, 5, 5.00000000000000000000e-001) (9, 5, 5.00000000000000000000e-001) (9, 5, 5.00000000000000000000e-001) (9, 5, 5.00000000000000000000e-001) (9, 5, 5.00000000000000000000e-001) (9, 5, 5.00000000000000000000e-001) (9, 5, 5.00000000000000000000e-001) (9, 5, 5.00000000000000000000e-001) (9, 5, 5.00000000000000000000e-001) (9, 5, 5.00000000000000000000e-001) (9, 5, 5.00000000000000000000e-001) (9, 5, 5.00000000000000000000e-001) (9, 5, 5.00000000000000000000e-001) (9, 5, 5.00000000000000000000e-001) (9, 5, 5.00000000000000000000e-001) (9, 5, 5.00000000000000000000e-001) (9, 5, 5.00000000000000000000e-001) (9, 5, 5.00000000000000000000e-001) (9, 5, 5.00000000000000000000e-001) (9, 5, 5.00000000000000000000e-001) (9, 5, 5.00000000000000000000e-001) (9, 5, 5.00000000000000000000e-001) (9, 5, 5.00000000000000000000e-001) (9, 5, 5.00000000000000000000e-001) (9, 5, 5.00000000000000000000e-001) (9, 5, 5.00000000000000000000e-001) (9, 5, 5.00000000000000000000e-001) (9, 5, 5.00000000000000000000e-001) (9, 5, 5.00000000000000000000e-001) (9, 5, 5.00000000000000000000e-001) (9, 5, 5.00000000000000000000e-001) (9, 5, 5.00000000000000000000e-001) (9, 5, 5.00000000000000000000e-001) (9, 5, 5.00000000000000000000e-001) (9, 5, 5.00000000000000000000e-001) (9, 5, 5.00000000000000000000e-001) (9, 5, 5.00000000000000000000e-001) (9, 5, 5.00000000000000000000e-001) (9, 5, 5.00000000000000000000e-001) (9, 5, 5.00000000000000000000e-001) (9, 5, 5.00000000000000000000e-001) (9, 5, 5.00000000000000000000e-001) (9, 5, 5.00000000000000000000e-001) (9, 5, 5.00000000000000000000e-001) (9, 5, 5.00000000000000000000e-001) (9, 5, 5.00000000000000000000e-001) (9, 5, 5.00000000000000000000e-001) (9, 5, 5.00000000000000000000e-001) (9, 5, 5.00000000000000000000e-001) (9, 5, 5.00000000000000000000e-001) (9, 5, 5.00000000000000000000e-001) (9, 5, 5.00000000000000000000e-001) (9, 5, 5.00000000000000000000e-001) (9, 5, 5.00000000000000000000e-001) (9, 5, 5.00000000000000000000e-001) (9, 5, 5.00000000000000000000e-001) (9, 5, 5.00000000000000000000e-001) (9, 5, 5.00000000000000000000e-001) (9, 5, 5.00000000000000000000e-001) (9, 5, 5.00000000000000000000e-001) (9, 5, 5.00000000000000000000e-001) (9, 5, 5.00000000000000000000e-001) (9, 5, 5.00000000000000000000e-001) (9, 5, 5.00000000000000000000e-001) (9, 5, 5.00000000000000000000e-001) (9, 5, 5.00000000000000000000e-001) (9, 5, 5.00000000000000000000e-001) (9, 5, 5.00000000000000000000e-001) (9, 5, 5.00000000000000000000e-001) (9, 5, 5.00000000000000000000e-001) (9, 5, 5.00000000000000000000e-001) (9, 5, 5.00000000000000000000e-001) (9, 5, 5.00000000000000000000e-001) (9, 5, 5.00000000000000000000e-001) (9, 5, 5.00000000000000000000e-001) (9, 5, 5.00000000000000000000e-001) (9, 5, 5.00000000000000000000e-001) (9, 5, 5.00000000000000000000e-001) (9, 5, 5.00000000000000000000e-001) (9, 5, 5.00000000000000000000e-001) (9, 5, 5.00000000000000000000e-001) (9, 5, 5.00000000000000000000e-001) (9, 5, 5.00000000000000000000e-001) (9, 5, 5.00000000000000000000e-001) (9, 5, 5.00000000000000000000e-001) (9, 5, 5.00000000000000000000e-001) (9, 5, 5.00000000000000000000e-001) (9, 5, 5.00000000000000000000e-001) (9, 5, 5.00000000000000000000e-001) (9, 5, 5.00000000000000000000e-001) (9, 5, 5.00000000000000000000e-001) (9, 5, 5.00000000000000000000e-001) (9, 5, 5.00000000000000000000e-001) (9, 5, 5.00000000000000000000e-001) (9, 5, 5.00000000000000000000e-001) (9, 5, 5.00000000000000000000e-001) (9, 5, 5.00000000000000000000e-001) (9, 5, 5.00000000000000000000e-001) (9, 5, 5.00000000000000000000e-001) (9, 5, 5.00000000000000000000e-001) (9, 5, 5.00000000000000000000e-001) (9, 5, 5.00000000000000000000e-001) (9, 5, 5.00000000000000000000e-001) (9, 5, 5.00000000000000000000e-001) (9, 5, 5.00000000000000000000e-001) (9, 5, 5.00000000000000000000e-001) (9, 5, 5.00000000000000000000e-001) (9, 5, 5.00000000000000000000e-001) (9, 5, 5.00000000000000000000e-001) (9, 5, 5.00000000000000000000e-001) (9, 5, 5.00000000000000000000e-001) (9, 5, 5.00000000000000000000e-001) (9, 5, 5.00000000000000000000e-001) (9, 5, 5.00000000000000000000e-001) (9, 5, 5.00000000000000000000e-001) (9, 5, 5.00000000000000000000e-001) (9, 5, 5.00000000000000000000e-001) (9, 5, 5.00000000000000000000e-001) (9, 5, 5.00000000000000000000e-001) (9, 5, 5.00000000000000000000e-001) (9, 5, 5.00000000000000000000e-001) (9, 5, 5.00000000000000000000e-001) (9, 5, 5.00000000000000000000e-001) (9, 5, 5.00000000000000000000e-001) (9, 5, 5.00000000000000000000e-001) (9, 5, 5.00000000000000000000e-001) (9, 5, 5.00000000000000000000e-001) (9, 5, 5.00000000000000000000e-001) (9, 5, 5.00000000000000000000e-001) (9, 5, 5.00000000000000000000e-001) (9, 5, 5.00000000000000000000e-001) (9, 5, 5.00000000000000000000e-001) (9, 5, 5.00000000000000000000e-001) (9, 5, 5.00000000000000000000e-001) (9, 5, 5.00000000000000000000e-001) (9, 5, 5.00000000000000000000e-001) (9, 5, 5.00000000000000000000e-001) (9, 5, 5.00000000000000000000e-001) (9, 5, 5.00000000000000000000e-001) (9, 5, 5.00000000000000000000e-001) (9, 5, 5.00000000000000000000e-001) (9, 5, 5.00000000000000000000e-001) (9, 5, 5.00000000000000000000e-001) (9, 5, 5.00000000000000000000e-001) (9, 5, 5.00000000000000000000e-001) (9, 5, 5.00000000000000000000e-001) (9, 5, 5.00000000000000000000e-001) (9, 5, 5.00000000000000000000e-001) (9, 5, 5.00000000000000000000e-001) (9, 5, 5.00000000000000000000e-001) (9, 5, 5.00000000000000000000e-001) (9, 5, 5.00000000000000000000e-001) (9, 5, 5.00000000000000000000e-001) (9, 5, 5.00000000000000000000e-001) (9, 5, 5.00000000000000000000e-001) (9, 5, 5.00000000000000000000e-001) (9, 5, 5.00000000000000000000e-001) (9, 5, 5.00000000000000000000e-001) (9, 5, 5.00000000000000000000e-001) (9, 5, 5.00000000000000000000e-001) (9, 5, 5.00000000000000000000e-001) (9, 5, 5.00000000000000000000e-001) (9, 5, 5.00000000000000000000e-001) (9, 5, 5.00000000000000000000e-001) (9, 5, 5.00000000000000000000e-001) (9, 5, 5.00000000000000000000e-001) (9, 5, 5.00000000000000000000e-001) (9, 5, 5.00000000000000000000e-001) (9, 5, 5.00000000000000000000e-001) (9, 5, 5.00000000000000000000e-001) (9, 5, 5.00000000000000000000e-001) (9, 5, 5.00000000000000000000e-001) (9, 5, 5.00000000000000000000e-001) (9, 5, 5.00000000000000000000e-001) (9, 5, 5.00000000000000000000e-001) (9, 5, 5.00000000000000000000e-001) (9, 5, 5.00000000000000000000e-001) (9, 5, 5.00000000000000000000e-001) (9, 5, 5.00000000000000000000e-001) (9, 5, 5.00000000000000000000e-001) (9, 5, 5.00000000000000000000e-001) (9, 5, 5.00000000000000000000e-001) (9, 5, 5.00000000000000000000e-001) (9, 5, 5.00000000000000000000e-001) (9, 5, 5.00000000000000000000e-001) (9, 5, 5.00000000000000000000e-001) (9, 5, 5.00000000000000000000e-001) (9, 5, 5.00000000000000000000e-001) (9, 5, 5.00000000000000000000e-001) (9, 5, 5.00000000000000000000e-001) (9, 5, 5.00000000000000000000e-001) (9, 5, 5.00000000000000000000e-001) (9, 5, 5.00000000000000000000e-001) (9, 5, 5.00000000000000000000e-001) (9, 5, 5.00000000000000000000e-001) (9, 5, 5.00000000000000000000e-001) (9, 5, 5.00000000000000000000e-001) (9, 5, 5.00000000000000000000e-001) (9, 5, 5.00000000000000000000e-001) (9, 5, 5.00000000000000000000e-001) (9, 5, 5.00000000000000000000e-001) (9, 5, 5.00000000000000000000e-001) (9, 5, 5.00000000000000000000e-001) (9, 5, 5.00000000000000000000e-001) (9, 5, 5.00000000000000000000e-001) (9, 5, 5.00000000000000000000e-001) (9, 5, 5.00000000000000000000e-001) (9, 5, 5.00000000000000000000e-001) (9, 5, 5.00000000000000000000e-001) (9, 5, 5.00000000000000000000e-001) (9, 5, 5.00000000000000000000e-001) (9, 5, 5.00000000000000000000e-001) (9, 5, 5.00000000000000000000e-001) (9, 5, 5.00000000000000000000e-001) (9, 5, 5.00000000000000000000e-001) (9, 5, 5.00000000000000000000e-001) (9, 5, 5.00000000000000000000e-001) (9, 5, 5.00000000000000000000e-001) (9, 5, 5.00000000000000000000e-001) (9, 5, 5.00000000000000000000e-001) (9, 5, 5.00000000000000000000e-001) (9, 5, 5.00000000000000000000e-001) (9, 5, 5.00000000000000000000e-001) (9, 5, 5.00000000000000000000e-001) (9, 5, 5.00000000000000000000e-001) (9, 5, 5.00000000000000000000e-001) (9, 5, 5.00000000000000000000e-001) (9, 5, 5.00000000000000000000e-001) (9, 5, 5.00000000000000000000e-001) (9, 5, 5.00000000000000000000e-001) (9, 5, 5.00000000000000000000e-001) (9, 5, 5.00000000000000000000e-001) (9, 5, 5.00000000000000000000e-001) (9, 5, 5.00000000000000000000e-001) (9, 5, 5.00000000000000000000e-001) (9, 5, 5.00000000000000000000e-001) (9, 5, 5.00000000000000000000e-001) (9, 5, 5.00000000000000000000e-001) (9, 5, 5.00000000000000000000e-001) (9, 5, 5.00000000000000000000e-001) (9, 5, 5.00000000000000000000e-001) (9, 5, 5.00000000000000000000e-001) (9, 5, 5.00000000000000000000e-001) (9, 5, 5.00000000000000000000e-001) (9, 5, 5.00000000000000000000e-001) (9, 5, 5.00000000000000000000e-001) (9, 5, 5.00000000000000000000e-001) (9, 5, 5.00000000000000000000e-001) (9, 5, 5.00000000000000000000e-001) (9, 5, 5.00000000000000000000e-001) (9, 5, 5.00000000000000000000e-001) (9, 5, 5.00000000000000000000e-001) (9, 5, 5.00000000000000000000e-001) (9, 5, 5.00000000000000000000e-001) (9, 5, 5.00000000000000000000e-001) (9, 5, 5.00000000000000000000e-001) (9, 5, 5.00000000000000000000e-001) (9, 5, 5.00000000000000000000e-001) (9, 5, 5.00000000000000000000e-001) (9, 5, 5.00000000000000000000e-001) (9, 5, 5.00000000000000000000e-001) (9, 5, 5.00000000000000000000e-001) (9, 5, 5.00000000000000000000e-001) (9, 5, 5.00000000000000000000e-001) (9, 5, 5.00000000000000000000e-001) (9, 5, 5.00000000000000000000e-001) (9, 5, 5.00000000000000000000e-001) (9, 5, 5.00000000000000000000e-001) (9, 5, 5.00000000000000000000e-001) (9, 5, 5.00000000000000000000e-001) (9, 5, 5.00000000000000000000e-001) (9, 5, 5.00000000000000000000e-001) (9, 5, 5.00000000000000000000e-001) (9, 5, 5.00000000000000000000e-001) (9, 5, 5.00000000000000000000e-001) (9, 5, 5.00000000000000000000e-001) (9, 5, 5.00000000000000000000e-001) (9, 5, 5.00000000000000000000e-001) (9, 5, 5.00000000000000000000e-001) (9, 5, 5.00000000000000000000e-001) (9, 5, 5.00000000000000000000e-001) (9, 5, 5.00000000000000000000e-001) (9, 5, 5.00000000000000000000e-001) (9, 5, 5.00000000000000000000e-001) (9, 5, 5.00000000000000000000e-001) (9, 5, 5.00000000000000000000e-001) (9, 5, 5.00000000000000000000e-001) (9, 5, 5.00000000000000000000e-001) (9, 5, 5.00000000000000000000e-001) (9, 5, 5.00000000000000000000e-001) (9, 5, 5.00000000000000000000e-001) (9, 5, 5.00000000000000000000e-001) (9, 5, 5.00000000000000000000e-001) (9, 5, 5.00000000000000000000e-001) (9, 5, 5.00000000000000000000e-001) (9, 5, 5.00000000000000000000e-001) (9, 5, 5.00000000000000000000e-001) (9, 5, 5.00000000000000000000e-001) (9, 5, 5.00000000000000000000e-001) (9, 5, 5.00000000000000000000e-001) (9, 5, 5.00000000000000000000e-001) (9, 5, 5.00000000000000000000e-001) (9, 5, 5.00000000000000000000e-001) (9, 5, 5.00000000000000000000e-001) (9, 5, 5.00000000000000000000e-001) (9, 5, 5.00000000000000000000e-001) (9, 5, 5.00000000000000000000e-001) (9, 5, 5.00000000000000000000e-001) (9, 5, 5.00000000000000000000e-001) (9, 5, 5.00000000000000000000e-001) (9, 5, 5.00000000000000000000e-001) (9, 5, 5.00000000000000000000e-001) (9, 5, 5.00000000000000000000e-001) (9, 5, 5.00000000000000000000e-001) (9, 5, 5.00000000000000000000e-001) (9, 5, 5.00000000000000000000e-001) (9, 5, 5.00000000000000000000e-001) (9, 5, 5.00000000000000000000e-001) (9, 5, 5.00000000000000000000e-001) (9, 5, 5.00000000000000000000e-001) (9, 5, 5.00000000000000000000e-001) (9, 5, 5.00000000000000000000e-001) (9, 5, 5.00000000000000000000e-001) (9, 5, 5.00000000000000000000e-001) (9, 5, 5.00000000000000000000e-001) (9, 5, 5.00000000000000000000e-001) (9, 5, 5.00000000000000000000e-001) (9, 5, 5.00000000000000000000e-001) (9, 5, 5.00000000000000000000e-001) (9, 5, 5.00000000000000000000e-001) (9, 5, 5.00000000000000000000e-001) (9, 5, 5.00000000000000000000e-001) (9, 5, 5.00000000000000000000e-001) (9, 5, 5.00000000000000000000e-001) (9, 5, 5.00000000000000000000e-001) (9, 5, 5.00000000000000000000e-001) (9, 5, 5.00000000000000000000e-001) (9, 5, 5.00000000000000000000e-001) (9, 5, 5.00000000000000000000e-001) (9, 5, 5.00000000000000000000e-001) (9, 5, 5.00000000000000000000e-001) (9, 5, 5.00000000000000000000e-001) (9, 5, 5.00000000000000000000e-001) (9, 5, 5.00000000000000000000e-001) (9, 5, 5.00000000000000000000e-001) (9, 5, 5.00000000000000000000e-001) (9, 5, 5.00000000000000000000e-001) (9, 5, 5.00000000000000000000e-001) (9, 5, 5.00000000000000000000e-001) (9, 5, 5.00000000000000000000e-001) (9, 5, 5.00000000000000000000e-001) (9, 5, 5.00000000000000000000e-001) (9, 5, 5.00000000000000000000e-001) (9, 5, 5.00000000000000000000e-001) (9, 5, 5.00000000000000000000e-001) (9, 5, 5.00000000000000000000e-001) (9, 5, 5.00000000000000000000e-001) (9, 5, 5.00000000000000000000e-001) (9, 5, 5.00000000000000000000e-001) (9, 5, 5.00000000000000000000e-001) (9, 5, 5.00000000000000000000e-001) (9, 5, 5.00000000000000000000e-001) (9, 5, 5.00000000000000000000e-001) (9, 5, 5.00000000000000000000e-001) (9, 5, 5.00000000000000000000e-001) (9, 5, 5.00000000000000000000e-001) (9, 5, 5.00000000000000000000e-001) (9, 5, 5.00000000000000000000e-001) (9, 5, 5.00000000000000000000e-001) (9, 5, 5.00000000000000000000e-001) (9, 5, 5.00000000000000000000e-001) (9, 5, 5.00000000000000000000e-001) (9, 5, 5.00000000000000000000e-001) (9, 5, 5.00000000000000000000e-001) (9, 5, 5.00000000000000000000e-001) (9, 5, 5.00000000000000000000e-001) (9, 5, 5.00000000000000000000e-001) (9, 5, 5.00000000000000000000e-001) (9, 5, 5.00000000000000000000e-001) (9, 5, 5.00000000000000000000e-001) (9, 5, 5.00000000000000000000e-001) (9, 5, 5.00000000000000000000e-001) (9, 5, 5.00000000000000000000e-001) (9, 5, 5.00000000000000000000e-001) (9, 5, 5.00000000000000000000e-001) (9, 5, 5.00000000000000000000e-001) (9, 5, 5.00000000000000000000e-001) (9, 5, 5.00000000000000000000e-001) (9, 5, 5.00000000000000000000e-001) (9, 5, 5.00000000000000000000e-001) (9, 5, 5.00000000000000000000e-001) (9, 5, 5.00000000000000000000e-001) (9, 5, 5.00000000000000000000e-001) (9, 5, 5.00000000000000000000e-001) (9, 5, 5.00000000000000000000e-001) (9, 5, 5.00000000000000000000e-001) (9, 5, 5.00000000000000000000e-001) (9, 5, 5.00000000000000000000e-001) (9, 5, 5.00000000000000000000e-001) (9, 5, 5.00000000000000000000e-001) (9, 5, 5.00000000000000000000e-001) (9, 5, 5.00000000000000000000e-001) (9, 5, 5.00000000000000000000e-001) (9, 5, 5.00000000000000000000e-001) (9, 5, 5.00000000000000000000e-001) (9, 5, 5.00000000000000000000e-001) (9, 5, 5.00000000000000000000e-001) (9, 5, 5.00000000000000000000e-001) (9, 5, 5.00000000000000000000e-001) (9, 5, 5.00000000000000000000e-001) (9, 5, 5.00000000000000000000e-001) (9, 5, 5.00000000000000000000e-001) (9, 5, 5.00000000000000000000e-001) (9, 5, 5.00000000000000000000e-001) (9, 5, 5.00000000000000000000e-001) (9, 5, 5.00000000000000000000e-001) (9, 5, 5.00000000000000000000e-001) (9, 5, 5.00000000000000000000e-001) (9, 5, 5.00000000000000000000e-001) (9, 5, 5.00000000000000000000e-001) (9, 5, 5.00000000000000000000e-001) (9, 5, 5.00000000000000000000e-001) (9, 5, 5.00000000000000000000e-001) (9, 5, 5.00000000000000000000e-001) (9, 5, 5.00000000000000000000e-001) (9, 5, 5.00000000000000000000e-001) (9, 5, 5.00000000000000000000e-001) (9, 5, 5.00000000000000000000e-001) (9, 5, 5.00000000000000000000e-001) (9, 5, 5.00000000000000000000e-001) (9, 5, 5.00000000000000000000e-001) (9, 5, 5.00000000000000000000e-001) (9, 5, 5.00000000000000000000e-001) (9, 5, 5.00000000000000000000e-001) (9, 5, 5.00000000000000000000e-001) (9, 5, 5.00000000000000000000e-001) (9, 5, 5.00000000000000000000e-001) (9, 5, 5.00000000000000000000e-001) (9, 5, 5.00000000000000000000e-001) (9, 5, 5.00000000000000000000e-001) (9, 5, 5.00000000000000000000e-001) (9, 5, 5.00000000000000000000e-001) (9, 5, 5.00000000000000000000e-001) (9, 5, 5.00000000000000000000e-001) (9, 5, 5.00000000000000000000e-001) (9, 5, 5.00000000000000000000e-001) (9, 5, 5.00000000000000000000e-001) (9, 5, 5.00000000000000000000e-001) (9, 5, 5.00000000000000000000e-001) (9, 5, 5.00000000000000000000e-001) (9, 5, 5.00000000000000000000e-001) (9, 5, 5.00000000000000000000e-001) (9, 5, 5.00000000000000000000e-001) (9, 5, 5.00000000000000000000e-001) (9, 5, 5.00000000000000000000e-001) (9, 5, 5.00000000000000000000e-001) (9, 5, 5.00000000000000000000e-001) (9, 5, 5.00000000000000000000e-001) (9, 5, 5.00000000000000000000e-001) (9, 5, 5.00000000000000000000e-001) (9, 5, 5.00000000000000000000e-001) (9, 5, 5.00000000000000000000e-001) (9, 5, 5.00000000000000000000e-001) (9, 5, 5.00000000000000000000e-001) (9, 5, 5.00000000000000000000e-001) (9, 5, 5.00000000000000000000e-001) (9, 5, 5.00000000000000000000e-001) (9, 5, 5.00000000000000000000e-001) (9, 5, 5.00000000000000000000e-001) (9, 5, 5.00000000000000000000e-001) (9, 5, 5.00000000000000000000e-001) (9, 5, 5.00000000000000000000e-001) (9, 5, 5.00000000000000000000e-001) (9, 5, 5.00000000000000000000e-001) (9, 5, 5.00000000000000000000e-001) (9, 5, 5.00000000000000000000e-001) (9, 5, 5.00000000000000000000e-001) (9, 5, 5.00000000000000000000e-001) (9, 5, 5.00000000000000000000e-001) (9, 5, 5.00000000000000000000e-001) (9, 5, 5.00000000000000000000e-001) (9, 5, 5.00000000000000000000e-001) (9, 5, 5.00000000000000000000e-001) (9, 5, 5.00000000000000000000e-001) (9, 5, 5.00000000000000000000e-001) (9, 5, 5.00000000000000000000e-001) (9, 5, 5.00000000000000000000e-001) (9, 5, 5.00000000000000000000e-001) (9, 5, 5.00000000000000000000e-001) (9, 5, 5.00000000000000000000e-001) (9, 5, 5.00000000000000000000e-001) (9, 5, 5.00000000000000000000e-001) (9, 5, 5.00000000000000000000e-001) (9, 5, 5.00000000000000000000e-001) (9, 5, 5.00000000000000000000e-001) (9, 5, 5.00000000000000000000e-001) (9, 5, 5.00000000000000000000e-001) (9, 5, 5.00000000000000000000e-001) (9, 5, 5.00000000000000000000e-001) (9, 5, 5.00000000000000000000e-001) (9, 5, 5.00000000000000000000e-001) (9, 5, 5.00000000000000000000e-001) (9, 5, 5.00000000000000000000e-001) (9, 5, 5.00000000000000000000e-001) (9, 5, 5.00000000000000000000e-001) (9, 5, 5.00000000000000000000e-001) (9, 5, 5.00000000000000000000e-001) (9, 5, 5.00000000000000000000e-001) (9, 5, 5.00000000000000000000e-001) (9, 5, 5.00000000000000000000e-001) (9, 5, 5.00000000000000000000e-001) (9, 5, 5.00000000000000000000e-001) (9, 5, 5.00000000000000000000e-001) (9, 5, 5.00000000000000000000e-001) (9, 5, 5.00000000000000000000e-001) (9, 5, 5.00000000000000000000e-001) (9, 5, 5.00000000000000000000e-001) (9, 5, 5.00000000000000000000e-001) (9, 5, 5.00000000000000000000e-001) (9, 5, 5.00000000000000000000e-001) (9, 5, 5.00000000000000000000e-001) (9, 5, 5.00000000000000000000e-001) (9, 5, 5.00000000000000000000e-001) (9, 5, 5.00000000000000000000e-001) (9, 5, 5.00000000000000000000e-001) (9, 5, 5.00000000000000000000e-001) (9, 5, 5.00000000000000000000e-001) (9, 5, 5.00000000000000000000e-001) (9, 5, 5.00000000000000000000e-001) (9, 5, 5.00000000000000000000e-001) (9, 5, 5.00000000000000000000e-001) (9, 5, 5.00000000000000000000e-001) (9, 5, 5.00000000000000000000e-001) (9, 5, 5.00000000000000000000e-001) (9, 5, 5.00000000000000000000e-001) (9, 5, 5.00000000000000000000e-001) (9, 5, 5.00000000000000000000e-001) (9, 5, 5.00000000000000000000e-001) (9, 5, 5.00000000000000000000e-001) (9, 5, 5.00000000000000000000e-001) (9, 5, 5.00000000000000000000e-001) (9, 5, 5.00000000000000000000e-001) (9, 5, 5.00000000000000000000e-001) (9, 5, 5.00000000000000000000e-001) (9, 5, 5.00000000000000000000e-001) (9, 5, 5.00000000000000000000e-001) (9, 5, 5.00000000000000000000e-001) (9, 5, 5.00000000000000000000e-001) (9, 5, 5.00000000000000000000e-001) (9, 5, 5.00000000000000000000e-001) (9, 5, 5.00000000000000000000e-001) (9, 5, 5.00000000000000000000e-001) (9, 5, 5.00000000000000000000e-001) (9, 5, 5.00000000000000000000e-001) (9, 5, 5.00000000000000000000e-001) (9, 5, 5.00000000000000000000e-001) (9, 5, 5.00000000000000000000e-001) (9, 5, 5.00000000000000000000e-001) (9, 5, 5.00000000000000000000e-001) (9, 5, 5.00000000000000000000e-001) (9, 5, 5.00000000000000000000e-001) (9, 5, 5.00000000000000000000e-001) (9, 5, 5.00000000000000000000e-001) (9, 5, 5.00000000000000000000e-001) (9, 5, 5.00000000000000000000e-001) (9, 5, 5.00000000000000000000e-001) (9, 5, 5.00000000000000000000e-001) (9, 5, 5.00000000000000000000e-001) (9, 5, 5.00000000000000000000e-001) (9, 5, 5.00000000000000000000e-001) (9, 5, 5.00000000000000000000e-001) (9, 5, 5.00000000000000000000e-001) (9, 5, 5.00000000000000000000e-001) (9, 5, 5.00000000000000000000e-001) (9, 5, 5.00000000000000000000e-001) (9, 5, 5.00000000000000000000e-001) (9, 5, 5.00000000000000000000e-001) (9, 5, 5.00000000000000000000e-001) (9, 5, 5.00000000000000000000e-001) (9, 5, 5.00000000000000000000e-001) (9, 5, 5.00000000000000000000e-001) (9, 5, 5.00000000000000000000e-001) (9, 5, 5.00000000000000000000e-001) (9, 5, 5.00000000000000000000e-001) (9, 5, 5.00000000000000000000e-001) (9, 5, 5.00000000000000000000e-001) (9, 5, 5.00000000000000000000e-001) (9, 5, 5.00000000000000000000e-001) (9, 5, 5.00000000000000000000e-001) (9, 5, 5.00000000000000000000e-001) (9, 5, 5.00000000000000000000e-001) (9, 5, 5.00000000000000000000e-001) (9, 5, 5.00000000000000000000e-001) (9, 5, 5.00000000000000000000e-001) (9, 5, 5.00000000000000000000e-001) (9, 5, 5.00000000000000000000e-001) (9, 5, 5.00000000000000000000e-001) (9, 5, 5.00000000000000000000e-001) (9, 5, 5.00000000000000000000e-001) (9, 5, 5.00000000000000000000e-001) (9, 5, 5.00000000000000000000e-001) (9, 5, 5.00000000000000000000e-001) (9, 5, 5.00000000000000000000e-001) (9, 5, 5.00000000000000000000e-001) (9, 5, 5.00000000000000000000e-001) (9, 5, 5.00000000000000000000e-001) (9, 5, 5.00000000000000000000e-001) (9, 5, 5.00000000000000000000e-001) (9, 5, 5.00000000000000000000e-001) (9, 5, 5.00000000000000000000e-001) (9, 5, 5.00000000000000000000e-001) (9, 5, 5.00000000000000000000e-001) (9, 5, 5.00000000000000000000e-001) (9, 5, 5.00000000000000000000e-001) (9, 5, 5.00000000000000000000e-001) (9, 5, 5.00000000000000000000e-001) (9, 5, 5.00000000000000000000e-001) (9, 5, 5.00000000000000000000e-001) (9, 5, 5.00000000000000000000e-001) (9, 5, 5.00000000000000000000e-001) (9, 5, 5.00000000000000000000e-001) (9, 5, 5.00000000000000000000e-001) (9, 5, 5.00000000000000000000e-001) (9, 5, 5.00000000000000000000e-001) (9, 5, 5.00000000000000000000e-001) (9, 5, 5.00000000000000000000e-001) (9, 5, 5.00000000000000000000e-001) (9, 5, 5.00000000000000000000e-001) (9, 5, 5.00000000000000000000e-001) (9, 5, 5.00000000000000000000e-001) (9, 5, 5.00000000000000000000e-001) (9, 5, 5.00000000000000000000e-001) (9, 5, 5.00000000000000000000e-001) (9, 5, 5.00000000000000000000e-001) (9, 5, 5.00000000000000000000e-001) (9, 5, 5.00000000000000000000e-001) (9, 5, 5.00000000000000000000e-001) (9, 5, 5.00000000000000000000e-001) (9, 5, 5.00000000000000000000e-001) (9, 5, 5.00000000000000000000e-001) (9, 5, 5.00000000000000000000e-001) (9, 5, 5.00000000000000000000e-001) (9, 5, 5.00000000000000000000e-001) (9, 5, 5.00000000000000000000e-001) (9, 5, 5.00000000000000000000e-001) (9, 5, 5.00000000000000000000e-001) (9, 5, 5.00000000000000000000e-001) (9, 5, 5.00000000000000000000e-001) (9, 5, 5.00000000000000000000e-001) (9, 5, 5.00000000000000000000e-001) (9, 5, 5.00000000000000000000e-001) (9, 5, 5.00000000000000000000e-001) (9, 5, 5.00000000000000000000e-001) (9, 5, 5.00000000000000000000e-001) (9, 5, 5.00000000000000000000e-001) (9, 5, 5.00000000000000000000e-001) (9, 5, 5.00000000000000000000e-001) (9, 5, 5.00000000000000000000e-001) (9, 5, 5.00000000000000000000e-001) (9, 5, 5.00000000000000000000e-001) (9, 5, 5.00000000000000000000e-001) (9, 5, 5.00000000000000000000e-001) (9, 5, 5.00000000000000000000e-001) (9, 5, 5.00000000000000000000e-001) (9, 5, 5.00000000000000000000e-001) (9, 5, 5.00000000000000000000e-001) (9, 5, 5.00000000000000000000e-001) (9, 5, 5.00000000000000000000e-001) (9, 5, 5.00000000000000000000e-001) (9, 5, 5.00000000000000000000e-001) (9, 5, 5.00000000000000000000e-001) (9, 5, 5.00000000000000000000e-001) (9, 5, 5.00000000000000000000e-001) (9, 5, 5.00000000000000000000e-001) (9, 5, 5.00000000000000000000e-001) (9, 5, 5.00000000000000000000e-001) (9, 5, 5.00000000000000000000e-001) (9, 5, 5.00000000000000000000e-001) (9, 5, 5.00000000000000000000e-001) (9, 5, 5.00000000000000000000e-001) (9, 5, 5.00000000000000000000e-001) (9, 5, 5.00000000000000000000e-001) (9, 5, 5.00000000000000000000e-001) (9, 5, 5.00000000000000000000e-001) (9, 5, 5.00000000000000000000e-001) (9, 5, 5.00000000000000000000e-001) (9, 5, 5.00000000000000000000e-001) (9, 5, 5.00000000000000000000e-001) (9, 5, 5.00000000000000000000e-001) (9, 5, 5.00000000000000000000e-001) (9, 5, 5.00000000000000000000e-001) (9, 5, 5.00000000000000000000e-001) (9, 5, 5.00000000000000000000e-001) (9, 5, 5.00000000000000000000e-001) (9, 5, 5.00000000000000000000e-001) (9, 5, 5.00000000000000000000e-001) (9, 5, 5.00000000000000000000e-001) (9, 5, 5.00000000000000000000e-001) (9, 5, 5.00000000000000000000e-001) (9, 5, 5.00000000000000000000e-001) (9, 5, 5.00000000000000000000e-001) (9, 5, 5.00000000000000000000e-001) (9, 5, 5.00000000000000000000e-001) (9, 5, 5.00000000000000000000e-001) (9, 5, 5.00000000000000000000e-001) (9, 5, 5.00000000000000000000e-001) (9, 5, 5.00000000000000000000e-001) (9, 5, 5.00000000000000000000e-001) (9, 5, 5.00000000000000000000e-001) (9, 5, 5.00000000000000000000e-001) (9, 5, 5.00000000000000000000e-001) (9, 5, 5.00000000000000000000e-001) (9, 5, 5.00000000000000000000e-001) (9, 5, 5.00000000000000000000e-001) (9, 5, 5.00000000000000000000e-001) (9, 5, 5.00000000000000000000e-001) (9, 5, 5.00000000000000000000e-001) (9, 5, 5.00000000000000000000e-001) (9, 5, 5.00000000000000000000e-001) (9, 5, 5.00000000000000000000e-001) (9, 5, 5.00000000000000000000e-001) (9, 5, 5.00000000000000000000e-001) (9, 5, 5.00000000000000000000e-001) (9, 5, 5.00000000000000000000e-001) (9, 5, 5.00000000000000000000e-001) (9, 5, 5.00000000000000000000e-001) (9, 5, 5.00000000000000000000e-001) (9, 5, 5.00000000000000000000e-001) (9, 5, 5.00000000000000000000e-001) (9, 5, 5.00000000000000000000e-001) (9, 5, 5.00000000000000000000e-001) (9, 5, 5.00000000000000000000e-001) (9, 5, 5.00000000000000000000e-001) (9, 5, 5.00000000000000000000e-001) (9, 5, 5.00000000000000000000e-001) (9, 5, 5.00000000000000000000e-001) (9, 5, 5.00000000000000000000e-001) (9, 5, 5.00000000000000000000e-001) (9, 5, 5.00000000000000000000e-001) (9, 5, 5.00000000000000000000e-001) (9, 5, 5.00000000000000000000e-001) (9, 5, 5.00000000000000000000e-001) (9, 5, 5.00000000000000000000e-001) (9, 5, 5.00000000000000000000e-001) (9, 5, 5.00000000000000000000e-001) (9, 5, 5.00000000000000000000e-001) (9, 5, 5.00000000000000000000e-001) (9, 5, 5.00000000000000000000e-001) (9, 5, 5.00000000000000000000e-001) (9, 5, 5.00000000000000000000e-001) (9, 5, 5.00000000000000000000e-001) (9, 5, 5.00000000000000000000e-001) (9, 5, 5.00000000000000000000e-001) (9, 5, 5.00000000000000000000e-001) (9, 5, 5.00000000000000000000e-001) (9, 5, 5.00000000000000000000e-001) (9, 5, 5.00000000000000000000e-001) (9, 5, 5.00000000000000000000e-001) (9, 5, 5.00000000000000000000e-001) (9, 5, 5.00000000000000000000e-001) (9, 5, 5.00000000000000000000e-001) (9, 5, 5.00000000000000000000e-001) (9, 5, 5.00000000000000000000e-001) (9, 5, 5.00000000000000000000e-001) (9, 5, 5.00000000000000000000e-001) (9, 5, 5.00000000000000000000e-001) (9, 5, 5.00000000000000000000e-001) (9, 5, 5.00000000000000000000e-001) (9, 5, 5.00000000000000000000e-001) (9, 5, 5.00000000000000000000e-001) (9, 5, 5.00000000000000000000e-001) (9, 5, 5.00000000000000000000e-001) (9, 5, 5.00000000000000000000e-001) (9, 5, 5.00000000000000000000e-001) (9, 5, 5.00000000000000000000e-001) (9, 5, 5.00000000000000000000e-001) (9, 5, 5.00000000000000000000e-001) (9, 5, 5.00000000000000000000e-001) (9, 5, 5.00000000000000000000e-001) (9, 5, 5.00000000000000000000e-001) (9, 5, 5.00000000000000000000e-001) (9, 5, 5.00000000000000000000e-001) (9, 5, 5.00000000000000000000e-001) (9, 5, 5.00000000000000000000e-001) (9, 5, 5.00000000000000000000e-001) (9, 5, 5.00000000000000000000e-001) (9, 5, 5.00000000000000000000e-001) (9, 5, 5.00000000000000000000e-001) (9, 5, 5.00000000000000000000e-001) (9, 5, 5.00000000000000000000e-001) (9, 5, 5.00000000000000000000e-001) (9, 5, 5.00000000000000000000e-001) (9, 5, 5.00000000000000000000e-001) (9, 5, 5.00000000000000000000e-001) (9, 5, 5.00000000000000000000e-001) (9, 5, 5.00000000000000000000e-001) (9, 5, 5.00000000000000000000e-001) (9, 5, 5.00000000000000000000e-001) (9, 5, 5.00000000000000000000e-001) (9, 5, 5.00000000000000000000e-001) (9, 5, 5.00000000000000000000e-001) (9, 5, 5.00000000000000000000e-001) (9, 5, 5.00000000000000000000e-001) (9, 5, 5.00000000000000000000e-001) (9, 5, 5.00000000000000000000e-001) (9, 5, 5.00000000000000000000e-001) (0, 5, 5.00000000000000000000e-001) (1000, 5, 5.00000000000000000000e-001) (1000, 5, 5.00000000000000000000e-001) (0, 5, 5.00000000000000000000e-001) 
connections (connected_to_neuron, weight)=(0, 3.83541136980056760000e-002) (1, -1.30751147866249080000e-001) (2, -5.05730733275413510000e-002) (3, 4.46435026824474330000e-002) (4, -9.10263806581497190000e-002) (5, -1.50288924574851990000e-001) (6, 3.14944162964820860000e-002) (7, -7.98083990812301640000e-002) (8, 1.15040466189384460000e-001) (0, 1.47645873948931690000e-002) (1, -1.30521878600120540000e-001) (2, 1.04555234313011170000e-001) (3, 9.21023190021514890000e-002) (4, 5.24607710540294650000e-002) (5, -1.34747892618179320000e-001) (6, 3.95500706508755680000e-003) (7, -6.55666291713714600000e-002) (8, 8.55030342936515810000e-002) (0, -8.65381509065628050000e-002) (1, 4.45207506418228150000e-002) (2, -7.11578801274299620000e-002) (3, 9.35253687202930450000e-003) (4, -5.75836338102817540000e-002) (5, -3.05766053497791290000e-002) (6, 5.93831874430179600000e-002) (7, -5.23973181843757630000e-002) (8, -7.13676512241363530000e-002) (0, -2.23712138831615450000e-002) (1, -3.16263623535633090000e-002) (2, -4.72387336194515230000e-002) (3, 4.13285754621028900000e-002) (4, -8.60273912549018860000e-002) (5, -5.23192174732685090000e-002) (6, -9.92479100823402400000e-002) (7, 7.79985561966896060000e-002) (8, 5.35439737141132350000e-002) (0, -2.68292520195245740000e-002) (1, -7.27129429578781130000e-002) (2, -6.93966075778007510000e-002) (3, 4.63756583631038670000e-002) (4, 4.72459159791469570000e-002) (5, 7.13988319039344790000e-002) (6, 5.36308735609054570000e-002) (7, -3.43970656394958500000e-002) (8, -5.56548126041889190000e-003) (0, -1.17364965379238130000e-001) (1, -8.27060714364051820000e-002) (2, 6.60795941948890690000e-002) (3, 4.67157773673534390000e-002) (4, -5.67439571022987370000e-002) (5, 3.09234578162431720000e-002) (6, 1.20407864451408390000e-002) (7, 9.21047255396842960000e-002) (8, 1.38899251818656920000e-001) (0, 4.86374720931053160000e-002) (1, 8.35647806525230410000e-002) (2, 7.70081952214241030000e-003) (3, -4.46364209055900570000e-002) (4, 7.98153132200241090000e-002) (5, 1.16767056286334990000e-001) (6, -9.29807126522064210000e-002) (7, 8.63906964659690860000e-002) (8, 1.22596453875303270000e-002) (0, -5.00086843967437740000e-002) (1, -4.45852540433406830000e-002) (2, -1.82401165366172790000e-002) (3, -8.60977917909622190000e-002) (4, -1.72895882278680800000e-002) (5, 4.04992736876010890000e-002) (6, 7.30363950133323670000e-002) (7, 7.31708556413650510000e-002) (8, 7.23015666007995610000e-002) (0, 2.48178727924823760000e-002) (1, -6.52585327625274660000e-002) (2, -3.91547977924346920000e-002) (3, 7.28305056691169740000e-002) (4, -1.90244484692811970000e-002) (5, 8.69388878345489500000e-002) (6, 6.86542987823486330000e-002) (7, 6.89520165324211120000e-002) (8, 6.46463483572006230000e-002) (0, 4.02067601680755620000e-002) (1, -2.66930144280195240000e-002) (2, 5.45885227620601650000e-002) (3, 1.38214398175477980000e-002) (4, -1.66470855474472050000e-002) (5, -7.80684649944305420000e-002) (6, 7.13436007499694820000e-002) (7, 3.84172312915325160000e-002) (8, -4.99963248148560520000e-003) (0, 5.08251786231994630000e-002) (1, 3.86667400598526000000e-002) (2, 1.77307669073343280000e-002) (3, 6.80408999323844910000e-003) (4, 6.76975175738334660000e-002) (5, 1.27493605017662050000e-001) (6, -3.45730558037757870000e-002) (7, 6.96018114686012270000e-002) (8, -1.46121472120285030000e-001) (0, -8.01045149564743040000e-002) (1, -6.20367303490638730000e-002) (2, -4.46346215903759000000e-002) (3, -8.84004458785057070000e-002) (4, -6.25025853514671330000e-002) (5, -6.85312673449516300000e-002) (6, -4.42438712343573570000e-003) (7, -9.06756818294525150000e-002) (8, 1.84262990951538090000e-001) (0, -8.30883458256721500000e-002) (1, 4.61655743420124050000e-002) (2, 2.37929821014404300000e-002) (3, -8.66268277168273930000e-002) (4, 1.39867868274450300000e-002) (5, 8.48416313529014590000e-002) (6, -5.82414865493774410000e-002) (7, 9.27983298897743230000e-002) (8, -9.21059458050876860000e-004) (0, -9.07277464866638180000e-002) (1, -1.55397310853004460000e-001) (2, -8.06235969066619870000e-002) (3, -6.34009316563606260000e-002) (4, -3.00091952085495000000e-002) (5, -7.00177177786827090000e-002) (6, 1.26772345975041390000e-002) (7, -4.63706254959106450000e-003) (8, 7.19326436519622800000e-002) (0, -7.31722712516784670000e-002) (1, -6.70374408364295960000e-002) (2, 5.82796409726142880000e-002) (3, 6.66225850582122800000e-002) (4, -9.88329667598009110000e-003) (5, 5.86670599877834320000e-002) (6, 1.21054360643029210000e-002) (7, 8.75254645943641660000e-002) (8, 1.00707530975341800000e-001) (0, 4.73486669361591340000e-002) (1, -1.23411364853382110000e-001) (2, -1.18520976975560190000e-002) (3, -2.25809514522552490000e-002) (4, 9.05243586748838420000e-003) (5, 1.92349497228860860000e-002) (6, 2.00072322040796280000e-002) (7, 4.85962368547916410000e-002) (8, 1.29492715001106260000e-001) (0, 2.84917303360998630000e-003) (1, -1.11674964427948000000e-001) (2, 7.12663158774375920000e-002) (3, 6.28477260470390320000e-002) (4, 4.10633714636787770000e-004) (5, 3.63254770636558530000e-002) (6, -9.48228240013122560000e-002) (7, 4.21223938465118410000e-002) (8, -5.78666739165782930000e-002) (0, 7.07177892327308650000e-002) (1, -1.50336161255836490000e-001) (2, 2.13491935282945630000e-002) (3, -1.03423781692981720000e-001) (4, 3.97626981139183040000e-002) (5, -2.74725770577788350000e-003) (6, -8.14625397324562070000e-002) (7, -4.22160737216472630000e-002) (8, -1.03762336075305940000e-002) (0, 8.45961198210716250000e-002) (1, 5.49087636172771450000e-002) (2, 9.60386097431182860000e-002) (3, 2.53159720450639720000e-002) (4, 5.41551075875759120000e-002) (5, -3.74060147441923620000e-003) (6, -9.28727984428405760000e-002) (7, -7.87566229701042180000e-002) (8, -9.91890430450439450000e-002) (0, -5.70208691060543060000e-002) (1, -2.14512702077627180000e-002) (2, -1.16136269643902780000e-002) (3, 7.49799311161041260000e-002) (4, -5.29771707952022550000e-002) (5, 9.37610343098640440000e-002) (6, 3.66376303136348720000e-002) (7, 9.39475223422050480000e-002) (8, -8.05296450853347780000e-002) (0, 1.11397810280323030000e-001) (1, 8.01706686615943910000e-002) (2, 2.52811778336763380000e-002) (3, -2.51973588019609450000e-002) (4, -8.06259661912918090000e-002) (5, 9.82793867588043210000e-002) (6, 6.73453211784362790000e-002) (7, -8.75485986471176150000e-002) (8, -1.05389930307865140000e-001) (0, -1.13066129386425020000e-001) (1, -5.48196174204349520000e-002) (2, -6.44062384963035580000e-002) (3, 2.19826865941286090000e-003) (4, -6.95867538452148440000e-002) (5, -1.20190292596817020000e-001) (6, -8.56892541050910950000e-002) (7, 6.78367689251899720000e-002) (8, 9.03612002730369570000e-002) (0, -1.01084396243095400000e-001) (1, -7.59495645761489870000e-002) (2, -1.34333560708910230000e-003) (3, 3.49192991852760310000e-002) (4, 2.79343724250793460000e-002) (5, 6.83240145444870000000e-002) (6, 9.64600741863250730000e-002) (7, 7.39076212048530580000e-002) (8, -2.18343604356050490000e-002) (0, 1.15074805915355680000e-001) (1, 2.33264654874801640000e-001) (2, -2.06676609814167020000e-002) (3, 3.07345371693372730000e-002) (4, 7.20236375927925110000e-002) (5, 8.77657830715179440000e-002) (6, 9.91198942065238950000e-002) (7, 3.79531979560852050000e-002) (8, -1.19922250509262080000e-001) (0, -1.04894302785396580000e-001) (1, 3.68543453514575960000e-002) (2, 9.93592292070388790000e-002) (3, -1.29750659689307210000e-002) (4, 4.77429553866386410000e-002) (5, 5.01508191227912900000e-002) (6, -2.42247600108385090000e-002) (7, -7.52580240368843080000e-002) (8, -1.96204762905836110000e-002) (0, -5.11648952960968020000e-002) (1, 4.53039892017841340000e-002) (2, 2.85570137202739720000e-002) (3, 5.29015203937888150000e-003) (4, 9.48439314961433410000e-002) (5, 5.96283227205276490000e-002) (6, 9.10975933074951170000e-002) (7, -3.87248210608959200000e-002) (8, -1.24775938689708710000e-001) (0, -8.12920928001403810000e-002) (1, -1.03681184351444240000e-001) (2, -5.19129931926727290000e-002) (3, -4.63325046002864840000e-002) (4, 8.11715945601463320000e-002) (5, 7.79825076460838320000e-002) (6, 7.31951557099819180000e-003) (7, 3.23208793997764590000e-002) (8, 6.49955496191978450000e-002) (0, -1.47798638790845870000e-002) (1, -1.36634677648544310000e-001) (2, 5.88487423956394200000e-002) (3, -3.59091088175773620000e-002) (4, 1.73474859911948440000e-003) (5, -2.34510339796543120000e-002) (6, -5.52090927958488460000e-002) (7, 9.66778770089149480000e-002) (8, 7.31049105525016780000e-002) (0, -8.71909707784652710000e-002) (1, -5.86276315152645110000e-002) (2, 2.72782836109399800000e-002) (3, -6.70913457870483400000e-002) (4, 3.05684078484773640000e-002) (5, -1.06407077983021740000e-002) (6, -9.61274933069944380000e-003) (7, -6.68895021080970760000e-002) (8, 1.20464704930782320000e-001) (0, 1.25112142413854600000e-002) (1, 8.19633901119232180000e-002) (2, 1.02075099945068360000e-001) (3, -6.67557716369628910000e-002) (4, 7.87491351366043090000e-002) (5, 7.53570161759853360000e-003) (6, -9.60540920495986940000e-002) (7, -7.97235369682312010000e-002) (8, 1.07705831527709960000e-001) (0, -3.80999147891998290000e-002) (1, -1.22816286981105800000e-001) (2, 5.62546849250793460000e-002) (3, -1.98207572102546690000e-002) (4, 4.15876545011997220000e-002) (5, -1.27398759126663210000e-001) (6, 2.27931304834783080000e-004) (7, 6.48083463311195370000e-002) (8, 1.12866386771202090000e-002) (0, -6.38410523533821110000e-002) (1, -3.02378367632627490000e-002) (2, 4.11616377532482150000e-002) (3, 4.74677653983235360000e-003) (4, 1.70721653848886490000e-002) (5, 6.87190219759941100000e-002) (6, -5.32286316156387330000e-002) (7, 2.21579782664775850000e-002) (8, -5.89966289699077610000e-002) (0, -2.85034608095884320000e-002) (1, 1.27987544983625410000e-002) (2, 1.08483001589775090000e-001) (3, 6.83233439922332760000e-002) (4, 5.79426996409893040000e-002) (5, -1.13379202783107760000e-001) (6, -3.15634459257125850000e-002) (7, -9.65850278735160830000e-002) (8, 8.24122577905654910000e-002) (0, 3.56464870274066930000e-002) (1, -6.75778016448020940000e-002) (2, -7.06137046217918400000e-002) (3, -8.52584168314933780000e-002) (4, 5.17525412142276760000e-002) (5, 9.53839570283889770000e-002) (6, 3.73308733105659480000e-002) (7, -7.59431021288037300000e-003) (8, -5.32707609236240390000e-002) (0, 2.23646070808172230000e-002) (1, -8.50594639778137210000e-002) (2, -7.04220309853553770000e-003) (3, 3.37822847068309780000e-002) (4, 2.40207202732563020000e-002) (5, 6.01712986826896670000e-002) (6, 3.93860079348087310000e-002) (7, 8.51067528128623960000e-002) (8, 2.71117780357599260000e-002) (0, 5.68784680217504500000e-003) (1, -6.81271255016326900000e-002) (2, 8.90483334660530090000e-002) (3, 2.77044326066970830000e-002) (4, -7.15677440166473390000e-002) (5, 7.84546881914138790000e-002) (6, -7.02563151717185970000e-002) (7, -5.86057491600513460000e-002) (8, 4.29008305072784420000e-002) (0, -6.65469393134117130000e-002) (1, -1.57525882124900820000e-001) (2, 6.88241869211196900000e-002) (3, 2.52462886273860930000e-002) (4, -9.64543148875236510000e-002) (5, -8.85583981871604920000e-002) (6, -6.56881630420684810000e-002) (7, 5.92595860362052920000e-002) (8, 1.19579166173934940000e-001) (0, -1.73962470144033430000e-002) (1, -7.45624452829360960000e-002) (2, -5.05463182926177980000e-002) (3, -2.60743126273155210000e-002) (4, 1.05942394584417340000e-002) (5, -5.95775097608566280000e-002) (6, -5.82747124135494230000e-002) (7, -7.11003690958023070000e-002) (8, 1.39061301946640010000e-001) (0, -5.86793832480907440000e-002) (1, 5.93479089438915250000e-002) (2, -7.55280703306198120000e-002) (3, -7.68122225999832150000e-002) (4, 9.38414502888917920000e-003) (5, 9.81042310595512390000e-002) (6, 1.01509718224406240000e-002) (7, 9.40274372696876530000e-002) (8, -7.33281970024108890000e-002) (0, 1.00870907306671140000e-001) (1, -3.37932519614696500000e-002) (2, 5.90156726539134980000e-002) (3, 5.74902817606925960000e-002) (4, -7.00957998633384700000e-002) (5, -6.11689500510692600000e-002) (6, 6.74585849046707150000e-002) (7, 4.27046418190002440000e-002) (8, -2.16181203722953800000e-002) (0, 3.53725887835025790000e-002) (1, -7.66118094325065610000e-002) (2, -2.33466457575559620000e-002) (3, -2.37333625555038450000e-002) (4, 6.64954558014869690000e-002) (5, 7.67959505319595340000e-002) (6, 4.90967445075511930000e-002) (7, -8.76750573515892030000e-002) (8, -7.05456780269742010000e-003) (0, -4.68946322798728940000e-002) (1, 7.77328908443450930000e-002) (2, 5.95966242253780360000e-002) (3, -7.37206125631928440000e-003) (4, -5.39884716272354130000e-002) (5, 7.81112685799598690000e-002) (6, 7.90593586862087250000e-003) (7, 8.87526199221611020000e-002) (8, -4.38004918396472930000e-002) (0, -1.09264135360717770000e-001) (1, -6.65724873542785640000e-002) (2, -9.40349847078323360000e-002) (3, -5.33471740782260890000e-002) (4, -3.81669662892818450000e-002) (5, 3.74696105718612670000e-002) (6, 1.80425234138965610000e-002) (7, 5.72269819676876070000e-002) (8, -3.27664194628596310000e-003) (0, -1.02371521294116970000e-001) (1, 5.25368228554725650000e-002) (2, -6.20721131563186650000e-002) (3, -4.69239912927150730000e-002) (4, -6.56939074397087100000e-002) (5, -1.07234254479408260000e-001) (6, 6.19802363216876980000e-002) (7, -6.00508078932762150000e-002) (8, 3.90169181628152730000e-004) (0, 7.75958178564906120000e-004) (1, -1.00371070206165310000e-001) (2, 7.53437280654907230000e-002) (3, 9.24218967556953430000e-002) (4, 4.60998676717281340000e-002) (5, -2.93229036033153530000e-002) (6, 5.84550090134143830000e-002) (7, 7.17769935727119450000e-002) (8, 3.65334935486316680000e-002) (0, 9.38477739691734310000e-002) (1, 1.71460643410682680000e-001) (2, -7.68335908651351930000e-003) (3, -4.77441102266311650000e-002) (4, 8.82104113698005680000e-002) (5, -1.98201574385166170000e-002) (6, 2.12991926819086070000e-002) (7, 2.83518750220537190000e-002) (8, -9.56413373351097110000e-002) (0, -3.19115296006202700000e-002) (1, -1.39465671963989730000e-003) (2, 1.06158174574375150000e-001) (3, -7.62148946523666380000e-002) (4, -5.17635755240917210000e-002) (5, 6.27535060048103330000e-002) (6, -7.17351585626602170000e-002) (7, 8.53018835186958310000e-002) (8, 1.55309420078992840000e-002) (0, -2.23904829472303390000e-002) (1, -1.69492840766906740000e-001) (2, 9.03534367680549620000e-002) (3, 2.28432547301054000000e-002) (4, -4.23867106437683110000e-002) (5, -1.26035019755363460000e-001) (6, -7.18937255442142490000e-003) (7, 2.27762795984745030000e-002) (8, 2.42847725749015810000e-002) (0, -2.30302531272172930000e-002) (1, 5.72207979857921600000e-002) (2, -5.59968724846839900000e-002) (3, 1.41425402835011480000e-002) (4, 1.92208327353000640000e-002) (5, 1.93060934543609620000e-002) (6, 1.05036966502666470000e-001) (7, -8.75120889395475390000e-003) (8, -1.55127629637718200000e-001) (0, -5.88182993233203890000e-002) (1, -2.59010344743728640000e-002) (2, -1.09912769403308630000e-003) (3, 2.64490675181150440000e-002) (4, -5.76067306101322170000e-002) (5, -1.09752742573618890000e-002) (6, 2.33217403292655940000e-002) (7, -2.27015744894742970000e-002) (8, -3.14159877598285680000e-002) (0, -6.24712817370891570000e-002) (1, 4.37440648674964900000e-002) (2, -2.54674647003412250000e-002) (3, 5.33959008753299710000e-002) (4, 3.04176053032279010000e-003) (5, -8.10513794422149660000e-002) (6, 5.06044998764991760000e-002) (7, 2.06023976206779480000e-002) (8, 6.22139498591423030000e-002) (0, -2.22477745264768600000e-002) (1, 9.59801767021417620000e-003) (2, 5.26751689612865450000e-002) (3, 1.36596914380788800000e-002) (4, -8.21369886398315430000e-002) (5, -1.00377239286899570000e-001) (6, 7.30684548616409300000e-002) (7, -7.16407746076583860000e-002) (8, 9.84820127487182620000e-002) (0, 6.34729936718940730000e-002) (1, -4.11096252501010890000e-002) (2, 3.01914867013692860000e-002) (3, 8.52649137377738950000e-002) (4, 3.64525914192199710000e-002) (5, 9.75664518773555760000e-003) (6, -8.53659734129905700000e-002) (7, 3.45699191093444820000e-002) (8, -1.49536551907658580000e-002) (0, 7.97159895300865170000e-002) (1, 1.52254879474639890000e-001) (2, 4.30932901799678800000e-002) (3, 3.66683043539524080000e-002) (4, 9.69950035214424130000e-002) (5, 6.71647191047668460000e-002) (6, -6.44425973296165470000e-002) (7, 8.93768444657325740000e-002) (8, -1.97890743613243100000e-001) (0, 1.12313903868198390000e-001) (1, 1.69710546731948850000e-001) (2, -7.43724033236503600000e-002) (3, -3.92202362418174740000e-002) (4, -3.41188199818134310000e-002) (5, 1.38132154941558840000e-001) (6, 6.36924654245376590000e-002) (7, -1.33027685806155200000e-002) (8, -1.77211374044418330000e-001) (0, 5.11486008763313290000e-002) (1, 1.42670765519142150000e-001) (2, -3.80791015923023220000e-002) (3, 3.80387119948863980000e-002) (4, -4.39125066623091700000e-003) (5, 4.61593382060527800000e-002) (6, 7.56049156188964840000e-002) (7, 8.67194030433893200000e-003) (8, 1.78031101822853090000e-002) (0, 9.00241211056709290000e-002) (1, 1.32986217737197880000e-001) (2, -8.59047695994377140000e-002) (3, -5.94781711697578430000e-002) (4, 4.27911058068275450000e-002) (5, -1.39874713495373730000e-002) (6, -2.10393983870744710000e-002) (7, -3.79283656366169450000e-003) (8, -9.93862301111221310000e-002) (0, 1.00974708795547490000e-001) (1, 1.90025102347135540000e-002) (2, -8.32241624593734740000e-002) (3, -7.50263854861259460000e-002) (4, 6.75815492868423460000e-002) (5, -4.06406708061695100000e-002) (6, -2.87469811737537380000e-002) (7, -4.11698482930660250000e-002) (8, 6.86111580580472950000e-003) (0, -1.31990775465965270000e-001) (1, -7.29911625385284420000e-002) (2, -7.96104073524475100000e-002) (3, -4.62412908673286440000e-002) (4, 7.64843150973320010000e-002) (5, -1.53059745207428930000e-002) (6, 1.79297337308526040000e-003) (7, -4.84133772552013400000e-002) (8, 4.67854216694831850000e-002) (0, 6.33116513490676880000e-002) (1, -6.18695057928562160000e-002) (2, -7.11835622787475590000e-002) (3, 4.34570536017417910000e-002) (4, 2.76758484542369840000e-002) (5, -9.27551463246345520000e-002) (6, 9.25847291946411130000e-002) (7, 5.25471847504377370000e-003) (8, 6.49505928158760070000e-002) (0, -5.77391013503074650000e-002) (1, -7.05680996179580690000e-002) (2, 8.60520601272583010000e-002) (3, 4.62958514690399170000e-002) (4, 4.32130247354507450000e-002) (5, 3.92656773328781130000e-002) (6, 8.51774811744689940000e-002) (7, -5.06501980125904080000e-002) (8, -4.69252094626426700000e-002) (0, -5.25128804147243500000e-002) (1, -2.96752098947763440000e-002) (2, 8.32541659474372860000e-003) (3, 5.35335838794708250000e-002) (4, -2.40449458360672000000e-002) (5, -4.00562062859535220000e-002) (6, 2.38214544951915740000e-002) (7, -3.34121808409690860000e-002) (8, -6.39587417244911190000e-002) (0, 3.27115245163440700000e-002) (1, 1.30594804883003230000e-001) (2, -4.10068444907665250000e-002) (3, 2.02740132808685300000e-002) (4, 6.41207993030548100000e-002) (5, -1.04189570993185040000e-002) (6, 3.43092307448387150000e-002) (7, 5.29191344976425170000e-002) (8, -1.63244590163230900000e-001) (0, -6.18874141946434970000e-003) (1, -4.94325011968612670000e-002) (2, 9.91857126355171200000e-002) (3, -7.80651047825813290000e-002) (4, 8.05662572383880620000e-002) (5, -1.19267605245113370000e-001) (6, 1.52733491268008950000e-003) (7, 7.60245993733406070000e-002) (8, 1.45837277173995970000e-001) (0, 5.45969046652317050000e-002) (1, 1.28036011010408400000e-002) (2, -3.13240699470043180000e-002) (3, 4.60982583463191990000e-002) (4, -7.30871185660362240000e-002) (5, 2.42194198071956630000e-002) (6, 2.18962561339139940000e-002) (7, -2.08713077008724210000e-002) (8, -4.75087687373161320000e-002) (0, 7.16768503189086910000e-002) (1, -9.88203193992376330000e-003) (2, -4.34365794062614440000e-002) (3, 3.82230058312416080000e-002) (4, 8.26379656791687010000e-002) (5, -4.35505621135234830000e-002) (6, -7.94198438525199890000e-002) (7, -4.37456518411636350000e-002) (8, 9.84482280910015110000e-003) (0, 8.27559903264045720000e-002) (1, 6.58124089241027830000e-002) (2, 4.54305186867713930000e-002) (3, 2.28540450334548950000e-002) (4, 7.45244845747947690000e-002) (5, 3.24541740119457240000e-002) (6, 9.96396467089653020000e-002) (7, 2.71115135401487350000e-002) (8, -8.84735435247421260000e-002) (0, -6.46401718258857730000e-002) (1, 1.33423104882240300000e-001) (2, 3.44295352697372440000e-002) (3, -5.71693032979965210000e-002) (4, -9.00086164474487300000e-002) (5, -9.90168564021587370000e-003) (6, -5.41913136839866640000e-003) (7, 2.34650149941444400000e-002) (8, -1.18098504841327670000e-001) (0, -7.05256462097167970000e-002) (1, 5.92193491756916050000e-002) (2, 1.28628248348832130000e-002) (3, 3.06659936904907230000e-002) (4, -4.11612167954444890000e-002) (5, 3.67531068623065950000e-002) (6, 2.69437581300735470000e-002) (7, 2.12047933018766340000e-004) (8, 7.29389861226081850000e-002) (0, 4.14806753396987920000e-002) (1, 1.49757936596870420000e-001) (2, -1.06884963810443880000e-001) (3, -3.45979556441307070000e-002) (4, -4.80496026575565340000e-002) (5, 1.54321826994419100000e-002) (6, 1.11683286726474760000e-001) (7, 4.16232571005821230000e-002) (8, 7.57672917097806930000e-003) (0, -6.23502619564533230000e-002) (1, -2.07918450236320500000e-001) (2, 2.03788354992866520000e-002) (3, 6.51821270585060120000e-002) (4, -7.88085982203483580000e-002) (5, -1.68036639690399170000e-001) (6, 5.12007623910903930000e-002) (7, 8.22257623076438900000e-002) (8, 9.73482280969619750000e-002) (0, 2.21471302211284640000e-002) (1, 1.80306043475866320000e-002) (2, -3.22642289102077480000e-002) (3, 6.02422952651977540000e-002) (4, 7.72827789187431340000e-002) (5, 8.77218544483184810000e-002) (6, 7.48276486992836000000e-002) (7, -4.75285574793815610000e-002) (8, -2.82808169722557070000e-002) (0, -5.95968915149569510000e-004) (1, -3.15604805946350100000e-002) (2, 1.97067074477672580000e-002) (3, 6.28901720046997070000e-002) (4, -6.90888315439224240000e-002) (5, 6.55992180109024050000e-002) (6, 2.52172984182834630000e-002) (7, -1.96517119184136390000e-003) (8, -6.11281916499137880000e-002) (0, 4.14120964705944060000e-002) (1, -2.13309042155742650000e-002) (2, 4.26249243319034580000e-002) (3, 7.43008479475975040000e-002) (4, 5.17840683460235600000e-002) (5, -3.37046943604946140000e-002) (6, -3.05882506072521210000e-002) (7, 4.44511473178863530000e-002) (8, -3.14718335866928100000e-002) (0, -2.99119614064693450000e-002) (1, 1.82991381734609600000e-002) (2, -4.56692911684513090000e-002) (3, 9.05157700181007390000e-002) (4, -8.63487049937248230000e-002) (5, 6.97173103690147400000e-002) (6, 3.99115011096000670000e-002) (7, 1.67854744940996170000e-002) (8, -9.26947668194770810000e-002) (0, -1.08977844938635830000e-002) (1, -8.08825641870498660000e-002) (2, 9.48946252465248110000e-002) (3, -9.94280055165290830000e-002) (4, -5.96126392483711240000e-002) (5, -6.53448477387428280000e-002) (6, -3.81129086017608640000e-002) (7, -4.31960914283990860000e-003) (8, -5.62261752784252170000e-002) (0, -3.37940156459808350000e-002) (1, -8.43833908438682560000e-002) (2, 8.97222757339477540000e-002) (3, -3.61676178872585300000e-002) (4, 6.31521195173263550000e-002) (5, 4.77668680250644680000e-002) (6, -3.15528959035873410000e-002) (7, -5.33926449716091160000e-002) (8, 1.03326447308063510000e-001) (0, -1.06969706714153290000e-001) (1, -1.92571580410003660000e-001) (2, -1.42599307000637050000e-002) (3, -1.07137925922870640000e-001) (4, 1.85587089508771900000e-002) (5, -6.05663247406482700000e-002) (6, -1.11225321888923650000e-001) (7, 4.04841080307960510000e-002) (8, 1.41511753201484680000e-001) (0, 8.39355215430259700000e-002) (1, -9.86041873693466190000e-002) (2, -4.91002090275287630000e-002) (3, 8.74002128839492800000e-002) (4, 4.94950041174888610000e-002) (5, -5.54400421679019930000e-002) (6, -8.99342447519302370000e-002) (7, 7.77701511979103090000e-002) (8, 1.66089064441621300000e-003) (0, -4.66112978756427760000e-003) (1, 1.15501247346401210000e-001) (2, 1.40374451875686650000e-002) (3, -4.84477076679468150000e-003) (4, -8.76986831426620480000e-002) (5, -5.29497787356376650000e-002) (6, -9.22335237264633180000e-002) (7, 8.53477162308990960000e-004) (8, -5.31731210649013520000e-002) (0, 3.32709625363349910000e-002) (1, -1.27817526459693910000e-001) (2, 1.34704178199172020000e-002) (3, -1.15569708868861200000e-002) (4, -4.50203679502010350000e-002) (5, 5.71281127631664280000e-002) (6, -1.02121897041797640000e-001) (7, 9.76041033864021300000e-002) (8, 2.19091568142175670000e-002) (0, 8.85430872440338130000e-002) (1, 9.86200273036956790000e-002) (2, -8.73436555266380310000e-002) (3, 8.63479375839233400000e-002) (4, 4.60657961666584010000e-002) (5, 9.42912772297859190000e-002) (6, 7.80780538916587830000e-002) (7, -8.22236239910125730000e-002) (8, -6.36372342705726620000e-002) (0, -5.29834553599357600000e-002) (1, -1.45590692758560180000e-001) (2, 9.88596677780151370000e-002) (3, -5.77447526156902310000e-002) (4, -1.01471051573753360000e-001) (5, 4.65647093951702120000e-002) (6, -6.41227932646870610000e-004) (7, 8.49869176745414730000e-002) (8, 1.52082785964012150000e-001) (0, -3.87383401393890380000e-002) (1, -1.40121817588806150000e-001) (2, 9.70015674829483030000e-002) (3, 4.23740893602371220000e-002) (4, 5.40264835581183430000e-003) (5, -6.93553015589714050000e-002) (6, 3.14848087728023530000e-002) (7, 2.21106987446546550000e-002) (8, 1.93467050790786740000e-001) (0, -8.92321765422821040000e-002) (1, -1.23392052948474880000e-001) (2, 2.44541894644498830000e-002) (3, -4.83506023883819580000e-002) (4, 3.21056507527828220000e-002) (5, 1.06006115674972530000e-002) (6, -1.34282577782869340000e-002) (7, -8.98735001683235170000e-002) (8, 5.58173470199108120000e-002) (0, -4.07783165574073790000e-002) (1, 1.91672425717115400000e-002) (2, -1.49132786318659780000e-002) (3, -1.90808903425931930000e-002) (4, 3.94537635147571560000e-002) (5, -2.91970241814851760000e-002) (6, -8.14128667116165160000e-002) (7, -4.99464496970176700000e-002) (8, -1.69794578105211260000e-002) (0, 3.12229227274656300000e-002) (1, 8.22296086698770520000e-003) (2, -3.38067300617694850000e-002) (3, -8.33533778786659240000e-002) (4, 2.30530966073274610000e-002) (5, -9.58109721541404720000e-002) (6, 5.45799471437931060000e-002) (7, 2.97681652009487150000e-002) (8, 9.64302197098731990000e-002) (0, 5.76566718518733980000e-002) (1, 3.44096496701240540000e-002) (2, 6.71349763870239260000e-002) (3, -7.06682875752449040000e-002) (4, 7.88664445281028750000e-002) (5, 9.69363301992416380000e-002) (6, -9.85717996954917910000e-002) (7, -7.97931477427482600000e-002) (8, 2.13927105069160460000e-002) (0, -8.25103186070919040000e-003) (1, 9.28468257188797000000e-002) (2, -4.86696138978004460000e-002) (3, 7.06638693809509280000e-002) (4, 2.51349974423646930000e-002) (5, 4.52944785356521610000e-002) (6, 5.95411024987697600000e-002) (7, -4.75771576166152950000e-002) (8, 6.77765756845474240000e-002) (0, 5.80797120928764340000e-002) (1, 6.65066465735435490000e-002) (2, -3.26997339725494380000e-002) (3, 3.17785069346427920000e-002) (4, 1.63979139178991320000e-002) (5, -1.32698165252804760000e-002) (6, -8.38415250182151790000e-002) (7, -5.31344749033451080000e-002) (8, 9.71959810703992840000e-003) (0, -1.00968450307846070000e-001) (1, -1.30256876349449160000e-001) (2, -4.63307723402976990000e-002) (3, 5.86569458246231080000e-002) (4, -4.22863755375146870000e-003) (5, -1.20245806872844700000e-001) (6, 1.58119387924671170000e-002) (7, -2.78716925531625750000e-002) (8, -1.77090633660554890000e-002) (0, 9.27767232060432430000e-002) (1, 1.00338488817214970000e-001) (2, 3.84605154395103450000e-002) (3, 8.19962248206138610000e-002) (4, -2.40343268960714340000e-002) (5, 3.55007089674472810000e-002) (6, 5.97323402762413020000e-002) (7, -4.15084473788738250000e-002) (8, 7.41299521178007130000e-003) (0, 7.94703140854835510000e-002) (1, -9.76672861725091930000e-003) (2, 1.63721218705177310000e-002) (3, 7.08043351769447330000e-002) (4, 3.91206182539463040000e-002) (5, -2.55684349685907360000e-002) (6, 1.63339767605066300000e-002) (7, -9.83085855841636660000e-002) (8, -9.49555356055498120000e-003) (0, 2.86212209612131120000e-002) (1, -9.77047085762023930000e-002) (2, 9.82980951666831970000e-002) (3, -4.06746752560138700000e-002) (4, -5.29931895434856410000e-002) (5, -1.07458539307117460000e-001) (6, 8.59033539891242980000e-002) (7, 8.73137637972831730000e-002) (8, 9.23303961753845210000e-002) (0, -9.09816846251487730000e-002) (1, -9.88131612539291380000e-002) (2, 1.65321677923202510000e-002) (3, 5.39564825594425200000e-002) (4, 1.52386147528886800000e-002) (5, -1.30184382200241090000e-001) (6, 7.18739116564393040000e-003) (7, -2.92232120409607890000e-003) (8, 5.84514848887920380000e-002) (0, -7.35141262412071230000e-002) (1, -1.59126192331314090000e-001) (2, 3.43238525092601780000e-002) (3, 8.95827487111091610000e-002) (4, 5.14893792569637300000e-002) (5, -1.97023078799247740000e-002) (6, -2.12314948439598080000e-002) (7, -4.23577986657619480000e-002) (8, 1.23654440045356750000e-001) (0, -2.22022812813520430000e-002) (1, 4.02327068150043490000e-003) (2, 3.96146066486835480000e-002) (3, -6.03336803615093230000e-002) (4, 3.43947261571884160000e-002) (5, 5.03000095486640930000e-002) (6, 4.67467494308948520000e-002) (7, -1.65662057697772980000e-002) (8, -4.41274754703044890000e-002) (0, -3.10895629227161410000e-002) (1, -1.49033725261688230000e-001) (2, 1.02079264819622040000e-001) (3, 3.80946770310401920000e-002) (4, -6.79385364055633540000e-002) (5, 3.67522910237312320000e-002) (6, 1.21423974633216860000e-002) (7, 3.17857265472412110000e-002) (8, 1.35454580187797550000e-001) (0, -6.04987191036343570000e-003) (1, -2.15111151337623600000e-001) (2, 6.76635419949889180000e-003) (3, 4.83509637415409090000e-002) (4, -3.16230170428752900000e-002) (5, -1.10829018056392670000e-001) (6, 7.89859369397163390000e-002) (7, -8.71552750468254090000e-002) (8, 1.78402349352836610000e-001) (0, -4.46867682039737700000e-002) (1, 7.29229077696800230000e-002) (2, -6.33220002055168150000e-002) (3, 7.02101588249206540000e-002) (4, -3.43343317508697510000e-002) (5, -2.14144047349691390000e-002) (6, -8.44719782471656800000e-002) (7, -1.89030333422124390000e-003) (8, -3.64655442535877230000e-002) (0, 3.51520776748657230000e-002) (1, 6.97506219148635860000e-002) (2, -1.04526475071907040000e-001) (3, 5.34185729920864110000e-002) (4, -8.63839015364646910000e-002) (5, 9.66471806168556210000e-002) (6, 5.07901906967163090000e-002) (7, 3.86318340897560120000e-002) (8, -1.73343122005462650000e-002) (0, -6.45076036453247070000e-002) (1, -9.00340750813484190000e-002) (2, 9.77397933602333070000e-002) (3, -9.45311635732650760000e-002) (4, -2.02129650861024860000e-002) (5, 6.42775883898139000000e-003) (6, -9.18345451354980470000e-002) (7, -9.03371870517730710000e-002) (8, -2.56367698311805730000e-002) (0, 1.52649115771055220000e-002) (1, 9.23070982098579410000e-002) (2, 2.69539356231689450000e-002) (3, -3.71069014072418210000e-002) (4, 9.08704623579978940000e-002) (5, -3.42415180057287220000e-003) (6, 1.04971073567867280000e-001) (7, 5.44126890599727630000e-002) (8, 4.98509928584098820000e-002) (0, 1.29346745088696480000e-002) (1, 1.32068276405334470000e-001) (2, -6.57492950558662410000e-002) (3, -8.31739511340856550000e-003) (4, -5.77139742672443390000e-002) (5, 8.45752805471420290000e-002) (6, -2.26917490363121030000e-002) (7, 5.15817776322364810000e-002) (8, -1.67002543807029720000e-001) (0, -7.25196301937103270000e-002) (1, 1.26849606633186340000e-001) (2, 3.33299636840820310000e-002) (3, 2.78870738111436370000e-003) (4, -1.21318213641643520000e-002) (5, 3.82452756166458130000e-002) (6, -7.27447718381881710000e-002) (7, -1.46416462957859040000e-002) (8, 4.40527014434337620000e-002) (0, 2.37421449273824690000e-002) (1, -1.63870468735694890000e-001) (2, 1.10974639654159550000e-001) (3, -2.88987383246421810000e-002) (4, 2.78912279754877090000e-002) (5, -7.43282139301300050000e-002) (6, -1.98245368665084240000e-004) (7, 7.53680169582366940000e-002) (8, 1.64253830909729000000e-001) (0, 5.76535239815711980000e-002) (1, -1.01328253746032710000e-001) (2, 2.80732735991477970000e-002) (3, -4.46695350110530850000e-002) (4, -7.17211165465414520000e-004) (5, -7.59357213973999020000e-002) (6, -5.50535768270492550000e-002) (7, 4.88731451332569120000e-002) (8, 1.54587611556053160000e-001) (0, -3.71384061872959140000e-002) (1, -1.50076150894165040000e-001) (2, 1.60062331706285480000e-002) (3, 6.99370652437210080000e-002) (4, 5.04907146096229550000e-002) (5, -1.46800041198730470000e-001) (6, -4.93558757007122040000e-002) (7, -2.84117441624403000000e-002) (8, -2.12681982666254040000e-002) (0, 7.58163109421730040000e-002) (1, 3.58769344165921210000e-003) (2, -7.79487416148185730000e-002) (3, -5.91133385896682740000e-002) (4, 3.41088734567165370000e-002) (5, 1.76863931119441990000e-002) (6, 9.99499261379241940000e-002) (7, 7.55078196525573730000e-002) (8, 1.11205562949180600000e-001) (0, -1.61005591508001090000e-003) (1, 9.48699712753295900000e-002) (2, -5.40580414235591890000e-002) (3, -8.27532857656478880000e-002) (4, -3.89841943979263310000e-002) (5, 9.53005552291870120000e-002) (6, -3.46138477325439450000e-002) (7, 6.94306269288063050000e-002) (8, 1.72855041455477480000e-003) (0, 5.29902912676334380000e-002) (1, 1.43598020076751710000e-001) (2, 4.83584553003311160000e-002) (3, 3.36029008030891420000e-002) (4, 9.52351540327072140000e-002) (5, -2.05077659338712690000e-002) (6, 1.70663930475711820000e-002) (7, -7.02590867877006530000e-002) (8, -1.55413463711738590000e-001) (0, 9.98828709125518800000e-002) (1, -1.15145659074187280000e-002) (2, 3.07160820811986920000e-002) (3, -2.28826664388179780000e-002) (4, 7.27305561304092410000e-002) (5, -1.52699872851371770000e-002) (6, -6.50036036968231200000e-002) (7, 1.00793361663818360000e-001) (8, -4.91954386234283450000e-002) (0, 5.83584085106849670000e-002) (1, 8.16736742854118350000e-002) (2, 1.52148241177201270000e-002) (3, 5.10929003357887270000e-002) (4, 1.43777895718812940000e-002) (5, -2.70541273057460780000e-002) (6, -1.94848459213972090000e-002) (7, 9.27736759185791020000e-002) (8, -3.16367372870445250000e-002) (0, 6.48897141218185420000e-002) (1, -7.85196349024772640000e-002) (2, 7.21374675631523130000e-002) (3, -1.64473745971918110000e-002) (4, -8.60213935375213620000e-002) (5, 7.40188956260681150000e-002) (6, 4.01083193719387050000e-002) (7, 1.64801793289370830000e-004) (8, -2.90789622813463210000e-002) (0, -3.20040695369243620000e-002) (1, 1.39189288020133970000e-001) (2, -5.63851855695247650000e-002) (3, 9.20640975236892700000e-002) (4, 1.21100973337888720000e-002) (5, 1.31632685661315920000e-001) (6, -3.25940251350402830000e-002) (7, -4.68426235020160680000e-002) (8, -3.46420854330062870000e-002) (0, -1.41911469399929050000e-002) (1, -1.06037026271224020000e-002) (2, 9.17345378547906880000e-003) (3, -6.00668489933013920000e-002) (4, -6.16515465080738070000e-002) (5, -6.73855245113372800000e-002) (6, 1.45558174699544910000e-002) (7, -4.41000983119010930000e-002) (8, 5.62632158398628230000e-002) (0, -3.31361256539821620000e-002) (1, -4.05021235346794130000e-002) (2, 4.71843667328357700000e-002) (3, -9.38051864504814150000e-002) (4, -7.51496627926826480000e-002) (5, 1.73929538577795030000e-002) (6, 8.95435065031051640000e-002) (7, -7.00757801532745360000e-002) (8, -9.81313586235046390000e-002) (0, -5.53080439567565920000e-002) (1, -2.63438299298286440000e-002) (2, -1.18573280051350590000e-002) (3, -2.44277017191052440000e-003) (4, 8.59856158494949340000e-002) (5, 8.79802778363227840000e-002) (6, 3.78145799040794370000e-002) (7, -4.72326390445232390000e-002) (8, -5.68403080105781560000e-002) (0, -1.25521123409271240000e-002) (1, -7.43512064218521120000e-002) (2, -4.33936975896358490000e-002) (3, 1.23089402914047240000e-002) (4, 8.87772664427757260000e-002) (5, -1.57111566513776780000e-002) (6, 8.14360529184341430000e-002) (7, -1.21585847809910770000e-002) (8, 2.67767682671546940000e-002) (0, 5.32874986529350280000e-002) (1, -4.84482944011688230000e-002) (2, -3.67194488644599910000e-002) (3, 8.72977375984191890000e-002) (4, 8.60449671745300290000e-002) (5, -1.04913353919982910000e-001) (6, -5.78238330781459810000e-002) (7, -1.29667101427912710000e-002) (8, 4.19536493718624110000e-002) (0, -3.37457247078418730000e-002) (1, -1.40514031052589420000e-001) (2, 1.05034641921520230000e-001) (3, 3.27960625290870670000e-002) (4, 4.13166452199220660000e-003) (5, -1.29719898104667660000e-001) (6, 4.53639142215251920000e-002) (7, 7.95044973492622380000e-002) (8, 1.17542371153831480000e-001) (0, -9.77927893400192260000e-002) (1, -1.17571160197258000000e-001) (2, -5.00938445329666140000e-002) (3, 7.57590606808662410000e-002) (4, -4.42534461617469790000e-002) (5, -6.87789618968963620000e-002) (6, 5.46792522072792050000e-002) (7, -9.54122369876131420000e-005) (8, -2.99845449626445770000e-002) (0, 2.42805434390902520000e-003) (1, 5.90615032706409690000e-004) (2, 3.94756346940994260000e-002) (3, -4.06290590763092040000e-002) (4, -4.86656390130519870000e-002) (5, -2.96945404261350630000e-002) (6, -5.33287711441516880000e-002) (7, -2.49568168073892590000e-002) (8, 7.90439769625663760000e-002) (0, 2.29284819215536120000e-002) (1, 8.55097621679306030000e-002) (2, -9.80237796902656560000e-002) (3, -5.54555617272853850000e-002) (4, 2.86001432687044140000e-002) (5, 1.12998537719249730000e-001) (6, 5.34225441515445710000e-003) (7, 7.63760209083557130000e-002) (8, 1.82643476873636250000e-002) (0, -3.24325077235698700000e-002) (1, 8.92840921878814700000e-002) (2, 5.52084185183048250000e-002) (3, 4.56214100122451780000e-002) (4, 2.98517663031816480000e-002) (5, -4.79377694427967070000e-002) (6, -5.41664175689220430000e-002) (7, 2.63078007847070690000e-002) (8, 4.84865456819534300000e-002) (0, -1.06159120798110960000e-001) (1, -7.94813558459281920000e-002) (2, -1.52926146984100340000e-002) (3, 7.76007175445556640000e-002) (4, -7.76381716132164000000e-002) (5, -1.07960181776434180000e-003) (6, -4.66155484318733220000e-002) (7, -8.53814557194709780000e-002) (8, 5.80451637506484990000e-002) (0, -8.77522900700569150000e-002) (1, -3.53984907269477840000e-002) (2, -5.25583932176232340000e-003) (3, 1.66980475187301640000e-002) (4, 4.79642041027545930000e-002) (5, 1.26154720783233640000e-002) (6, 4.90144379436969760000e-002) (7, 2.71475408226251600000e-002) (8, 5.39677590131759640000e-002) (0, 1.15437291562557220000e-001) (1, 6.01512156426906590000e-002) (2, 1.31564466282725330000e-002) (3, 1.62126049399375920000e-002) (4, 7.54895508289337160000e-002) (5, 3.64370159804821010000e-002) (6, 4.91773672401905060000e-002) (7, 1.61420647054910660000e-002) (8, -1.35829281061887740000e-002) (0, 6.74319174140691760000e-003) (1, -4.22744452953338620000e-003) (2, 5.45798800885677340000e-002) (3, 1.94559060037136080000e-002) (4, -2.22314447164535520000e-002) (5, -6.93151727318763730000e-002) (6, 2.58774999529123310000e-002) (7, -5.22109009325504300000e-002) (8, 4.83886413276195530000e-002) (0, 6.50374218821525570000e-002) (1, 9.94511693716049190000e-002) (2, 1.98242701590061190000e-002) (3, -3.02836913615465160000e-002) (4, -8.51195454597473140000e-002) (5, -3.49312163889408110000e-002) (6, 8.57130214571952820000e-002) (7, -2.24318522959947590000e-002) (8, -5.91676533222198490000e-002) (0, 9.73050147294998170000e-002) (1, 4.95098121464252470000e-002) (2, -9.73887071013450620000e-002) (3, 3.07196825742721560000e-002) (4, -1.00209685042500500000e-002) (5, -3.31425815820693970000e-002) (6, -5.42279221117496490000e-002) (7, -9.15305837988853450000e-002) (8, 4.26816344261169430000e-002) (0, 6.48709572851657870000e-003) (1, 1.95625394582748410000e-001) (2, -1.19527727365493770000e-002) (3, 8.52649584412574770000e-002) (4, 7.64337703585624690000e-002) (5, 1.13421149551868440000e-001) (6, 6.26355558633804320000e-002) (7, -2.41832565516233440000e-002) (8, -1.18617109954357150000e-001) (0, -8.58862698078155520000e-002) (1, 4.18598949909210210000e-002) (2, 4.95600439608097080000e-002) (3, 8.19716528058052060000e-002) (4, -8.45738500356674190000e-003) (5, 1.62521414458751680000e-002) (6, -1.49166304618120190000e-002) (7, 9.02972593903541560000e-002) (8, -6.38865903019905090000e-002) (0, 1.05135567486286160000e-001) (1, -1.95353087037801740000e-002) (2, -2.91519612073898320000e-002) (3, -4.37266677618026730000e-002) (4, 7.04403892159461980000e-002) (5, -3.97694557905197140000e-002) (6, -2.29333434253931050000e-002) (7, 9.03543755412101750000e-002) (8, -4.71648573875427250000e-002) (0, -8.52262079715728760000e-002) (1, 1.09426811337471010000e-001) (2, 6.43020719289779660000e-002) (3, -2.95982453972101210000e-002) (4, -5.64162582159042360000e-002) (5, 1.25069156289100650000e-001) (6, -2.94515537098050120000e-003) (7, 2.85561010241508480000e-003) (8, -6.45082741975784300000e-002) (0, 7.20983296632766720000e-002) (1, 4.57141324877738950000e-002) (2, -4.27788309752941130000e-002) (3, -9.62673276662826540000e-002) (4, 6.43033832311630250000e-002) (5, 7.10972175002098080000e-002) (6, -3.55810150504112240000e-002) (7, 8.83267521858215330000e-002) (8, 6.21141679584980010000e-002) (0, -1.91124994307756420000e-002) (1, 5.61550073325634000000e-002) (2, -4.28077243268489840000e-002) (3, -1.77024621516466140000e-002) (4, -4.49612140655517580000e-002) (5, 1.03363163769245150000e-001) (6, 9.00853145867586140000e-003) (7, -5.42939156293869020000e-002) (8, -1.41839474439620970000e-001) (0, -9.36295539140701290000e-002) (1, -3.27294953167438510000e-002) (2, 1.97688024491071700000e-002) (3, -9.87687781453132630000e-002) (4, -7.89449084550142290000e-003) (5, -9.33820158243179320000e-002) (6, -3.52130196988582610000e-002) (7, -6.61321133375167850000e-002) (8, 4.18246574699878690000e-002) (0, 2.52456385642290120000e-002) (1, -1.80388122797012330000e-001) (2, 2.60857846587896350000e-002) (3, 3.27139645814895630000e-002) (4, 1.52873713523149490000e-002) (5, -4.86559346318244930000e-002) (6, 4.56487685441970830000e-002) (7, 5.68618550896644590000e-002) (8, 7.07371681928634640000e-002) (0, -4.94060926139354710000e-002) (1, 1.81199640035629270000e-001) (2, -2.51725204288959500000e-002) (3, -7.24680125713348390000e-002) (4, 1.82999286334961650000e-003) (5, 1.00070096552371980000e-001) (6, -3.78035008907318120000e-002) (7, 3.24675790034234520000e-003) (8, -1.07856318354606630000e-001) (0, 6.65665715932846070000e-002) (1, 1.86041563749313350000e-001) (2, 6.45978897809982300000e-002) (3, 5.88841848075389860000e-002) (4, -3.99357676506042480000e-002) (5, -6.65817270055413250000e-003) (6, 1.11872196197509770000e-001) (7, -5.13328090310096740000e-002) (8, -1.16675034165382390000e-001) (0, -1.92302986979484560000e-002) (1, -1.43710643053054810000e-001) (2, -3.82557883858680730000e-002) (3, 6.33310526609420780000e-002) (4, 9.79154929518699650000e-002) (5, -1.45248413085937500000e-001) (6, -5.60583397746086120000e-002) (7, -9.30106043815612790000e-002) (8, 1.22112743556499480000e-001) (0, 8.44530686736106870000e-002) (1, 7.87595883011817930000e-002) (2, 7.82362148165702820000e-002) (3, 8.05800333619117740000e-002) (4, -7.05261677503585820000e-002) (5, -9.50707644224166870000e-002) (6, -3.65521423518657680000e-002) (7, -9.52471792697906490000e-002) (8, 6.74791708588600160000e-002) (0, -2.66594048589468000000e-002) (1, -5.07483258843421940000e-002) (2, 4.39018309116363530000e-002) (3, 8.58521685004234310000e-002) (4, -7.65544772148132320000e-002) (5, -3.75767378136515620000e-003) (6, 1.78180579096078870000e-002) (7, -6.59103989601135250000e-002) (8, -8.59344564378261570000e-003) (0, -8.70423298329114910000e-003) (1, -2.96572055667638780000e-002) (2, 4.35704737901687620000e-002) (3, 1.00302413105964660000e-001) (4, 1.89628172665834430000e-002) (5, -1.08011662960052490000e-002) (6, 5.99179565906524660000e-002) (7, -7.31499046087265010000e-002) (8, -5.18555641174316410000e-002) (0, -8.39548259973526000000e-002) (1, -7.69794918596744540000e-004) (2, -9.32494476437568660000e-002) (3, -9.85190570354461670000e-002) (4, 1.67437791824340820000e-002) (5, 3.26884700916707520000e-003) (6, 7.48957842588424680000e-002) (7, -3.85894402861595150000e-002) (8, 2.49804370105266570000e-002) (0, -9.86213684082031250000e-002) (1, -1.87535807490348820000e-001) (2, -5.60270473361015320000e-002) (3, 2.31549981981515880000e-002) (4, -5.27971237897872920000e-002) (5, -9.99106988310813900000e-002) (6, -1.07262127101421360000e-001) (7, -1.50879500433802600000e-002) (8, 1.26036852598190310000e-001) (0, -7.24184140563011170000e-002) (1, -1.57377906143665310000e-002) (2, 7.83387273550033570000e-002) (3, -9.38016548752784730000e-003) (4, 3.57671566307544710000e-002) (5, 8.32123216241598130000e-003) (6, -6.13831579685211180000e-002) (7, -4.63301949203014370000e-002) (8, 6.85930028557777400000e-002) (0, -1.21646625921130180000e-002) (1, 8.43303650617599490000e-002) (2, 3.92721481621265410000e-002) (3, 9.71259735524654390000e-003) (4, -4.98291151598095890000e-003) (5, 7.21918940544128420000e-002) (6, -3.84509935975074770000e-002) (7, -4.90776337683200840000e-002) (8, -6.17479607462883000000e-002) (0, -3.21736210025846960000e-003) (1, 1.34649470448493960000e-001) (2, -2.90158744901418690000e-002) (3, -2.03833952546119690000e-002) (4, -1.84454899281263350000e-002) (5, 1.48856878280639650000e-001) (6, 9.52436551451683040000e-002) (7, -9.79699641466140750000e-002) (8, -3.58814634382724760000e-002) (0, -2.16922536492347720000e-002) (1, 5.40229603648185730000e-002) (2, 5.68416416645050050000e-002) (3, -5.62264323234558110000e-002) (4, 1.03937303647398950000e-002) (5, 3.97123843431472780000e-002) (6, -6.05032071471214290000e-002) (7, 8.45373049378395080000e-003) (8, 3.43280322849750520000e-002) (0, 8.74272659420967100000e-002) (1, -1.53481774032115940000e-002) (2, 5.41213676333427430000e-002) (3, 8.98057520389556880000e-002) (4, 1.05230249464511870000e-002) (5, -6.57795518636703490000e-002) (6, 7.94505178928375240000e-002) (7, -9.16719958186149600000e-002) (8, -3.91867235302925110000e-002) (0, -5.52392862737178800000e-002) (1, -1.54628291726112370000e-001) (2, -6.53323307633399960000e-002) (3, -3.34252677857875820000e-002) (4, 1.75702031701803210000e-002) (5, -1.04239903390407560000e-001) (6, 7.75732696056365970000e-002) (7, 2.92652547359466550000e-002) (8, 1.77750177681446080000e-002) (0, -3.16969789564609530000e-002) (1, -1.48564845323562620000e-001) (2, -5.55293597280979160000e-002) (3, 7.72247985005378720000e-002) (4, 2.23889425396919250000e-002) (5, -2.62005310505628590000e-002) (6, -8.82273167371749880000e-002) (7, -6.48974478244781490000e-002) (8, 5.12902550399303440000e-002) (0, 5.16374083235859870000e-003) (1, -1.18094466626644130000e-001) (2, 8.49535539746284480000e-002) (3, -9.12739634513854980000e-002) (4, -4.94107510894536970000e-003) (5, 5.06221093237400050000e-002) (6, 8.04056599736213680000e-002) (7, -8.09247493743896480000e-002) (8, 8.27924013137817380000e-002) (0, -4.05007638037204740000e-002) (1, 5.65417632460594180000e-002) (2, 1.00333534181118010000e-001) (3, 4.93204854428768160000e-002) (4, 1.53555348515510560000e-002) (5, -4.68991994857788090000e-002) (6, -3.62275019288063050000e-002) (7, -8.56296345591545100000e-002) (8, -3.99705283343791960000e-002) (0, 1.32251828908920290000e-002) (1, -1.21406264603137970000e-001) (2, 6.08955323696136470000e-002) (3, -2.08936035633087160000e-002) (4, -5.72227314114570620000e-002) (5, 4.95865158736705780000e-002) (6, 1.75980981439352040000e-002) (7, 3.61269079148769380000e-002) (8, -1.01521313190460210000e-002) (0, -4.87222261726856230000e-002) (1, -7.08702206611633300000e-002) (2, -1.86684802174568180000e-002) (3, -3.18255797028541560000e-002) (4, 2.63496525585651400000e-002) (5, 3.35748866200447080000e-002) (6, -7.52583071589469910000e-002) (7, -6.03952072560787200000e-002) (8, 9.93919745087623600000e-002) (0, -9.21477228403091430000e-002) (1, -1.32323682308197020000e-001) (2, -1.81795358657836910000e-002) (3, 4.94188554584980010000e-002) (4, -9.34218615293502810000e-002) (5, 1.26789277419447900000e-002) (6, -9.18060094118118290000e-002) (7, 7.61855989694595340000e-002) (8, -2.67217978835105900000e-002) (0, -3.97206284105777740000e-003) (1, -6.61442801356315610000e-002) (2, -2.86433678120374680000e-002) (3, -3.38648655451834200000e-003) (4, -4.54076863825321200000e-002) (5, -9.26311612129211430000e-002) (6, 8.25869217514991760000e-002) (7, -4.89715225994586940000e-002) (8, 1.52761816978454590000e-001) (0, -5.81780523061752320000e-002) (1, 1.86700820922851560000e-002) (2, -5.52042722702026370000e-002) (3, 9.13922861218452450000e-002) (4, 6.86512514948844910000e-002) (5, -7.55674904212355610000e-003) (6, -6.76064193248748780000e-002) (7, -7.34309628605842590000e-002) (8, 2.43783611804246900000e-002) (0, 3.49217690527439120000e-002) (1, 1.30585208535194400000e-001) (2, -8.89827683568000790000e-002) (3, -5.68282939493656160000e-002) (4, 1.01673930883407590000e-001) (5, 1.60501096397638320000e-002) (6, 8.23042467236518860000e-002) (7, -2.57979128509759900000e-002) (8, -6.05862475931644440000e-002) (0, -6.42001256346702580000e-002) (1, -1.17638990283012390000e-001) (2, 3.88170666992664340000e-002) (3, -5.11201582849025730000e-002) (4, 7.36906155943870540000e-002) (5, 2.74978782981634140000e-002) (6, 9.62188467383384700000e-002) (7, 7.67136663198471070000e-002) (8, 6.47462606430053710000e-002) (0, 2.32816077768802640000e-002) (1, -2.33860313892364500000e-002) (2, -8.45550596714019780000e-002) (3, -8.25026333332061770000e-002) (4, -6.40376508235931400000e-002) (5, -5.50133995711803440000e-002) (6, -5.39372488856315610000e-002) (7, 9.63711813092231750000e-002) (8, -1.00382991135120390000e-001) (0, 7.46062248945236210000e-002) (1, 4.06571365892887120000e-002) (2, 7.25411325693130490000e-002) (3, -7.83336013555526730000e-002) (4, 2.66063641756772990000e-002) (5, -5.80877810716629030000e-002) (6, 2.91074831038713460000e-002) (7, -2.33621988445520400000e-002) (8, 1.28583293408155440000e-002) (0, -1.79340951144695280000e-002) (1, 7.36165344715118410000e-002) (2, -9.19082164764404300000e-002) (3, -2.99372877925634380000e-002) (4, -5.21726198494434360000e-002) (5, -2.52398792654275890000e-002) (6, -7.05509036779403690000e-002) (7, 1.57920140773057940000e-002) (8, 1.00814644247293470000e-002) (0, -5.01334555447101590000e-002) (1, 7.47390687465667720000e-002) (2, 8.89654308557510380000e-002) (3, -4.46060709655284880000e-002) (4, 3.71668790467083450000e-003) (5, 5.52049167454242710000e-002) (6, -7.58116096258163450000e-002) (7, 6.72015771269798280000e-002) (8, 3.43011133372783660000e-002) (0, -3.06484643369913100000e-002) (1, -8.66584330797195430000e-002) (2, -3.80580089986324310000e-002) (3, -5.98831288516521450000e-002) (4, -2.24922411143779750000e-002) (5, -8.21434631943702700000e-002) (6, 5.01663200557231900000e-002) (7, -3.19555662572383880000e-002) (8, -3.05422712117433550000e-002) (0, 7.25157931447029110000e-002) (1, -4.19470369815826420000e-002) (2, 1.87246184796094890000e-002) (3, 6.79960176348686220000e-002) (4, -6.10936572775244710000e-003) (5, 5.51723539829254150000e-002) (6, 4.03090864419937130000e-002) (7, -5.09445890784263610000e-002) (8, 3.34141333587467670000e-003) (0, -2.06376835703849790000e-002) (1, 4.52929139137268070000e-002) (2, -4.27100732922554020000e-002) (3, -9.22168567776679990000e-002) (4, -5.66424652934074400000e-002) (5, -8.78042206168174740000e-002) (6, 6.82516917586326600000e-002) (7, -6.10510036349296570000e-002) (8, -6.66044652462005620000e-002) (0, 2.88985786028206350000e-004) (1, 1.10421679913997650000e-001) (2, -5.44242523610591890000e-002) (3, -3.34099270403385160000e-002) (4, 9.69426929950714110000e-002) (5, 6.90526664257049560000e-002) (6, 4.81152646243572240000e-002) (7, 2.51342933624982830000e-002) (8, -5.80452792346477510000e-002) (0, -3.73610332608222960000e-002) (1, 8.66183638572692870000e-002) (2, -5.72755523025989530000e-002) (3, 2.11824476718902590000e-002) (4, 8.51925909519195560000e-002) (5, 1.19123168289661410000e-001) (6, 1.07799634337425230000e-001) (7, 7.30127990245819090000e-002) (8, -3.29631231725215910000e-002) (0, 6.95638358592987060000e-002) (1, -6.72942260280251500000e-003) (2, 7.54561051726341250000e-002) (3, -8.08745920658111570000e-002) (4, -4.64777052402496340000e-002) (5, 4.29430417716503140000e-003) (6, 6.05108104646205900000e-002) (7, -5.15681840479373930000e-002) (8, 9.92862433195114140000e-002) (0, -6.34061694145202640000e-002) (1, -1.15566579625010490000e-002) (2, -3.46225574612617490000e-002) (3, 2.02688742429018020000e-002) (4, 1.00163273513317110000e-001) (5, -1.31082925945520400000e-002) (6, -5.50747215747833250000e-002) (7, -4.66225445270538330000e-002) (8, -4.37013320624828340000e-002) (0, 3.88938300311565400000e-002) (1, -1.09421662986278530000e-001) (2, 1.98094937950372700000e-002) (3, 3.51790487766265870000e-002) (4, 4.56589348614215850000e-002) (5, 4.72539961338043210000e-002) (6, -1.69128309935331340000e-002) (7, -1.28042846918106080000e-002) (8, 1.28347083926200870000e-001) (0, -2.13516093790531160000e-002) (1, 6.80198669433593750000e-002) (2, -1.48511324077844620000e-002) (3, 9.50980037450790410000e-002) (4, 9.12914946675300600000e-002) (5, -2.64546759426593780000e-002) (6, 9.09216403961181640000e-002) (7, 5.75339309871196750000e-002) (8, -1.08047224581241610000e-001) (0, 1.04014044627547260000e-002) (1, -3.24981175363063810000e-002) (2, -5.21927997469902040000e-002) (3, -8.45869537442922590000e-003) (4, -8.27556923031806950000e-002) (5, -1.06941230595111850000e-001) (6, 7.03337416052818300000e-002) (7, -4.57772687077522280000e-002) (8, 6.50995820760726930000e-002) (0, -1.06608852744102480000e-001) (1, -1.13380022346973420000e-001) (2, -4.77727539837360380000e-002) (3, -9.57543775439262390000e-002) (4, 1.40832755714654920000e-002) (5, -8.72975662350654600000e-002) (6, -5.48483356833457950000e-002) (7, -3.01106479018926620000e-002) (8, 1.39600276947021480000e-001) (0, -5.51779009401798250000e-002) (1, 1.99164636433124540000e-002) (2, 6.72611594200134280000e-002) (3, 6.57631009817123410000e-002) (4, 4.85062487423419950000e-002) (5, -9.82323884963989260000e-002) (6, -2.47453525662422180000e-002) (7, -9.66018214821815490000e-002) (8, -6.64722500368952750000e-003) (0, 5.25578670203685760000e-002) (1, -3.05946636945009230000e-002) (2, 1.00151896476745610000e-001) (3, 3.43254506587982180000e-002) (4, 4.50645089149475100000e-002) (5, 4.93041612207889560000e-003) (6, 6.86671771109104160000e-003) (7, 6.21795058250427250000e-002) (8, 7.34269618988037110000e-002) (0, -1.68678779155015950000e-002) (1, 9.85225960612297060000e-002) (2, -7.41763487458229060000e-002) (3, -7.37679051235318180000e-003) (4, 1.16286873817443850000e-002) (5, 8.79248306155204770000e-002) (6, 4.67169135808944700000e-002) (7, -1.89599674195051190000e-002) (8, 2.92399283498525620000e-002) (0, -3.77901643514633180000e-003) (1, 8.30025300383567810000e-002) (2, -8.92697572708129880000e-002) (3, -7.97959975898265840000e-003) (4, -9.81551632285118100000e-002) (5, 8.69355574250221250000e-002) (6, -1.39394048601388930000e-002) (7, 7.42652341723442080000e-002) (8, -1.31495535373687740000e-001) (0, 1.46074797958135600000e-002) (1, -5.99791966378688810000e-002) (2, -5.68993054330348970000e-002) (3, 9.78695750236511230000e-002) (4, -7.91251659393310550000e-002) (5, -4.96135503053665160000e-002) (6, -5.74359036982059480000e-002) (7, 1.79393421858549120000e-002) (8, -3.49520444869995120000e-002) (0, 9.63411182165145870000e-002) (1, -8.19252207875251770000e-002) (2, 9.45349857211112980000e-002) (3, -9.75139718502759930000e-003) (4, 5.48946373164653780000e-002) (5, 2.99031729809939860000e-003) (6, -2.54242168739438060000e-003) (7, -1.81341208517551420000e-002) (8, 4.51823845505714420000e-002) (0, -1.61539353430271150000e-002) (1, 1.17152698338031770000e-001) (2, 1.80248077958822250000e-002) (3, -8.32257196307182310000e-002) (4, 1.15337893366813660000e-002) (5, -3.53437028825283050000e-002) (6, 1.59167647361755370000e-002) (7, 9.01505425572395320000e-002) (8, -9.92087051272392270000e-002) (0, -4.81802485883235930000e-002) (1, 5.99357113242149350000e-003) (2, -1.02100729942321780000e-001) (3, -2.98556126654148100000e-002) (4, -3.74128818511962890000e-002) (5, -6.73991739749908450000e-002) (6, 6.56454861164093020000e-002) (7, -1.14198829978704450000e-002) (8, -1.11925393342971800000e-001) (0, 8.23362767696380620000e-002) (1, 1.12435139715671540000e-001) (2, -3.40098366141319270000e-002) (3, -5.17818965017795560000e-002) (4, -4.22588139772415160000e-002) (5, 1.12293168902397160000e-001) (6, -7.28096365928649900000e-002) (7, 1.61827486008405690000e-002) (8, -8.08219984173774720000e-002) (0, -6.85968250036239620000e-002) (1, -1.11291415989398960000e-001) (2, -1.11379008740186690000e-002) (3, -5.48208244144916530000e-002) (4, -3.27022187411785130000e-002) (5, -3.29780653119087220000e-002) (6, 3.26771400868892670000e-002) (7, 6.11984170973300930000e-002) (8, 7.57337287068367000000e-002) (0, 1.22886300086975100000e-001) (1, 1.09695337712764740000e-001) (2, -9.71735492348670960000e-002) (3, -6.06582425534725190000e-002) (4, -3.69513668119907380000e-002) (5, 1.01405516266822810000e-001) (6, 9.16192382574081420000e-002) (7, -2.74632703512907030000e-002) (8, -1.31828293204307560000e-001) (0, 9.27829649299383160000e-003) (1, -1.11673399806022640000e-001) (2, 2.50817649066448210000e-003) (3, -2.12736167013645170000e-002) (4, 3.79242822527885440000e-002) (5, 6.56443461775779720000e-002) (6, 1.75904147326946260000e-002) (7, -6.93426281213760380000e-002) (8, -7.09540257230401040000e-003) (0, 2.49641183763742450000e-002) (1, -1.78021471947431560000e-002) (2, -3.07177063077688220000e-002) (3, -2.29697320610284810000e-002) (4, -1.38986818492412570000e-002) (5, 3.54745574295520780000e-002) (6, 5.89779056608676910000e-002) (7, 4.92504797875881200000e-003) (8, -3.66927459836006160000e-002) (0, 7.82805606722831730000e-002) (1, 6.33055204525589940000e-003) (2, 9.04429629445075990000e-002) (3, 4.00290340185165410000e-002) (4, 9.11881849169731140000e-002) (5, 4.91997934877872470000e-002) (6, 5.02664968371391300000e-003) (7, -3.32256890833377840000e-002) (8, -9.89942178130149840000e-002) (0, 2.78621278703212740000e-002) (1, 1.28282606601715090000e-002) (2, -1.09678372740745540000e-001) (3, 4.50013130903244020000e-002) (4, 8.43270868062973020000e-002) (5, 1.12908698618412020000e-001) (6, 2.08476595580577850000e-002) (7, -2.26062070578336720000e-002) (8, -5.19560985267162320000e-002) (0, 6.71247392892837520000e-002) (1, -3.11398524791002270000e-002) (2, 7.17562213540077210000e-002) (3, -3.92866283655166630000e-002) (4, -8.47380012273788450000e-002) (5, -6.86318650841712950000e-002) (6, -3.23561802506446840000e-002) (7, -3.57277467846870420000e-002) (8, 1.87219586223363880000e-002) (0, -2.16445848345756530000e-002) (1, -1.26666069030761720000e-001) (2, 6.35582208633422850000e-002) (3, 3.55781638063490390000e-003) (4, -6.13427311182022090000e-002) (5, -2.64737438410520550000e-002) (6, 1.17341093719005580000e-002) (7, -9.17737185955047610000e-002) (8, 7.22062541171908380000e-004) (0, -4.57431823015213010000e-002) (1, 2.70854625850915910000e-002) (2, 2.73339208215475080000e-002) (3, 9.44408923387527470000e-002) (4, -8.11861157417297360000e-002) (5, -8.58242586255073550000e-002) (6, 4.10178229212760930000e-002) (7, -8.43629017472267150000e-002) (8, 6.66657313704490660000e-002) (0, -5.62232770025730130000e-002) (1, -7.21428170800209050000e-002) (2, 8.80282893776893620000e-002) (3, -5.22698462009429930000e-003) (4, 5.93774542212486270000e-002) (5, -1.20230510830879210000e-001) (6, 3.24208587408065800000e-002) (7, 5.42258024215698240000e-002) (8, 1.62800848484039310000e-001) (0, -4.10406515002250670000e-002) (1, -2.64710988849401470000e-002) (2, -6.24477223027497530000e-004) (3, 3.93835604190826420000e-002) (4, 7.31833204627037050000e-002) (5, 8.36379900574684140000e-002) (6, -3.30343469977378850000e-002) (7, 1.73961613327264790000e-002) (8, 7.73525387048721310000e-002) (0, -1.06921672821044920000e-001) (1, -1.56521797180175780000e-001) (2, 1.12276047468185420000e-001) (3, 1.73850990831851960000e-002) (4, -1.89756862819194790000e-002) (5, -1.60268172621726990000e-001) (6, -6.76299855113029480000e-002) (7, -6.89608901739120480000e-002) (8, 4.41549494862556460000e-002) (0, -1.34006664156913760000e-002) (1, -1.79036006331443790000e-001) (2, -1.22793233022093770000e-002) (3, 3.82390692830085750000e-002) (4, 7.22832903265953060000e-002) (5, 3.05011533200740810000e-002) (6, -3.52797470986843110000e-002) (7, -9.13586616516113280000e-002) (8, 1.77241235971450810000e-001) (0, 6.47489959374070170000e-003) (1, 5.36943972110748290000e-003) (2, 7.04518693964928390000e-004) (3, 7.07446485757827760000e-002) (4, -6.18483452126383780000e-003) (5, 3.40822972357273100000e-002) (6, -3.42652685940265660000e-002) (7, 7.94823914766311650000e-002) (8, 1.14107325673103330000e-001) (0, 1.06336414813995360000e-001) (1, 5.18273785710334780000e-002) (2, -8.35308954119682310000e-002) (3, -4.41967695951461790000e-002) (4, 1.06374867260456090000e-001) (5, 2.08482015877962110000e-002) (6, -3.03301326930522920000e-002) (7, 2.11849175393581390000e-002) (8, -2.74952617473900320000e-003) (0, -3.98059375584125520000e-002) (1, -1.20967768132686610000e-001) (2, -8.32422301173210140000e-002) (3, -6.90082907676696780000e-002) (4, -9.41558852791786190000e-002) (5, -1.31404474377632140000e-001) (6, -1.96125246584415440000e-002) (7, 2.57785394787788390000e-002) (8, 1.10218122601509090000e-001) (0, 1.18108674883842470000e-001) (1, 1.34182525798678400000e-002) (2, -6.25240579247474670000e-002) (3, 7.11678341031074520000e-002) (4, 3.02912648767232890000e-002) (5, 1.03903934359550480000e-001) (6, 2.28327251970767970000e-002) (7, -3.00401207059621810000e-002) (8, -8.08662101626396180000e-002) (0, 1.04719221591949460000e-001) (1, -5.88765144348144530000e-002) (2, 5.80225996673107150000e-002) (3, -3.37298057274892930000e-004) (4, -1.43359240610152480000e-003) (5, 1.19201317429542540000e-001) (6, -8.91719684004783630000e-002) (7, -4.20078411698341370000e-002) (8, -1.16340592503547670000e-001) (0, 2.90324222296476360000e-002) (1, -1.73882365226745610000e-001) (2, 2.10371054708957670000e-002) (3, 3.35526908747851850000e-003) (4, 7.02036619186401370000e-002) (5, -8.01460444927215580000e-002) (6, -9.98876690864562990000e-002) (7, -5.50812706351280210000e-002) (8, 9.12669152021408080000e-002) (0, 7.47471153736114500000e-002) (1, 3.20664756000041960000e-002) (2, 8.94277766346931460000e-002) (3, -6.05055578052997590000e-002) (4, -5.83615899085998540000e-002) (5, -5.02500608563423160000e-002) (6, 