FANN_FLO_2.1
num_layers=3
learning_rate=0.900000
connection_rate=0.500000
network_type=0
learning_momentum=0.100000
training_algorithm=2
train_error_function=0
train_stop_function=1
cascade_output_change_fraction=0.010000
quickprop_decay=-0.000100
quickprop_mu=1.750000
rprop_increase_factor=1.200000
rprop_decrease_factor=0.500000
rprop_delta_min=0.000000
rprop_delta_max=50.000000
rprop_delta_zero=0.100000
cascade_output_stagnation_epochs=12
cascade_candidate_change_fraction=0.010000
cascade_candidate_stagnation_epochs=12
cascade_max_out_epochs=150
cascade_max_cand_epochs=150
cascade_num_candidate_groups=2
bit_fail_limit=3.49999994039535520000e-001
cascade_candidate_limit=1.00000000000000000000e+003
cascade_weight_multiplier=4.00000005960464480000e-001
cascade_activation_functions_count=10
cascade_activation_functions=3 5 7 8 10 11 14 15 16 17 
cascade_activation_steepnesses_count=4
cascade_activation_steepnesses=2.50000000000000000000e-001 5.00000000000000000000e-001 7.50000000000000000000e-001 1.00000000000000000000e+000 
layer_sizes=121 76 4 
scale_included=0
neurons (num_inputs, activation_function, activation_steepness)=(0, 0, 0.00000000000000000000e+000) (0, 0, 0.00000000000000000000e+000) (0, 0, 0.00000000000000000000e+000) (0, 0, 0.00000000000000000000e+000) (0, 0, 0.00000000000000000000e+000) (0, 0, 0.00000000000000000000e+000) (0, 0, 0.00000000000000000000e+000) (0, 0, 0.00000000000000000000e+000) (0, 0, 0.00000000000000000000e+000) (0, 0, 0.00000000000000000000e+000) (0, 0, 0.00000000000000000000e+000) (0, 0, 0.00000000000000000000e+000) (0, 0, 0.00000000000000000000e+000) (0, 0, 0.00000000000000000000e+000) (0, 0, 0.00000000000000000000e+000) (0, 0, 0.00000000000000000000e+000) (0, 0, 0.00000000000000000000e+000) (0, 0, 0.00000000000000000000e+000) (0, 0, 0.00000000000000000000e+000) (0, 0, 0.00000000000000000000e+000) (0, 0, 0.00000000000000000000e+000) (0, 0, 0.00000000000000000000e+000) (0, 0, 0.00000000000000000000e+000) (0, 0, 0.00000000000000000000e+000) (0, 0, 0.00000000000000000000e+000) (0, 0, 0.00000000000000000000e+000) (0, 0, 0.00000000000000000000e+000) (0, 0, 0.00000000000000000000e+000) (0, 0, 0.00000000000000000000e+000) (0, 0, 0.00000000000000000000e+000) (0, 0, 0.00000000000000000000e+000) (0, 0, 0.00000000000000000000e+000) (0, 0, 0.00000000000000000000e+000) (0, 0, 0.00000000000000000000e+000) (0, 0, 0.00000000000000000000e+000) (0, 0, 0.00000000000000000000e+000) (0, 0, 0.00000000000000000000e+000) (0, 0, 0.00000000000000000000e+000) (0, 0, 0.00000000000000000000e+000) (0, 0, 0.00000000000000000000e+000) (0, 0, 0.00000000000000000000e+000) (0, 0, 0.00000000000000000000e+000) (0, 0, 0.00000000000000000000e+000) (0, 0, 0.00000000000000000000e+000) (0, 0, 0.00000000000000000000e+000) (0, 0, 0.00000000000000000000e+000) (0, 0, 0.00000000000000000000e+000) (0, 0, 0.00000000000000000000e+000) (0, 0, 0.00000000000000000000e+000) (0, 0, 0.00000000000000000000e+000) (0, 0, 0.00000000000000000000e+000) (0, 0, 0.00000000000000000000e+000) (0, 0, 0.00000000000000000000e+000) (0, 0, 0.00000000000000000000e+000) (0, 0, 0.00000000000000000000e+000) (0, 0, 0.00000000000000000000e+000) (0, 0, 0.00000000000000000000e+000) (0, 0, 0.00000000000000000000e+000) (0, 0, 0.00000000000000000000e+000) (0, 0, 0.00000000000000000000e+000) (0, 0, 0.00000000000000000000e+000) (0, 0, 0.00000000000000000000e+000) (0, 0, 0.00000000000000000000e+000) (0, 0, 0.00000000000000000000e+000) (0, 0, 0.00000000000000000000e+000) (0, 0, 0.00000000000000000000e+000) (0, 0, 0.00000000000000000000e+000) (0, 0, 0.00000000000000000000e+000) (0, 0, 0.00000000000000000000e+000) (0, 0, 0.00000000000000000000e+000) (0, 0, 0.00000000000000000000e+000) (0, 0, 0.00000000000000000000e+000) (0, 0, 0.00000000000000000000e+000) (0, 0, 0.00000000000000000000e+000) (0, 0, 0.00000000000000000000e+000) (0, 0, 0.00000000000000000000e+000) (0, 0, 0.00000000000000000000e+000) (0, 0, 0.00000000000000000000e+000) (0, 0, 0.00000000000000000000e+000) (0, 0, 0.00000000000000000000e+000) (0, 0, 0.00000000000000000000e+000) (0, 0, 0.00000000000000000000e+000) (0, 0, 0.00000000000000000000e+000) (0, 0, 0.00000000000000000000e+000) (0, 0, 0.00000000000000000000e+000) (0, 0, 0.00000000000000000000e+000) (0, 0, 0.00000000000000000000e+000) (0, 0, 0.00000000000000000000e+000) (0, 0, 0.00000000000000000000e+000) (0, 0, 0.00000000000000000000e+000) (0, 0, 0.00000000000000000000e+000) (0, 0, 0.00000000000000000000e+000) (0, 0, 0.00000000000000000000e+000) (0, 0, 0.00000000000000000000e+000) (0, 0, 0.00000000000000000000e+000) (0, 0, 0.00000000000000000000e+000) (0, 0, 0.00000000000000000000e+000) (0, 0, 0.00000000000000000000e+000) (0, 0, 0.00000000000000000000e+000) (0, 0, 0.00000000000000000000e+000) (0, 0, 0.00000000000000000000e+000) (0, 0, 0.00000000000000000000e+000) (0, 0, 0.00000000000000000000e+000) (0, 0, 0.00000000000000000000e+000) (0, 0, 0.00000000000000000000e+000) (0, 0, 0.00000000000000000000e+000) (0, 0, 0.00000000000000000000e+000) (0, 0, 0.00000000000000000000e+000) (0, 0, 0.00000000000000000000e+000) (0, 0, 0.00000000000000000000e+000) (0, 0, 0.00000000000000000000e+000) (0, 0, 0.00000000000000000000e+000) (0, 0, 0.00000000000000000000e+000) (0, 0, 0.00000000000000000000e+000) (0, 0, 0.00000000000000000000e+000) (0, 0, 0.00000000000000000000e+000) (0, 0, 0.00000000000000000000e+000) (0, 0, 0.00000000000000000000e+000) (0, 0, 0.00000000000000000000e+000) (0, 0, 0.00000000000000000000e+000) (0, 0, 0.00000000000000000000e+000) (61, 10, 5.00000000000000000000e-001) (61, 10, 5.00000000000000000000e-001) (61, 10, 5.00000000000000000000e-001) (61, 10, 5.00000000000000000000e-001) (61, 10, 5.00000000000000000000e-001) (61, 10, 5.00000000000000000000e-001) (61, 10, 5.00000000000000000000e-001) (61, 10, 5.00000000000000000000e-001) (61, 10, 5.00000000000000000000e-001) (61, 10, 5.00000000000000000000e-001) (61, 10, 5.00000000000000000000e-001) (61, 10, 5.00000000000000000000e-001) (61, 10, 5.00000000000000000000e-001) (61, 10, 5.00000000000000000000e-001) (61, 10, 5.00000000000000000000e-001) (61, 10, 5.00000000000000000000e-001) (61, 10, 5.00000000000000000000e-001) (61, 10, 5.00000000000000000000e-001) (61, 10, 5.00000000000000000000e-001) (61, 10, 5.00000000000000000000e-001) (61, 10, 5.00000000000000000000e-001) (61, 10, 5.00000000000000000000e-001) (61, 10, 5.00000000000000000000e-001) (61, 10, 5.00000000000000000000e-001) (61, 10, 5.00000000000000000000e-001) (61, 10, 5.00000000000000000000e-001) (61, 10, 5.00000000000000000000e-001) (61, 10, 5.00000000000000000000e-001) (61, 10, 5.00000000000000000000e-001) (61, 10, 5.00000000000000000000e-001) (61, 10, 5.00000000000000000000e-001) (61, 10, 5.00000000000000000000e-001) (61, 10, 5.00000000000000000000e-001) (61, 10, 5.00000000000000000000e-001) (61, 10, 5.00000000000000000000e-001) (61, 10, 5.00000000000000000000e-001) (61, 10, 5.00000000000000000000e-001) (61, 10, 5.00000000000000000000e-001) (61, 10, 5.00000000000000000000e-001) (61, 10, 5.00000000000000000000e-001) (61, 10, 5.00000000000000000000e-001) (61, 10, 5.00000000000000000000e-001) (61, 10, 5.00000000000000000000e-001) (61, 10, 5.00000000000000000000e-001) (61, 10, 5.00000000000000000000e-001) (61, 10, 5.00000000000000000000e-001) (61, 10, 5.00000000000000000000e-001) (61, 10, 5.00000000000000000000e-001) (61, 10, 5.00000000000000000000e-001) (61, 10, 5.00000000000000000000e-001) (61, 10, 5.00000000000000000000e-001) (61, 10, 5.00000000000000000000e-001) (61, 10, 5.00000000000000000000e-001) (61, 10, 5.00000000000000000000e-001) (61, 10, 5.00000000000000000000e-001) (61, 10, 5.00000000000000000000e-001) (61, 10, 5.00000000000000000000e-001) (61, 10, 5.00000000000000000000e-001) (61, 10, 5.00000000000000000000e-001) (61, 10, 5.00000000000000000000e-001) (61, 10, 5.00000000000000000000e-001) (61, 10, 5.00000000000000000000e-001) (61, 10, 5.00000000000000000000e-001) (61, 10, 5.00000000000000000000e-001) (61, 10, 5.00000000000000000000e-001) (61, 10, 5.00000000000000000000e-001) (61, 10, 5.00000000000000000000e-001) (61, 10, 5.00000000000000000000e-001) (61, 10, 5.00000000000000000000e-001) (61, 10, 5.00000000000000000000e-001) (61, 10, 5.00000000000000000000e-001) (61, 10, 5.00000000000000000000e-001) (61, 10, 5.00000000000000000000e-001) (61, 10, 5.00000000000000000000e-001) (61, 10, 5.00000000000000000000e-001) (0, 10, 5.00000000000000000000e-001) (38, 10, 5.00000000000000000000e-001) (39, 10, 5.00000000000000000000e-001) (39, 10, 5.00000000000000000000e-001) (0, 10, 5.00000000000000000000e-001) 
connections (connected_to_neuron, weight)=(120, -7.01677948236465450000e-002) (19, 2.45505332946777340000e+000) (85, 4.99908351898193360000e+000) (64, 1.97705326080322270000e+001) (76, -1.35825681686401370000e+000) (46, -3.49123001098632810000e-001) (95, -7.76162803173065190000e-001) (54, 1.48625305175781250000e+003) (28, -4.46773707866668700000e-001) (25, 8.74856352806091310000e-001) (108, -2.83625030517578130000e+000) (53, 6.28553777933120730000e-002) (58, 2.27308583259582520000e+000) (45, -6.61610603332519530000e-001) (13, -1.23508501052856450000e+000) (32, 5.32286167144775390000e-001) (110, 2.34742069244384770000e+000) (98, 5.86420726776123050000e+000) (3, -6.10355424880981450000e+000) (17, -4.76470327377319340000e+000) (65, -3.28068923950195310000e+000) (79, 8.74565982818603520000e+000) (57, 7.29097223281860350000e+000) (21, -1.78515434265136720000e+001) (67, 1.04570913314819340000e+000) (2, -9.51929569244384770000e-001) (118, 9.77373480796813960000e-001) (1, 3.60176324844360350000e-001) (114, 1.07881620526313780000e-001) (27, -7.14678907394409180000e+000) (35, 8.45581650733947750000e-001) (104, 4.78274106979370120000e+000) (103, 2.30133628845214840000e+000) (50, -1.44720673561096190000e+000) (38, 3.67999935150146480000e+000) (16, 2.89443874359130860000e+000) (77, 1.81458759307861330000e+000) (92, 3.73784995079040530000e+000) (91, 4.03544694185256960000e-001) (93, -7.64968156814575200000e-001) (86, -4.21397268772125240000e-001) (22, -6.31480991840362550000e-001) (62, 1.02064764499664310000e+000) (112, 9.51530039310455320000e-001) (15, -9.46988523006439210000e-001) (83, -5.05397617816925050000e-001) (68, -9.86663162708282470000e-001) (82, -4.59368601441383360000e-002) (113, -4.52420145273208620000e-001) (34, 2.05003547668457030000e+000) (30, 4.82376813888549800000e+000) (75, -1.39217662811279300000e+000) (69, -4.27679359912872310000e-001) (26, -5.78611373901367190000e+000) (74, 2.34187102317810060000e+000) (48, -3.92093086242675780000e+000) (102, 4.20222938060760500000e-001) (20, -5.20805239677429200000e-001) (115, -1.81780071258544920000e+001) (9, 4.30522108078002930000e+000) (100, -5.88778877258300780000e+000) (120, 8.42072188854217530000e-001) (112, 3.93302112817764280000e-001) (75, 2.57179474830627440000e+000) (39, 1.62164553999900820000e-001) (15, 4.74842727184295650000e-001) (29, 1.55563247203826900000e+000) (67, -3.39197158813476560000e+000) (95, 5.93597173690795900000e-001) (98, 2.36426591873168950000e+000) (9, -9.26274582743644710000e-002) (83, -1.17325460910797120000e+000) (113, 1.70819902420043950000e+000) (34, 1.71549010276794430000e+000) (5, 3.92661392688751220000e-001) (85, -4.33380991220474240000e-001) (21, 7.16677474975585940000e+000) (90, 1.56035935878753660000e+000) (68, -2.42456378936767580000e+001) (114, 3.35014796257019040000e+000) (24, 8.48579645156860350000e-001) (60, -2.32868537902832030000e+001) (94, 2.63974165916442870000e+000) (118, 1.65945410728454590000e+000) (64, 5.84162425994873050000e+000) (45, -1.45351037383079530000e-001) (44, 2.15588498115539550000e+000) (93, 7.05296158790588380000e-001) (55, -1.43229854106903080000e+000) (78, 8.91102313995361330000e-001) (8, 3.47777414321899410000e+000) (30, -2.40889921784400940000e-001) (53, 2.14926317334175110000e-001) (49, -1.53415155410766600000e+000) (3, 7.91649341583251950000e-001) (12, -1.03341567516326900000e+000) (86, 2.53895819187164310000e-001) (82, 1.98274120688438420000e-001) (84, 7.23002076148986820000e-001) (7, 3.69778394699096680000e-001) (38, 3.76712846755981450000e+000) (46, 6.76487505435943600000e-001) (48, 3.40996336936950680000e+000) (25, 3.94311761856079100000e+000) (110, 8.47413182258605960000e-001) (13, 3.59601944684982300000e-001) (69, 2.72693290710449220000e+001) (88, -2.51207590103149410000e-001) (43, 3.43161374330520630000e-001) (6, 6.47955119609832760000e-001) (28, 2.45631456375122070000e+000) (65, 1.31411635875701900000e+000) (56, 5.96024751663208010000e+000) (81, 1.07057678699493410000e+000) (33, 4.04217815399169920000e+000) (32, -4.72100198268890380000e-001) (14, 2.22664213180541990000e+000) (99, 1.19392728805541990000e+000) (71, -1.68002772331237790000e+000) (1, 6.04348540306091310000e-001) (11, -7.39797949790954590000e-001) (23, 5.64929294586181640000e+000) (120, 2.69423156976699830000e-001) (5, 2.35998082160949710000e+000) (97, -2.66260695457458500000e+000) (37, 1.59200847148895260000e+000) (46, 4.17895460128784180000e+000) (44, 7.33608067035675050000e-001) (73, 4.65065145492553710000e+000) (20, 1.59699007868766780000e-001) (75, 5.24353647232055660000e+000) (102, 3.28037548065185550000e+000) (81, -2.28502702713012700000e+000) (22, 1.59972214698791500000e+000) (64, 8.35071265697479250000e-001) (23, 8.67671108245849610000e+000) (83, -3.18515849113464360000e+000) (79, 5.14028668403625490000e-001) (111, -3.37509584426879880000e+000) (103, 6.15102672576904300000e+000) (56, -4.92269500732421870000e+002) (108, -3.27728176116943360000e+000) (67, -1.38978528976440430000e+000) (35, 7.17262506484985350000e-001) (4, 3.44357681274414060000e+000) (7, 4.14153337478637700000e+000) (31, -1.20235323905944820000e+000) (104, 1.97640740871429440000e+000) (63, -2.86278724670410160000e+000) (3, -3.80756974220275880000e+000) (72, -4.71705150604248050000e+000) (15, 7.49936056137084960000e+000) (62, -3.12585639953613280000e+001) (27, -7.27827358245849610000e+000) (92, 7.59694385528564450000e+000) (30, -1.14310228824615480000e+000) (77, 3.95024442672729490000e+000) (28, -1.99000668525695800000e+000) (49, -2.08594274520874020000e+000) (93, -1.07733850479125980000e+001) (87, -1.26661348342895510000e+000) (48, 2.31243443489074710000e+000) (90, 2.72937250137329100000e+000) (61, 1.46192077636718750000e+003) (6, -5.44594526290893550000e-001) (55, 8.06763935089111330000e+000) (19, -3.60806167125701900000e-001) (40, 9.17257499694824220000e+000) (115, -4.29230880737304690000e+000) (117, 6.98483133316040040000e+000) (24, 2.40872812271118160000e+000) (52, 2.01475119590759280000e+000) (29, 4.35344688594341280000e-003) (68, -1.25053424835205080000e+001) (32, 4.96513509750366210000e+000) (39, -4.44963359832763670000e+000) (60, -6.45323336124420170000e-001) (114, 3.59358727931976320000e-001) (11, 3.51306605339050290000e+000) (78, -4.84777259826660160000e+000) (16, 6.63749456405639650000e+000) (34, 8.13223540782928470000e-001) (57, 6.20638370513916020000e-001) (120, 4.29371222853660580000e-002) (32, -2.02981877326965330000e+000) (93, -2.25416207313537600000e+000) (58, 3.35678195953369140000e+000) (20, 2.31710410118103030000e+000) (33, -1.61533915996551510000e+000) (52, -2.11601305007934570000e+000) (22, -4.40046358108520510000e+000) (75, 1.84417381286621090000e+001) (95, -3.47396254539489750000e-001) (102, 5.43039464950561520000e+000) (8, -1.01482637226581570000e-001) (84, 4.42091274261474610000e+000) (50, -8.55006790161132810000e+000) (11, 3.69406223297119140000e+000) (62, -1.06305253505706790000e+000) (91, 5.53615474700927730000e+000) (48, -3.18869495391845700000e+000) (43, 1.90167808532714840000e+000) (97, -2.00727272033691410000e+001) (44, -1.43701881170272830000e-001) (119, 2.12885618209838870000e+000) (9, 4.04754519462585450000e-001) (61, -4.79621362686157230000e+000) (54, -3.04045696258544920000e+001) (69, 1.45861635208129880000e+001) (79, 1.56803643703460690000e+000) (29, 2.92582964897155760000e+000) (60, -8.19791984558105470000e+000) (5, 5.38543939590454100000e-001) (41, -2.69768667221069340000e+000) (42, 4.60060983896255490000e-001) (73, 5.77870011329650880000e-001) (19, 1.94657838344573970000e+000) (28, 3.14132332801818850000e-001) (10, 1.01307058334350590000e+000) (13, 1.90229213237762450000e+000) (4, 5.38028240203857420000e-001) (36, 4.18356561660766600000e+000) (111, 3.20928543806076050000e-001) (23, 4.23551708459854130000e-001) (14, -7.07420063018798830000e+000) (45, 1.00677013397216800000e+000) (94, 1.44282305240631100000e+000) (116, 1.94660440087318420000e-001) (98, -2.25554103851318360000e+001) (86, -7.86925777792930600000e-002) (35, 5.36703526973724370000e-001) (67, 1.77003383636474610000e+000) (110, 3.68696546554565430000e+000) (70, -6.97557106614112850000e-002) (30, 1.61939644813537600000e+000) (46, 6.70448541641235350000e-001) (66, -1.17026352882385250000e+000) (107, 6.84698045253753660000e-001) (25, -8.31986808776855470000e+000) (40, -4.67962646484375000000e+000) (15, -2.96259069442749020000e+000) (68, -5.32454204559326170000e+000) (12, 9.10992741584777830000e-001) (49, -9.22707748413085940000e+000) (120, -7.15813696384429930000e-001) (96, -1.30164728164672850000e+001) (54, -1.21136236190795900000e+001) (116, -3.70529460906982420000e+000) (111, -8.85633277893066410000e+000) (30, 2.59742951393127440000e+000) (73, -1.88088130950927730000e+000) (81, -1.00163733959198000000e+000) (119, -2.38993793725967410000e-001) (69, 3.97549700736999510000e+000) (1, -2.10967361927032470000e-001) (34, -1.27129241824150090000e-001) (91, -1.18471598625183110000e+000) (25, 1.73280537128448490000e+000) (64, -3.14645141363143920000e-001) (4, -2.35923838615417480000e+000) (110, 2.03513622283935550000e+000) (114, -4.50748062133789060000e+000) (65, -2.51130509376525880000e+000) (21, -1.32401561737060550000e+000) (38, 7.62116983532905580000e-002) (113, 7.27743101119995120000e+000) (43, -2.83466219902038570000e+000) (13, 3.41079640388488770000e+000) (0, 7.81482338905334470000e-001) (46, -9.67956244945526120000e-001) (36, -1.02796363830566410000e+000) (15, -4.26430433988571170000e-001) (78, -2.05235290527343750000e+000) (19, -1.71348333358764650000e+000) (37, -3.24571681022644040000e+000) (40, 4.56763410568237300000e+000) (79, -2.06965923309326170000e+000) (102, -2.59734082221984860000e+000) (26, 7.08919942378997800000e-001) (9, 1.16655158996582030000e+000) (90, -8.52308940887451170000e+000) (56, -1.50000000000000000000e+003) (57, 5.61023855209350590000e+000) (106, -7.10567653179168700000e-001) (50, -7.40826988220214840000e+000) (11, 1.37582027912139890000e+000) (112, -7.11197197437286380000e-001) (62, -3.74425220489501950000e+000) (72, -4.49641418457031250000e+000) (84, -2.51208519935607910000e+000) (93, -8.88844680786132810000e+000) (58, 6.97008705139160160000e+000) (53, 7.08653879165649410000e+000) (105, -4.56159681081771850000e-001) (80, 6.86938190460205080000e+000) (95, -2.16644912958145140000e-001) (39, -1.48116171360015870000e+000) (28, -1.00484883785247800000e+000) (16, 7.37710818648338320000e-002) (82, 9.09181785583496090000e+000) (67, 5.67905545234680180000e-001) (103, 3.14118003845214840000e+000) (70, -2.07230567932128910000e+000) (76, -1.29530727863311770000e+000) (66, 3.41041278839111330000e+000) (120, 1.00717566907405850000e-001) (4, -3.34114384651184080000e+000) (80, -3.93823347985744480000e-002) (73, 3.69594067335128780000e-001) (6, -4.76819896697998050000e+000) (3, -9.58718538284301760000e-001) (90, -2.27844381332397460000e+000) (16, 9.40477997064590450000e-002) (98, 1.62144672870635990000e+000) (69, 1.13044853210449220000e+001) (76, -6.70794963836669920000e-001) (95, -1.63387417793273930000e+000) (0, -4.78338050842285160000e+000) (28, -8.17794895172119140000e+000) (14, -2.20994353294372560000e+000) (106, -4.22730255126953130000e+000) (66, -2.89510190486907960000e-001) (5, 2.04997110366821290000e+000) (77, 8.17316627502441410000e+000) (43, 1.29443960189819340000e+001) (26, -1.12420511245727540000e+000) (55, 1.18414062500000000000e+003) (94, 2.48553335666656490000e-001) (68, -1.01676139831542970000e+001) (99, -1.38214790821075440000e+000) (118, -3.27624869346618650000e+000) (29, -8.83325561881065370000e-002) (2, -1.35785017013549800000e+001) (86, 1.83459684252738950000e-001) (112, -2.34123134613037110000e+000) (113, -2.01933884620666500000e+000) (97, 4.40058851242065430000e+000) (72, 1.02410531044006350000e+000) (19, -5.49823999404907230000e+000) (25, 4.96232986450195310000e+000) (31, 2.03302168846130370000e+000) (50, 5.83794784545898440000e+000) (111, -1.63145303726196290000e+000) (1, -7.24089220166206360000e-002) (47, 8.18738746643066410000e+000) (59, -4.65040924072265630000e+002) (15, 3.01419281959533690000e+000) (35, -9.86064493656158450000e-001) (96, -3.50382208824157710000e-001) (88, -7.99334526062011720000e-001) (82, 1.94453203678131100000e+000) (51, -7.63706254959106450000e+000) (17, 6.27789020538330080000e+000) (46, 3.78397440910339360000e+000) (89, -1.18998384475708010000e+001) (78, -8.02048206329345700000e+000) (18, -2.14517518877983090000e-001) (104, 3.94954371452331540000e+000) (85, 8.01848793029785160000e+000) (45, -5.71993160247802730000e+000) (30, -3.29435169696807860000e-001) (60, -1.64721858501434330000e+000) (83, -1.04922914505004880000e+000) (63, -3.35168480873107910000e+000) (105, 2.50190711021423340000e+000) (61, 1.08070402145385740000e+001) (120, 1.32696464657783510000e-001) (23, 7.58391797542572020000e-001) (83, 2.99505043029785160000e+000) (22, -1.18765854835510250000e+000) (59, 1.13457633972167970000e+002) (32, -6.64437353610992430000e-001) (5, 1.43742233514785770000e-001) (19, 1.18602864444255830000e-001) (77, -3.09480285644531250000e+000) (114, 2.98973512649536130000e+000) (104, 1.01590800285339360000e+000) (43, 3.34027290344238280000e-001) (50, 6.04714930057525630000e-001) (54, 1.55183753967285160000e+001) (103, -6.22914314270019530000e+000) (65, 1.48941445350646970000e+000) (39, -2.94218182563781740000e+000) (64, 8.67428779602050780000e+000) (105, -4.36375677585601810000e-001) (93, 2.43197631835937500000e+000) (118, -1.12725467681884770000e+001) (17, -3.27552914619445800000e+000) (79, -3.88450063765048980000e-002) (8, 4.34547334909439090000e-001) (95, 1.04906635284423830000e+001) (42, -1.88118648529052730000e+000) (30, -1.00664901733398440000e+000) (74, 5.18964350223541260000e-001) (21, -2.52353811264038090000e+000) (111, 1.90242242813110350000e+000) (16, 8.43168139457702640000e-001) (86, 5.11474013328552250000e-001) (63, -1.53638982772827150000e+001) (13, -9.45569801330566410000e+000) (117, -9.09102857112884520000e-001) (94, 9.54794764518737790000e-001) (46, 7.46864986419677730000e+000) (92, -5.76059150695800780000e+000) (96, 2.32471537590026860000e+000) (40, -1.65398061275482180000e+000) (29, -9.22110676765441890000e-001) (48, 2.55617809295654300000e+000) (37, 8.52949082851409910000e-001) (24, -3.10400557518005370000e+000) (1, -7.26402473449707030000e+000) (71, 2.00967335700988770000e+000) (18, -1.10419571399688720000e+000) (0, 6.18487024307250980000e+000) (25, -4.51251316070556640000e+000) (70, -3.68119573593139650000e+000) (33, 1.70103335380554200000e+000) (72, 8.54172992706298830000e+000) (107, 8.81155073642730710000e-001) (76, 1.94760233163833620000e-001) (47, 2.24447816610336300000e-001) (44, 2.47399851679801940000e-001) (101, -5.80741500854492190000e+000) (2, -1.02754306793212890000e+001) (55, 2.52741158008575440000e-001) (98, 5.73689877986907960000e-001) (10, 6.74735307693481450000e+000) (120, 2.11641583591699600000e-002) (93, 4.37708234786987300000e+000) (107, 1.75721943378448490000e+000) (64, -4.19682407379150390000e+000) (26, -5.34255647659301760000e+000) (11, -1.04608118534088130000e+000) (13, 6.81355190277099610000e+000) (119, -1.35029923915863040000e+000) (97, 7.19459867477416990000e+000) (81, 7.10107326507568360000e-001) (91, 8.20871651172637940000e-001) (114, -2.85631865262985230000e-001) (56, -2.55883636474609380000e+001) (60, -1.90087640285491940000e+000) (27, -2.66381931304931640000e+000) (67, 6.56142520904541020000e+000) (30, 4.71018886566162110000e+000) (43, -4.38424974679946900000e-001) (18, 4.52997779846191410000e+000) (71, 5.80087375640869140000e+000) (14, -1.58083021640777590000e+000) (54, -5.34332633018493650000e-001) (32, 1.63096570968627930000e+000) (42, 3.15274745225906370000e-001) (57, 9.91548120975494380000e-001) (83, 2.15024185180664060000e+000) (10, 1.15880382061004640000e+000) (84, -2.84245753288269040000e+000) (92, 2.04993367195129390000e-001) (94, 9.56388354301452640000e-001) (115, 2.19452834129333500000e+000) (77, -1.63605260848999020000e+000) (47, -3.28753501176834110000e-001) (25, -1.69544811248779300000e+001) (69, 2.56300601959228520000e+001) (53, -3.02867054939270020000e+000) (35, 3.55445051193237300000e+000) (1, -1.00297629833221440000e+000) (73, 2.89183259010314940000e-001) (7, -7.87635028362274170000e-001) (5, 4.48074549436569210000e-001) (0, 1.53913438320159910000e+000) (48, -1.41090373992919920000e+001) (20, 2.61533832550048830000e+000) (52, -3.45778536796569820000e+000) (80, -7.49423217773437500000e+000) (101, 7.87287235260009770000e-001) (36, 2.01785826683044430000e+000) (44, -1.91828727722167970000e+000) (89, -1.58192253112792970000e+000) (59, -7.46787185668945310000e+001) (95, 5.26440918445587160000e-001) (110, -1.52230560779571530000e+000) (8, -2.89949208498001100000e-001) (4, -1.80950498580932620000e+000) (38, 1.46363716125488280000e+001) (111, 7.08077383041381840000e+000) (66, 2.59724140167236330000e+000) (116, 3.00691628456115720000e+000) (68, -1.76208171844482420000e+001) (78, -4.24023121595382690000e-001) (120, 1.58219430595636370000e-002) (36, -9.37202358245849610000e+000) (51, 6.85354411602020260000e-001) (65, 7.16564130783081050000e+000) (99, -7.35597014427185060000e-001) (57, 6.32649660110473630000e+000) (13, 1.88403093814849850000e+000) (88, -1.86046922206878660000e+000) (86, -5.05129277706146240000e-001) (18, 1.13887175917625430000e-001) (87, -1.03158349990844730000e+001) (11, 3.28679132461547850000e+000) (108, -3.65796573460102080000e-002) (3, -5.62825870513916020000e+000) (37, 1.48164260387420650000e+000) (12, 9.63326632976531980000e-001) (83, -1.29604949951171880000e+001) (63, 8.11759662628173830000e+000) (55, -1.41508960723876950000e+000) (47, -1.31279158592224120000e+000) (58, 9.41493034362792970000e+000) (14, -3.78141093254089360000e+000) (24, 3.61940460205078120000e+001) (103, -5.04653835296630860000e+000) (77, -4.12687718868255620000e-001) (79, -3.10042190551757810000e+000) (42, 2.99686551094055180000e+000) (1, 4.78866624832153320000e+000) (81, -3.75287508964538570000e+000) (25, -6.57737112045288090000e+000) (35, -4.98552227020263670000e+000) (74, 8.81295013427734370000e+000) (117, -7.82686114311218260000e-001) (48, -2.14903426170349120000e+000) (31, -1.06770098209381100000e+000) (66, -3.41990566253662110000e+000) (59, -5.49842224121093750000e+001) (115, 1.80464911460876460000e+000) (22, 1.29531526565551760000e+000) (73, 6.62202954292297360000e-001) (30, -3.13043761253356930000e+000) (8, -3.24988031387329100000e+000) (76, -1.68171301484107970000e-001) (70, 8.57544231414794920000e+000) (41, 5.37975406646728520000e+000) (118, 7.72845411300659180000e+000) (23, 3.41219186782836910000e+000) (100, -2.89875179529190060000e-001) (93, -1.37847006320953370000e-001) (113, -6.70997500419616700000e-001) (89, -3.21936202049255370000e+000) (50, 4.17341291904449460000e-001) (116, 3.29736638069152830000e+000) (17, -1.90626955032348630000e+000) (40, 9.60424840450286870000e-001) (4, 1.92417538166046140000e+000) (44, 2.19540849328041080000e-001) (98, -8.73332500457763670000e-001) (32, -4.80805605649948120000e-001) (95, -1.38120403289794920000e+001) (94, 3.86817216873168950000e+000) (120, 2.08770662546157840000e-001) (6, -3.17060947418212890000e-001) (76, -3.71167445182800290000e+000) (31, 2.42850616574287410000e-001) (61, 1.10309143066406250000e+001) (27, 4.67059016227722170000e-001) (51, -5.52693247795104980000e-001) (78, 3.85504245758056640000e+000) (109, 3.81177592277526860000e+000) (55, 9.25890075683593750000e+002) (111, -2.30841674804687500000e+001) (21, -5.51544618606567380000e+000) (50, 1.01559542119503020000e-001) (96, -7.24884557723999020000e+000) (9, -1.18655371665954590000e+000) (115, 1.24836254119873050000e+000) (48, -9.20518577098846440000e-001) (2, -1.02875823974609370000e+001) (16, -9.82344269752502440000e-001) (11, 2.36962676048278810000e+000) (93, -3.06516140699386600000e-001) (8, -2.90619301795959470000e+000) (60, -6.81949317455291750000e-001) (118, 1.14006412029266360000e+000) (28, -8.92621517181396480000e+000) (116, -6.20618009567260740000e+000) (20, -4.35594034194946290000e+000) (107, -1.52969554066658020000e-001) (83, -8.98977905273437500000e+002) (95, 1.67509794235229490000e+000) (5, -1.23538196086883540000e+000) (90, 3.41506934165954590000e+000) (119, -5.13980484008789060000e+000) (43, -1.21952071785926820000e-001) (80, 1.98726248741149900000e+000) (68, -5.96788644790649410000e+000) (73, 1.08290684223175050000e+000) (64, 3.54243087768554690000e+000) (72, 2.25304818153381350000e+000) (25, -1.10520148277282710000e+000) (106, -2.69923269748687740000e-001) (41, 1.33947432041168210000e+000) (63, -1.62884998321533200000e+000) (29, -3.35926437377929690000e+000) (33, -4.80898666381835940000e+000) (37, 5.03179597854614260000e+000) (82, -1.97727262973785400000e+000) (32, -2.96429705619812010000e+000) (86, 7.82957553863525390000e+000) (18, -1.10739469528198240000e+000) (70, 2.18545511364936830000e-001) (53, -9.32617378234863280000e+000) (44, -3.04902005195617680000e+000) (57, 2.02170486450195310000e+001) (24, 4.12323999404907230000e+000) (59, -4.06734344482421870000e+002) (71, -6.95704698562622070000e-001) (79, 1.01935501098632810000e+001) (14, -1.14033164978027340000e+001) (91, 6.50514781475067140000e-001) (7, 5.15800142288208010000e+000) (120, -9.21386927366256710000e-002) (67, -2.20278263092041020000e+000) (68, 2.36016712188720700000e+001) (102, -2.51494765281677250000e-001) (26, -5.79756164550781250000e+000) (19, -2.23005986213684080000e+000) (84, -1.66886687278747560000e+000) (22, -5.05513715744018550000e+000) (3, -6.47182369232177730000e+000) (69, 1.46280944824218750000e+002) (97, -5.33393955230712890000e+000) (33, -3.19434344768524170000e-001) (50, 4.84100580215454100000e+000) (52, 1.95864900946617130000e-001) (4, -1.85112142562866210000e+000) (51, 1.16921925544738770000e+000) (16, -2.59583783149719240000e+000) (29, -3.74239921569824220000e+000) (31, -9.36654359102249150000e-002) (64, 3.25371742248535160000e+000) (13, 1.03257343173027040000e-001) (38, -4.51025152206420900000e+000) (94, 5.61972761154174800000e+000) (90, -1.81905186176300050000e+000) (96, -1.50287020206451420000e+000) (104, 5.94506621360778810000e-001) (119, 1.19456335902214050000e-001) (98, -4.58090496063232420000e+000) (57, -8.68750989437103270000e-001) (48, -1.02660429477691650000e+000) (118, 3.06455522775650020000e-001) (106, 4.46612715721130370000e-001) (59, 3.22331905364990230000e+000) (58, 1.23855806887149810000e-001) (85, -5.70485234260559080000e-001) (39, 4.29862117767333980000e+000) (99, 4.57291424274444580000e-001) (21, 4.02683067321777340000e+000) (35, -7.78306913375854490000e+000) (86, 9.84672069549560550000e-001) (62, 1.33076925277709960000e+001) (83, 3.03218901157379150000e-001) (37, 5.88355731964111330000e+000) (44, -6.48651599884033200000e+000) (108, 4.54655408859252930000e+000) (1, -1.02014236450195310000e+001) (117, 5.68558168411254880000e+000) (110, 1.26723182201385500000e+000) (2, -5.75999689102172850000e+000) (25, 8.37134301662445070000e-001) (23, -1.26836748123168950000e+001) (28, -4.06277084350585940000e+000) (109, -3.95883941650390620000e+000) (11, -9.05371379852294920000e+000) (65, -4.23179149627685550000e+000) (82, 1.66404628753662110000e+000) (78, 2.00047039985656740000e+000) (91, -1.58098864555358890000e+000) (18, -7.26931929588317870000e-001) (77, -5.92528045177459720000e-001) (6, -1.82107150554656980000e-001) (120, 1.31286561489105220000e-001) (37, -1.13763391971588130000e+000) (109, 2.63672924041748050000e+000) (2, 1.53218373656272890000e-001) (21, -3.21144390106201170000e+000) (66, 3.79202055931091310000e+000) (93, 1.80543637275695800000e+000) (28, -4.39323037862777710000e-001) (58, -2.46936988830566410000e+000) (54, 7.99087238311767580000e+000) (106, 2.30238765478134160000e-001) (103, 3.12593460083007810000e-001) (57, -5.85937380790710450000e-001) (69, -4.54526901245117190000e+000) (43, -2.90049624443054200000e+000) (59, 9.22962379455566410000e+000) (94, -6.26026391983032230000e-002) (32, 3.11402297019958500000e+000) (18, -6.64991080760955810000e-001) (102, -1.56847879290580750000e-001) (85, -2.42469835281372070000e+000) (70, -1.35237383842468260000e+000) (14, 1.35684275627136230000e+000) (64, 2.63228327035903930000e-001) (27, 7.36547887325286870000e-001) (116, 8.38607430458068850000e-001) (11, 2.16516256332397460000e+000) (55, 1.11296808719635010000e+000) (51, -1.14214158058166500000e+000) (97, 9.14367616176605220000e-001) (7, 1.90841466188430790000e-001) (99, 3.59484672546386720000e+000) (65, 1.78354072570800780000e+000) (87, 2.30341839790344240000e+000) (81, 1.64689505100250240000e+000) (33, 1.77700424194335940000e+000) (56, 9.27893829345703120000e+000) (68, -3.61674118041992190000e+000) (118, 6.48189783096313480000e-001) (86, 2.59001278877258300000e+000) (117, -6.01038672029972080000e-002) (20, -9.21303808689117430000e-001) (19, -4.06991064548492430000e-001) (71, 2.19565302133560180000e-001) (82, -4.89078426361083980000e+000) (35, 1.27609193325042720000e+000) (83, -2.08699297904968260000e+000) (77, -2.76106977462768550000e+000) (41, 9.28957581520080570000e-001) (90, 1.46737468242645260000e+000) (67, -1.30053796768188480000e+001) (63, -1.43806438446044920000e+001) (113, -5.20668804645538330000e-001) (26, -5.26647046208381650000e-002) (23, 3.52588772773742680000e+000) (115, 7.36058592796325680000e-001) (112, 2.04246258735656740000e+000) (39, 2.60417580604553220000e+000) (30, 1.63708662986755370000e+000) (88, 1.50743854045867920000e+000) (53, -1.02112984657287600000e+000) (120, 1.39506414532661440000e-001) (59, 3.68201398849487300000e+000) (112, -4.64117467403411870000e-001) (35, 1.18546247482299800000e+000) (6, -7.55749940872192380000e-002) (83, -1.39113152027130130000e+000) (50, 3.53232860565185550000e-001) (53, -4.08302336931228640000e-001) (40, 4.00129944086074830000e-001) (86, 6.94311797618865970000e-001) (95, 9.44867432117462160000e-001) (20, 1.53796479105949400000e-001) (67, -3.09527087211608890000e+000) (57, -5.50651431083679200000e-001) (109, 1.46798744797706600000e-001) (110, 2.33718419075012210000e+000) (108, -5.68529546260833740000e-001) (104, 5.41136145591735840000e-001) (92, -3.28749686479568480000e-001) (74, 1.24511229991912840000e+000) (25, 5.51683664321899410000e-001) (85, -1.70390591025352480000e-001) (14, 2.58848667144775390000e-001) (1, 1.46793544292449950000e-001) (119, -1.11420236527919770000e-001) (94, -1.63508430123329160000e-001) (56, 1.49594819545745850000e+000) (42, 2.47072160243988040000e-001) (54, 1.20833921432495120000e+000) (5, 1.06618630886077880000e+000) (101, 1.93775013089179990000e-001) (117, -3.05835753679275510000e-001) (46, -4.12898242473602290000e-001) (44, 2.92912304401397710000e-001) (77, 1.70251655578613280000e+000) (52, 1.14142015576362610000e-001) (41, 8.67355704307556150000e-001) (62, -7.73514652252197270000e+000) (60, -4.83340072631835940000e+000) (78, -4.52261924743652340000e-001) (111, 1.06710359454154970000e-001) (65, -1.21063835918903350000e-001) (98, -3.57190728187561040000e-001) (97, -2.44615912437438960000e+000) (49, -9.09667074680328370000e-001) (15, -8.53624381124973300000e-003) (84, 2.13102146983146670000e-001) (2, 5.01430481672286990000e-002) (3, 1.45195269584655760000e+000) (12, 6.87030732631683350000e-001) (58, -4.35041844844818120000e-001) (61, 1.50000000000000000000e+003) (79, 1.16103959083557130000e+000) (96, -1.03226518630981450000e+000) (8, 3.36508452892303470000e-001) (28, 1.25784111022949220000e+000) (69, 6.16503000259399410000e+000) (76, -8.00289288163185120000e-002) (48, 2.30176639556884770000e+000) (24, 2.46200108528137210000e+000) (34, 9.24970284104347230000e-002) (120, 1.85152083635330200000e-001) (111, 4.07816976308822630000e-001) (14, -2.31510540470480920000e-003) (74, 6.72213792800903320000e+000) (65, 2.64781057834625240000e-001) (112, 1.86204349994659420000e+000) (34, 3.00469279289245610000e-001) (109, 5.46491956710815430000e+000) (64, 4.27244806289672850000e+000) (93, 5.39437890052795410000e-001) (89, 1.72028088569641110000e+000) (86, 1.55760955810546870000e+000) (25, 5.28680706024169920000e+000) (101, 6.31206989288330080000e+000) (71, -3.38336437940597530000e-001) (52, 5.23031115531921390000e-001) (78, -4.56386119127273560000e-001) (104, 3.65268230438232420000e+000) (69, 1.30693244934082030000e+001) (63, -2.40716838836669920000e+001) (76, -4.90770727396011350000e-001) (107, 6.42368495464324950000e-002) (40, -3.83809161186218260000e+000) (53, 3.60704958438873290000e-001) (102, 7.41180002689361570000e-001) (77, 2.50009107589721680000e+000) (80, 8.71678411960601810000e-001) (4, 4.99136114120483400000e+000) (60, -5.21766138076782230000e+000) (42, -2.21986308693885800000e-001) (21, 9.45013427734375000000e+000) (55, 3.99596500396728520000e+000) (27, 2.30411791801452640000e+000) (9, 3.19011926651000980000e+000) (58, -3.32589378356933590000e+001) (91, -1.65794059634208680000e-001) (10, 2.23330688476562500000e+000) (113, 6.91067695617675780000e-001) (24, 2.84195750951766970000e-001) (2, -1.45934283733367920000e-001) (103, 7.02393412590026860000e-001) (47, -3.22032356262207030000e+000) (5, 1.67180967330932620000e+000) (48, 1.31775200366973880000e+000) (7, 1.83595395088195800000e+000) (68, -3.61333489418029790000e+000) (6, 5.49652099609375000000e-001) (108, -5.22883296012878420000e-001) (45, 1.46715581417083740000e+000) (1, 1.57554402947425840000e-001) (32, 5.98673522472381590000e-001) (96, 7.79816091060638430000e-001) (23, 1.17006421089172360000e+000) (49, -2.24455761909484860000e+000) (115, 3.38348120450973510000e-001) (100, 1.93683218955993650000e+000) (84, 2.55657613277435300000e-001) (46, 5.40458774566650390000e+000) (30, 1.99912697076797490000e-001) (92, 2.15569543838500980000e+000) (70, -2.14338660240173340000e+000) (120, -1.21593490242958070000e-001) (53, -1.50240600109100340000e+000) (54, -5.13671970367431640000e+000) (114, 1.28022953867912290000e-001) (46, -9.52242612838745120000e-001) (73, 7.44579061865806580000e-002) (52, 1.52158752083778380000e-001) (105, -3.63861471414566040000e-001) (32, 1.85057461261749270000e-001) (28, 9.66287136077880860000e-001) (67, 1.47245132923126220000e+000) (56, -2.69981050491333010000e+000) (37, 6.37100338935852050000e-001) (109, -4.27670240402221680000e+000) (63, 5.59646558761596680000e+000) (107, -9.08224225044250490000e-001) (118, -8.24216842651367190000e-001) (116, -1.40484482049942020000e-001) (82, 2.81839966773986820000e-001) (19, -2.82675743103027340000e+000) (101, -1.01963892579078670000e-001) (111, -1.80750459432601930000e-001) (21, 1.79858833551406860000e-001) (20, 1.75819713622331620000e-002) (43, 3.01232963800430300000e-001) (74, 5.65907537937164310000e-001) (18, 5.47354459762573240000e-001) (59, 1.47702008485794070000e-001) (104, 1.62631690502166750000e+000) (49, 2.12019383907318120000e-001) (89, -1.59304487705230710000e+000) (50, -4.31547194719314580000e-001) (11, -9.28545021452009680000e-004) (25, 2.61746514588594440000e-002) (6, -4.82621751725673680000e-002) (15, 1.01677298545837400000e-001) (4, -2.14104413986206050000e+000) (99, -2.26988530158996580000e+000) (75, 3.42549495398998260000e-002) (112, 1.47641241550445560000e+000) (96, 7.03264713287353520000e-001) (35, -1.20565347373485570000e-001) (94, -2.20034074783325200000e+000) (117, 1.99127599596977230000e-001) (30, -1.87114134430885310000e-001) (60, 6.17533206939697270000e+000) (115, -3.12130475044250490000e+000) (88, -4.31986570358276370000e+000) (27, -1.67514467239379880000e+000) (91, -5.20097792148590090000e-001) (71, 2.67678380012512210000e-001) (68, 1.26045107841491700000e+000) (14, 6.63424909114837650000e-001) (83, 7.45332777500152590000e-001) (106, -7.78893008828163150000e-002) (2, 1.77851366996765140000e+000) (77, -1.48756694793701170000e+000) (62, 4.81779003143310550000e+000) (72, -1.77650034427642820000e-001) (48, -5.47503173351287840000e-001) (69, -1.57013690471649170000e+000) (120, -4.35059815645217900000e-001) (81, -6.62065148353576660000e-002) (4, -1.12493538856506350000e+000) (84, 1.09344506263732910000e+000) (100, 2.48139214515686040000e+000) (65, 2.68779110908508300000e+000) (17, -2.48922371864318850000e+000) (67, 3.44258475303649900000e+000) (101, -8.55535328388214110000e-001) (62, 8.82562923431396480000e+000) (86, 3.49312424659729000000e+000) (64, 1.27420103549957280000e+000) (66, -8.10922527313232420000e+000) (82, -7.01020050048828130000e+000) (73, -5.64986243844032290000e-002) (42, -2.55086421966552730000e-001) (112, 2.45676612854003910000e+000) (8, 2.06457448005676270000e+000) (59, -5.15402555465698240000e+000) (30, -9.88474190235137940000e-001) (87, -8.58807945251464840000e+000) (58, 2.18468204140663150000e-001) (69, -3.99829030036926270000e+000) (89, 1.24246156215667720000e+000) (50, -6.50706708431243900000e-001) (24, -2.22254800796508790000e+000) (2, 7.27983295917510990000e-001) (6, 2.01975846290588380000e+000) (1, -3.46435499191284180000e+000) (110, 1.37625366449356080000e-001) (13, 4.72399234771728520000e-001) (36, -4.06835377216339110000e-001) (54, -2.31014037132263180000e+000) (114, 5.78714036941528320000e+000) (28, 4.79346942901611330000e+000) (32, -1.31278967857360840000e+000) (118, -8.74139130115509030000e-001) (55, 7.72957181930541990000e+000) (7, -6.39229238033294680000e-001) (12, -1.22066962718963620000e+000) (78, 2.02415990829467770000e+000) (90, -6.35568082332611080000e-001) (98, 4.96469706296920780000e-001) (63, 1.94598269462585450000e+000) (92, 2.05906414985656740000e+000) (3, -4.47123384475708010000e+000) (61, -1.50000000000000000000e+003) (11, -9.56059753894805910000e-001) (115, -2.11298871040344240000e+000) (74, -7.43368744850158690000e-001) (44, -2.08569154143333440000e-001) (94, 1.30750429630279540000e+000) (76, -9.81353819370269780000e-001) (109, -1.45834362506866460000e+000) (96, 1.32238519191741940000e+000) (18, -1.09121966361999510000e+000) (105, -8.14897716045379640000e-001) (116, -5.81374311447143550000e+000) (52, 5.40314865112304690000e+000) (80, 3.81909370422363280000e-001) (29, 8.30837011337280270000e-001) (120, -3.30667316913604740000e-001) (31, 2.08284492492675780000e+001) (102, -1.30087013244628910000e+001) (117, 2.47406864166259770000e+000) (76, 3.91220003366470340000e-001) (81, 6.59835994243621830000e-001) (49, -1.71018034219741820000e-001) (11, -2.96032404899597170000e+000) (62, 3.27986568212509160000e-001) (82, -1.55055534839630130000e+000) (88, -4.96244335174560550000e+000) (89, -1.52831411361694340000e+000) (38, -4.12408113479614260000e+000) (58, -2.92315616607666020000e+001) (85, -3.35103034973144530000e+000) (39, -5.39046563208103180000e-002) (70, -2.87468641996383670000e-001) (75, 7.77619719505310060000e-001) (53, 1.48148059844970700000e+001) (23, -1.25123357772827150000e+000) (45, 1.83521652221679690000e+001) (52, 8.12087535858154300000e+000) (21, 3.33921909332275390000e+000) (90, 8.77844810485839840000e+000) (54, 7.20070171356201170000e+000) (100, 1.76553726196289060000e+000) (114, 1.05397424697875980000e+001) (51, -1.89228081703186040000e+000) (74, 5.53333997726440430000e+000) (47, 4.55596476793289180000e-001) (73, 2.25661158561706540000e+000) (44, 5.75828086584806440000e-003) (98, 9.65621852874755860000e+000) (112, 1.71779994964599610000e+001) (60, 3.93411850929260250000e+000) (2, -2.74081969261169430000e+000) (3, 4.97735309600830080000e+000) (65, 3.37628936767578120000e+000) (92, 5.61074972152709960000e-001) (104, 1.37058276367187500000e+003) (10, 3.09114605188369750000e-001) (8, 1.26701164245605470000e+001) (69, 3.70701560974121090000e+001) (26, 1.59589538574218750000e+001) (34, 3.01768612861633300000e+000) (97, -4.64254474639892580000e+000) (20, -9.75720977783203120000e+000) (87, -1.61381111145019530000e+001) (68, 4.36448383331298830000e+000) (19, -2.09479475021362300000e+000) (17, -1.98585662841796880000e+001) (67, 8.93347680568695070000e-001) (14, -1.27225053310394290000e+000) (15, 1.73940825462341310000e+000) (80, -1.89555361866950990000e-001) (40, 1.30535626411437990000e+000) (29, -1.23490130901336670000e+000) (94, -2.59328991174697880000e-001) (9, 7.59705209732055660000e+000) (25, 1.55691156387329100000e+001) (46, 1.44655397161841390000e-002) (120, 9.77244153618812560000e-002) (18, 1.38040161132812500000e+001) (15, 3.88290357589721680000e+000) (71, 1.83056335449218750000e+001) (93, -2.59842920303344730000e+000) (48, -2.20798626542091370000e-001) (87, -2.24187612533569340000e+000) (58, 2.70210170745849610000e+001) (107, -1.13871467113494870000e+000) (7, -6.63427591323852540000e+000) (31, -1.34997167587280270000e+001) (70, -5.94981312751770020000e-001) (8, 7.10484933853149410000e+000) (109, 2.61684250831604000000e+000) (96, 4.25941646099090580000e-001) (11, 1.04676799774169920000e+001) (80, 1.13041944503784180000e+001) (17, 7.55477786064147950000e-001) (35, 2.92075228691101070000e+000) (27, -3.87992262840271000000e+000) (4, -1.61691856384277340000e+001) (50, 3.87930095195770260000e-001) (90, 2.88393031805753710000e-002) (52, -3.28700876235961910000e+000) (26, -2.40002684295177460000e-002) (0, 1.47229137420654300000e+001) (57, 9.51193749904632570000e-001) (54, -2.78690567016601560000e+001) (84, -4.12785625457763670000e+000) (111, 8.72450709342956540000e-001) (37, -3.83353412151336670000e-001) (1, -1.91049404144287110000e+001) (3, -2.55494976043701170000e+001) (23, -9.05437588691711430000e-001) (110, 3.83244842290878300000e-001) (102, 4.90045309066772460000e+000) (77, 2.00786209106445310000e+000) (47, 9.33587360382080080000e+000) (65, 5.02440002441406250000e+002) (114, 2.84793615341186520000e+000) (29, -7.35364866256713870000e+000) (40, 4.39290189743041990000e+000) (99, 7.91865527629852290000e-001) (64, 1.44185419082641600000e+001) (105, -6.21408414840698240000e+000) (63, 1.55313098430633540000e+000) (22, -1.90099716186523440000e+001) (108, -1.08322544097900390000e+001) (89, -6.18389654159545900000e+000) (112, 3.78163146972656250000e+000) (73, -5.09987974166870120000e+000) (32, 8.41656565666198730000e-001) (59, -4.32987785339355470000e+001) (68, 2.15096846222877500000e-001) (95, -5.88458347320556640000e+000) (94, 9.20534324645996090000e+000) (62, 2.55317576229572300000e-002) (100, -3.58851146697998050000e+000) (72, -6.62990522384643550000e+000) (60, 3.13276290893554690000e+001) (106, -1.35198755264282230000e+001) (120, -1.98621129989624020000e+000) (74, 4.85709714889526370000e+000) (65, -2.15727806091308590000e+000) (81, 5.50473070144653320000e+000) (29, -2.25539135932922360000e+000) (73, -2.45753741264343260000e+000) (114, 4.57051862031221390000e-003) (109, -1.42930746078491210000e+000) (111, 4.16264504194259640000e-001) (50, 2.72477698326110840000e+000) (15, 2.04200601577758790000e+000) (57, -7.13569068908691410000e+000) (3, 1.19744949340820310000e+001) (83, 2.91382980346679690000e+000) (30, -4.21111059188842770000e+000) (94, -3.00468587875366210000e+000) (71, 1.27610979080200200000e+001) (103, 7.52948582172393800000e-001) (48, 1.73737859725952150000e+000) (14, 1.43649644851684570000e+001) (113, 2.09550213813781740000e+000) (115, -3.94034051895141600000e+000) (63, 1.11865699291229250000e+000) (40, -3.17929792404174800000e+000) (116, 3.37681436538696290000e+000) (44, -3.23230004310607910000e+000) (43, -1.31078701019287110000e+001) (12, -8.53360462188720700000e+000) (97, -8.18008613586425780000e+000) (35, 3.76080602407455440000e-001) (20, -4.83066767454147340000e-001) (22, 1.26748311519622800000e+000) (107, -7.63314008712768550000e-001) (118, -6.93486070632934570000e+000) (18, 1.33295857906341550000e+000) (60, -2.77437639236450200000e+000) (117, -4.59727287292480470000e+000) (49, -5.05539000034332280000e-001) (16, -9.92960262298583980000e+000) (36, -9.39687061309814450000e+000) (89, -6.48630523681640620000e+000) (25, -7.37899184226989750000e-001) (26, -3.98623728752136230000e+000) (119, 8.20223331451416020000e+000) (69, 4.57444839477539060000e+001) (67, 1.66137242317199710000e+000) (52, -1.45678550004959110000e-001) (11, -3.45549798011779790000e+000) (8, -5.52604627609252930000e+000) (51, 3.43461602926254270000e-001) (53, 5.49912834167480470000e+000) (28, -9.62609648704528810000e-001) (58, -1.31401805877685550000e+001) (68, 5.92816972732543950000e+000) (106, -2.92840385437011720000e+000) (4, -1.23918638229370120000e+001) (112, -6.01917934417724610000e+000) (84, -2.08048176765441890000e+000) (27, 2.94248402118682860000e-001) (78, -4.36592817306518550000e+000) (102, -8.45377624034881590000e-001) (120, 1.79345861077308650000e-001) (29, -5.83313226699829100000e+000) (95, 3.21780729293823240000e+000) (93, 2.09970211982727050000e+000) (62, 1.79882216453552250000e+000) (21, -1.06627273559570310000e+000) (105, 1.32417380809783940000e+000) (31, -6.17295145988464360000e-001) (100, 3.82176589965820310000e+000) (86, -1.11735558509826660000e+000) (33, -7.56911134719848630000e+000) (7, -7.33060693740844730000e+000) (40, -1.38425922393798830000e+000) (5, -1.09736597537994380000e+000) (71, 7.09506630897521970000e-001) (92, 1.77008306980133060000e+000) (37, 2.74668502807617190000e+000) (96, -2.26970791816711430000e+000) (13, -1.15633137524127960000e-001) (104, 5.42035818099975590000e+000) (34, -2.85321736335754390000e+000) (83, -7.15880036354064940000e-001) (20, -2.08569073677062990000e+000) (67, -3.76228475570678710000e+000) (72, 5.44524371623992920000e-001) (1, 1.41120684146881100000e+000) (12, 9.88545894622802730000e-001) (88, -8.70101675391197200000e-002) (84, 3.49841737747192380000e+000) (80, 1.48495244979858400000e+000) (75, -6.91618728637695310000e+000) (110, -3.55801391601562500000e+000) (63, 8.02678489685058590000e+000) (112, 1.26695200800895690000e-001) (53, 1.11041698455810550000e+001) (111, 3.45400512218475340000e-001) (45, 6.26194238662719730000e+000) (42, -2.06602716445922850000e+000) (32, -9.03936004638671870000e+000) (118, 1.34335637092590330000e+000) (98, 5.72034168243408200000e+000) (68, 1.88925206661224370000e+000) (11, 1.49319425225257870000e-001) (49, 8.50250911712646480000e+000) (69, -2.31977367401123050000e+001) (2, 9.53431606292724610000e-001) (82, -3.17550748586654660000e-001) (108, 1.72568435668945310000e+001) (4, -4.44105768203735350000e+000) (48, -1.31762952804565430000e+001) (6, 2.38784670829772950000e-001) (79, -1.66073207855224610000e+001) (3, -7.07261840820312500000e+002) (56, 1.50000000000000000000e+003) (41, -4.47684347629547120000e-001) (26, -3.38481640815734860000e+000) (10, -3.94436925649642940000e-001) (51, -1.47455227375030520000e+000) (38, -1.14473319053649900000e+000) (18, 1.00754439830780030000e+000) (64, -1.53115177154541020000e+000) (120, -1.55876308679580690000e-001) (16, 3.02012324333190920000e-001) (21, 3.34255456924438480000e+000) (113, 2.06364035606384280000e+000) (100, -1.20564949512481690000e+000) (70, -5.23001241683959960000e+000) (18, -3.03637814521789550000e+000) (77, -4.11499261856079100000e+000) (66, -1.91458969116210940000e+001) (37, -6.83231413364410400000e-001) (40, -5.91568803787231450000e+000) (45, 9.34844791889190670000e-001) (29, 2.40221834182739260000e+000) (111, -5.77040910720825200000e+000) (107, -1.16458594799041750000e+000) (17, 1.76629483699798580000e+000) (25, -4.67946469783782960000e-001) (86, -6.32062733173370360000e-001) (92, -2.25320243835449220000e+000) (8, 5.02816438674926760000e-001) (28, 1.13966884613037110000e+001) (83, 8.27181911468505860000e+000) (60, -5.32849454879760740000e+000) (30, 2.56234407424926760000e+000) (65, 3.17196607589721680000e-001) (72, 2.89364290237426760000e+000) (49, 5.07013499736785890000e-001) (106, 3.88373494148254390000e+000) (14, 6.54525101184844970000e-001) (34, -1.14767782390117650000e-001) (51, 2.84742355346679690000e+000) (102, 3.64868015050888060000e-001) (82, -1.06446886062622070000e+000) (112, -3.85860061645507810000e+000) (74, 1.96427726745605470000e+000) (76, -1.67088401317596440000e+000) (115, -1.07435679435729980000e+000) (6, 8.50443840026855470000e-001) (96, -1.33694148063659670000e+000) (80, 4.22317552566528320000e+000) (116, -1.50758934020996090000e+000) (41, 4.99086952209472660000e+000) (101, 7.03526639938354490000e+000) (73, 5.10777378082275390000e+000) (4, 3.02050411701202390000e-001) (98, 1.70433700084686280000e-001) (85, 4.17310297489166260000e-001) (99, -1.51137363910675050000e+000) (58, 3.71776390075683590000e+000) (114, 1.35026663541793820000e-001) (64, -1.61555600166320800000e+000) (46, 4.57071399688720700000e+000) (87, -6.27608489990234370000e+000) (35, 4.32044267654418950000e-002) (108, 7.99964427947998050000e+000) (23, -7.28113353252410890000e-002) (48, 5.86553812026977540000e-001) (27, -3.49371242523193360000e+000) (7, 3.37666690349578860000e-001) (75, 6.74046850204467770000e+000) (56, -8.20347442626953130000e+001) (120, 1.08509004116058350000e-001) (1, -9.68596935272216800000e+000) (41, -2.27115225791931150000e+000) (66, -1.41555932617187500000e+003) (111, -2.30338716506958010000e+000) (90, -5.02081108093261720000e+000) (106, -4.49616098403930660000e+000) (70, 3.28594708442687990000e+000) (104, 1.85954463481903080000e+000) (72, 4.47797238826751710000e-001) (43, -3.65143346786499020000e+000) (100, 2.29074525833129880000e+000) (42, -5.59434318542480470000e+000) (24, -1.34359788894653320000e+000) (84, -5.12420463562011720000e+000) (15, -1.27536904811859130000e+000) (29, -4.84699964523315430000e+000) (58, 1.39770257472991940000e+000) (26, -2.26640868186950680000e+000) (30, -6.74985468387603760000e-001) (118, -4.74318790435791020000e+000) (83, 2.26675182580947880000e-001) (82, 3.96212458610534670000e-001) (109, 2.64676570892333980000e+000) (113, -1.83812832832336430000e+000) (71, 6.99461746215820310000e+000) (8, 4.10807525634765620000e+002) (25, -3.27680158615112300000e+000) (48, -3.78167241811752320000e-001) (114, 1.42727375030517580000e-001) (75, -2.24620413780212400000e+000) (92, 1.93693220615386960000e+000) (55, 1.14978446960449220000e+001) (34, 1.59408748149871830000e-001) (17, -1.13139352798461910000e+001) (19, 9.55270290374755860000e-001) (107, 1.92804765701293950000e+000) (91, 5.42519092559814450000e-001) (36, -6.02534627914428710000e+000) (53, -4.39902037382125850000e-001) (10, -1.37396454811096190000e+000) (7, -7.82771444320678710000e+000) (103, -6.73067903518676760000e+000) (45, 4.33808851242065430000e+000) (37, 5.91905176639556880000e-001) (85, -5.29164552688598630000e+000) (117, -2.27725958824157710000e+000) (87, -1.80462107062339780000e-001) (108, -1.40383243560791020000e-001) (81, -1.35370337963104250000e+000) (38, 5.82473933696746830000e-001) (3, 4.23717856407165530000e-001) (79, 5.55757856369018550000e+000) (68, 1.09982204437255860000e+001) (98, 6.76811027526855470000e+000) (62, 1.61815338134765630000e+001) (31, 1.32992815971374510000e+000) (21, 2.18133240938186650000e-001) (64, -3.31768035888671870000e+000) (74, 1.92484095692634580000e-001) (50, 4.57485151290893550000e+000) (120, 4.96081262826919560000e-001) (11, -4.77064275741577150000e+000) (45, 9.05437231063842770000e-001) (12, 2.66654062271118160000e+000) (41, 2.37383246421813960000e+000) (93, 2.44715958833694460000e-001) (115, -8.09772729873657230000e-001) (35, 6.65844023227691650000e-001) (86, -1.74343180656433110000e+000) (28, 5.84374785423278810000e-001) (84, 1.45358115434646610000e-001) (87, 4.80804157257080080000e+000) (103, 3.48814558982849120000e+000) (7, 1.00685715675354000000e+000) (79, 9.94425773620605470000e-001) (52, 5.00293493270874020000e-001) (105, 7.99635887145996090000e-001) (61, 1.48873291015625000000e+003) (6, 2.16127127408981320000e-001) (110, -1.25296938419342040000e+000) (55, 2.81032413244247440000e-001) (64, 2.48842430114746090000e+000) (29, -2.36723288893699650000e-001) (108, 3.13350141048431400000e-001) (9, 4.11670893430709840000e-001) (114, 4.88477349281311040000e-001) (89, 2.32466793060302730000e+000) (116, 4.56158429384231570000e-001) (109, -6.43228227272629740000e-003) (99, 2.37244423478841780000e-002) (95, -3.40520918369293210000e-001) (8, -4.61946576833724980000e-001) (57, -2.77484869956970210000e+000) (63, -3.07595133781433110000e+000) (17, 2.86360144615173340000e+000) (24, 2.75631093978881840000e+000) (71, -1.09746289253234860000e+000) (65, 1.42477560043334960000e+000) (75, 2.87907576560974120000e+000) (47, 1.42295932769775390000e+000) (69, 5.06137180328369140000e+000) (31, 5.10241568088531490000e-001) (106, -4.86088991165161130000e-001) (5, 1.28606975078582760000e+000) (62, -1.01228828430175780000e+001) (67, -3.09376072883605960000e+000) (92, -1.12588310241699220000e+000) (102, -1.43368601799011230000e+000) (46, -2.23109722137451170000e-001) (50, 6.50486111640930180000e-001) (80, -4.11318391561508180000e-001) (36, 4.89087820053100590000e-001) (60, -8.39060020446777340000e+000) (30, 1.87257714569568630000e-002) (96, 2.22212314605712890000e+000) (39, 1.12389409542083740000e+000) (88, -1.07184100151062010000e+000) (97, 8.83528172969818120000e-001) (111, 4.87729817628860470000e-001) (27, -3.15518110990524290000e-001) (66, 3.50798273086547850000e+000) (120, 1.57542720437049870000e-001) (14, -1.58061707019805910000e+000) (26, -1.34080505371093750000e+000) (119, 2.51665890216827390000e-001) (69, 7.99273586273193360000e+000) (101, 1.09496462345123290000e+000) (83, 1.62190392613410950000e-001) (38, 9.02056023478508000000e-002) (4, 1.03875458240509030000e+000) (8, -1.56263932585716250000e-001) (85, 8.96119117736816410000e-001) (99, -1.36860534548759460000e-001) (79, -6.49854302406311040000e-001) (94, -2.15355610847473140000e+000) (56, 5.37718629837036130000e+000) (106, -9.57708716392517090000e-001) (72, 1.37739077210426330000e-001) (107, -1.36618697643280030000e+000) (87, 1.00213456153869630000e+000) (78, 9.38393354415893550000e-001) (21, 4.55713480710983280000e-001) (53, 2.65895634889602660000e-001) (20, -1.45056936889886860000e-002) (49, -6.23092710971832280000e-001) (73, 1.44027745723724370000e+000) (66, 8.50544071197509770000e+000) (104, 3.74944269657135010000e-001) (90, -2.09614825248718260000e+000) (88, -4.03603792190551760000e+000) (15, 1.06076985597610470000e-001) (24, 3.73597860336303710000e-001) (46, -7.55438864231109620000e-001) (62, -3.75358939170837400000e+000) (86, -4.17321830987930300000e-001) (23, 3.93482971191406250000e+000) (12, 7.07858502864837650000e-002) (5, 3.26423317193984990000e-001) (59, 5.89948987960815430000e+000) (89, 3.40685725212097170000e+000) (105, -1.10650312900543210000e+000) (37, -4.62521642446517940000e-001) (109, -1.19102403521537780000e-001) (13, 6.50261104106903080000e-001) (35, 2.48425990343093870000e-001) (67, -9.39472734928131100000e-001) (82, 2.27230593562126160000e-001) (115, -2.66875386238098140000e+000) (1, 9.05253589153289790000e-001) (102, -3.07625174522399900000e-001) (118, -3.65762919187545780000e-001) (9, 1.66046231985092160000e-001) (84, -5.11616647243499760000e-001) (52, 1.00179076194763180000e+000) (63, -3.11167693138122560000e+000) (103, 2.25734806060791020000e+000) (11, 1.10049694776535030000e-001) (25, 2.87220835685729980000e+000) (76, -2.92161017656326290000e-001) (71, -4.11128234863281250000e+000) (95, 4.07912492752075200000e-001) (19, -4.82751798629760740000e+000) (120, 4.13071271032094960000e-003) (60, 8.12804579734802250000e-001) (61, 3.14849609375000000000e+002) (63, -2.17796301841735840000e+000) (90, -9.28100526332855220000e-001) (3, -1.69231867790222170000e+000) (34, -6.08837492763996120000e-002) (44, 8.61884132027626040000e-002) (115, -1.24022670090198520000e-001) (87, -2.35427051782608030000e-001) (12, -1.59295380115509030000e-001) (4, -2.64876317977905270000e+000) (28, -2.47122240066528320000e+000) (118, 2.20700860023498540000e-001) (37, 4.92372560501098630000e+000) (74, -1.51684248447418210000e+000) (52, -5.79686832427978520000e+000) (21, -1.35980939865112300000e+000) (62, -1.49994707107543950000e+000) (66, 6.67003691196441650000e-001) (106, 2.14269351959228520000e+000) (67, -9.70721840858459470000e-001) (13, 1.55963134765625000000e+000) (77, -2.35468959808349610000e+000) (73, -2.11349558830261230000e+000) (49, 5.41710853576660160000e-001) (47, -1.55607974529266360000e+000) (42, -1.23233747482299800000e+000) (69, 3.69888186454772950000e+000) (54, -7.77403991699218750000e+002) (53, -3.35159206390380860000e+000) (36, -3.59392285346984860000e+000) (56, -3.20297821044921880000e+002) (58, 1.26152763366699220000e+001) (5, 1.39414680004119870000e+000) (55, -6.71427795410156250000e+002) (70, 5.02623736858367920000e-001) (98, 5.69399833679199220000e+000) (26, 9.11601960659027100000e-001) (45, -7.37500935792922970000e-002) (104, 2.73310184478759770000e+000) (110, -1.44916832447052000000e-001) (112, -1.57366946339607240000e-001) (116, -3.23746591806411740000e-001) (51, 1.76177227497100830000e+000) (117, 3.17588075995445250000e-002) (103, 6.12871646881103520000e-001) (84, -3.42306542396545410000e+000) (20, -2.50830322504043580000e-001) (80, -4.28381143137812610000e-003) (75, 1.07234823703765870000e+000) (17, 1.00833578109741210000e+001) (89, -1.68643757700920100000e-001) (85, 5.79601287841796880000e-001) (40, 5.03570139408111570000e-001) (101, 1.92816972732543950000e+000) (95, 1.54373168945312500000e-001) (6, 5.78506588935852050000e-001) (59, -1.50000000000000000000e+003) (43, 2.27391695976257320000e+000) (113, 9.34585630893707280000e-002) (120, 1.31896471977233890000e+000) (105, 6.62363290786743160000e+000) (18, 1.63229119777679440000e+000) (27, 6.00281119346618650000e-001) (55, -5.55460643768310550000e+000) (58, -5.46311664581298830000e+000) (76, 1.03388929367065430000e+000) (15, -2.57047009468078610000e+000) (100, 2.25067687034606930000e+000) (31, 2.26318573951721190000e+000) (115, -1.18511700630187990000e+000) (25, 8.56748962402343750000e+000) (111, 1.87130510807037350000e+000) (74, 1.76582884788513180000e+000) (71, -1.02709722518920900000e+000) (97, -6.02171540260314940000e-001) (32, -1.80190217494964600000e+000) (84, 2.78200984001159670000e-001) (47, 7.31239140033721920000e-001) (16, 1.04784417152404790000e+000) (46, 2.94978046417236330000e+000) (88, -1.30146050453186040000e+000) (24, 8.24733018875122070000e-001) (40, -3.14644503593444820000e+000) (77, 5.16233301162719730000e+000) (94, 2.09443783760070800000e+000) (53, 1.78060472011566160000e+000) (89, -1.51974529027938840000e-001) (2, 2.44610404968261720000e+000) (54, -3.61197614669799800000e+000) (63, -7.58269834518432620000e+000) (48, 4.44153159856796260000e-001) (101, 5.38021755218505860000e+000) (80, -8.87746751308441160000e-001) (0, 1.60326510667800900000e-001) (79, -5.63472747802734380000e-001) (78, -2.91192030906677250000e+000) (68, -2.28640389442443850000e+000) (75, 4.55646127462387080000e-001) (95, 1.27087652683258060000e+000) (5, 5.47497034072875980000e-001) (73, 1.36583340167999270000e+000) (38, -1.33024072647094730000e+000) (113, 7.60491669178009030000e-001) (112, 2.35971164703369140000e+000) (36, 6.31120681762695310000e+000) (44, -1.56598135828971860000e-001) (91, -4.95003890991210940000e+000) (22, 1.35524117946624760000e+000) (109, 7.58523494005203250000e-002) (86, -1.08008116483688350000e-001) (96, 5.93842649459838870000e+000) (39, -2.38750553131103520000e+000) (66, 6.27042293548583980000e+000) (43, -1.18037056922912600000e+000) (93, 1.20212388038635250000e+000) (61, 1.68823471069335940000e+001) (62, -1.17327413558959960000e+001) (29, -2.80158305168151860000e+000) (49, -6.76021873950958250000e-001) (21, 7.21907794475555420000e-001) (120, -3.18854898214340210000e-002) (3, -1.10900058746337890000e+001) (104, 1.59107685089111330000e-001) (49, -3.24627518653869630000e-001) (13, -3.07508021593093870000e-001) (111, 4.65530061721801760000e+000) (23, -4.92974662780761720000e+000) (112, -2.18658477067947390000e-001) (79, -1.39351427555084230000e-001) (99, -1.35810446739196780000e+000) (73, -1.24723434448242190000e-001) (93, 2.91834187507629390000e+000) (32, 9.94869470596313480000e-001) (4, 5.76387107372283940000e-001) (90, -9.22247171401977540000e-001) (62, 1.88058776855468750000e+001) (45, 3.01649498939514160000e+000) (41, -6.96718245744705200000e-002) (56, -9.68633651733398440000e+000) (1, 2.85160207748413090000e+000) (91, 1.24629461765289310000e+000) (88, 1.75336718559265140000e-001) (7, -1.37052655220031740000e+000) (22, -3.34794223308563230000e-001) (114, 2.87596893310546870000e+000) (34, -4.81833124160766600000e+000) (44, -1.44796907901763920000e+000) (115, -1.92485475540161130000e+000) (116, -3.82790470123291020000e+000) (8, -1.44213037490844730000e+001) (69, -1.94098567962646480000e+001) (36, -2.49483776092529300000e+000) (40, 4.18889856338500980000e+000) (98, 1.31056690216064450000e+000) (95, -1.10628995895385740000e+001) (53, 9.23793220520019530000e+000) (38, -9.25170257687568660000e-002) (102, 2.21299126744270320000e-001) (18, 5.29059767723083500000e-001) (65, 3.92197012901306150000e+000) (86, 2.57911491394042970000e+000) (6, -7.81035795807838440000e-002) (71, -2.15405553579330440000e-001) (72, 6.66498541831970210000e-002) (21, 4.54078942537307740000e-001) (64, 1.29538631439208980000e+000) (84, -8.02109539508819580000e-002) (82, -6.31924569606781010000e-001) (17, 1.96285359561443330000e-002) (87, 1.79595738649368290000e-001) (19, -4.42051649093627930000e+000) (5, 1.17439353466033940000e+000) (81, -4.46165609359741210000e+000) (28, 1.29078614711761470000e+000) (109, 8.79030942916870120000e-001) (92, 5.61945772171020510000e+000) (55, -6.41803407669067380000e+000) (24, -6.14272832870483400000e-001) (16, -1.20112311840057370000e+000) (74, 6.82573127746582030000e+000) (94, -7.80631601810455320000e-002) (120, 5.17064034938812260000e-001) (2, 6.71603560447692870000e-001) (115, 4.06762599945068360000e+000) (31, 1.11220157146453860000e+000) (67, -2.75193142890930180000e+000) (19, 1.55489277839660640000e+000) (76, 7.23534882068634030000e-001) (78, 6.68024957180023190000e-001) (60, -7.93911743164062500000e+000) (15, 1.40665268898010250000e+000) (12, -1.35986715555191040000e-001) (83, 2.63603091239929200000e+000) (47, -2.64573264122009280000e+000) (79, 5.37345707416534420000e-002) (53, -3.30138278007507320000e+000) (34, -4.65321332216262820000e-001) (98, -3.13717389106750490000e+000) (51, -1.46418666839599610000e+000) (117, 2.86147522926330570000e+000) (107, -5.01280426979064940000e-001) (113, -5.80178558826446530000e-001) (27, 1.43019586801528930000e-001) (46, 1.46805620193481450000e+000) (65, -7.74511432647705080000e+000) (5, -1.69997358322143550000e+000) (25, 4.42759227752685550000e+000) (6, 2.93918967247009280000e-001) (37, -2.06927514076232910000e+000) (23, 1.27736106514930730000e-001) (108, 2.06757593154907230000e+000) (112, 3.95833945274353030000e+000) (62, -4.45245122909545900000e+000) (101, 1.28069257736206050000e+000) (70, -1.51140224933624270000e+000) (64, 3.72585749626159670000e+000) (36, 1.25081360340118410000e+000) (8, 1.14400184154510500000e+000) (26, 1.07085607945919040000e-001) (68, -1.63447380065917970000e+001) (9, -1.06632983684539790000e+000) (99, 1.78996467590332030000e+000) (90, 3.72157192230224610000e+000) (13, -2.30573654174804690000e+000) (84, -3.79530143737792970000e+000) (69, 1.90136528015136720000e+001) (82, 2.37113580107688900000e-001) (63, -1.15185384750366210000e+001) (11, 4.43923282623291020000e+000) (42, 2.63841032981872560000e+000) (77, 2.30543658137321470000e-001) (110, -2.00117087364196780000e+000) (114, -5.17530798912048340000e-001) (66, 2.10688095092773440000e+001) (81, 9.03546905517578120000e+000) (95, 8.90170764923095700000e+000) (30, 2.02385115623474120000e+000) (104, 4.05433797836303710000e+000) (87, 1.95270431041717530000e+000) (92, -2.19804549217224120000e+000) (7, 9.71720981597900390000e+000) (96, 2.56714344024658200000e-001) (120, 2.00380682945251460000e-001) (6, -8.67078267037868500000e-003) (39, -4.02727746963500980000e+000) (22, -1.75812900066375730000e+000) (79, 3.70648837089538570000e+000) (114, 4.87614593505859380000e+001) (116, -3.88091325759887700000e+000) (28, -1.91663122177124020000e+000) (1, 2.32894468307495120000e+000) (32, 1.72508287429809570000e+000) (52, 7.85972023010253910000e+000) (59, -2.92743682861328130000e+001) (55, -3.57517814636230470000e+000) (17, -1.69100761413574220000e+001) (26, -5.75897932052612300000e-001) (73, -1.11035406589508060000e+000) (18, 6.22666025161743160000e+000) (96, -2.27827167510986330000e+000) (19, 1.08486413955688480000e+000) (51, 1.17331042885780330000e-001) (23, -3.39133477210998540000e+000) (4, 6.82726001739501950000e+000) (68, 1.40609350204467770000e+001) (92, -2.39607024192810060000e+000) (33, 7.37576293945312500000e+000) (82, 8.63158479332923890000e-002) (9, 1.23138940334320070000e+000) (84, 4.13654947280883790000e+000) (69, -1.82720508575439450000e+001) (106, -6.85542058944702150000e+000) (64, 3.48687624931335450000e+000) (5, 2.94235873222351070000e+000) (113, 5.26515960693359380000e+000) (117, -2.92228907346725460000e-001) (60, 7.67589998245239260000e+000) (3, -2.33569908142089840000e+000) (105, -3.52815413475036620000e+000) (91, -3.30479359626770020000e+000) (54, -1.45739259719848630000e+001) (61, -3.14158840179443360000e+001) (13, 5.42366981506347660000e+000) (21, -6.75729632377624510000e-001) (20, 1.87818348407745360000e+000) (46, -1.01544666290283200000e+001) (31, 6.55468940734863280000e+000) (108, -1.33678560256958010000e+001) (110, 1.30787086486816410000e+000) (85, -8.33266615867614750000e-001) (80, 1.11244656145572660000e-002) (50, 1.73271501064300540000e+000) (88, -8.42880344390869140000e+000) (104, -5.86070966720581050000e+000) (57, 6.15577812194824220000e+001) (77, -1.20844736099243160000e+001) (94, 1.13015107810497280000e-001) (95, 6.59556627273559570000e+000) (30, -1.99688923358917240000e+000) (76, 2.94975447654724120000e+000) (16, 1.87809526920318600000e+000) (27, -1.09987440109252930000e+001) (111, 1.02354583740234370000e+001) (120, -1.10973164439201350000e-001) (106, 2.79494136571884160000e-001) (14, 7.17872436523437500000e+002) (3, 1.50961093902587890000e+001) (35, -5.24087524414062500000e+001) (29, -1.43047380447387700000e+001) (33, -1.37116801738739010000e+000) (110, 4.05829000473022460000e+000) (84, -2.27488565444946290000e+000) (96, 6.93077087402343750000e+001) (23, -6.74491786956787110000e+000) (15, 5.87112855911254880000e+000) (4, -1.18731985092163090000e+001) (70, -4.82419052124023440000e+001) (10, 1.96594715118408200000e+000) (38, 8.61755609512329100000e-001) (64, -3.47579494118690490000e-002) (52, -2.83995800018310550000e+001) (28, 1.13386363983154300000e+001) (43, -8.64395427703857420000e+000) (8, 7.30075120925903320000e-001) (78, -8.27143669128417970000e-001) (36, -5.63713550567626950000e+000) (46, 1.49469840526580810000e+000) (39, -3.78611640930175780000e+001) (88, 2.57307052612304690000e+001) (73, -2.87614765167236330000e+001) (12, -1.69655656814575200000e+000) (42, 8.05180740356445310000e+001) (17, -1.92089195251464840000e+001) (83, 1.36040697097778320000e+001) (111, 1.00910787582397460000e+001) (67, -8.08755588531494140000e+000) (24, 1.44228668212890630000e+001) (94, -3.20570850372314450000e+000) (6, 1.68853569030761720000e+000) (75, -1.87474689483642580000e+001) (55, -1.40455676269531250000e+003) (13, -5.25639457702636720000e+001) (40, 9.07754039764404300000e+000) (69, -3.46880683898925780000e+001) (93, 6.99064397811889650000e+000) (87, -3.33960723876953120000e+000) (25, -3.12865138053894040000e+000) (98, 4.06076087951660160000e+001) (19, 7.49975708007812500000e+002) (108, 1.48419876098632810000e+001) (1, -1.50388040542602540000e+001) (113, 2.66021442413330080000e+001) (112, 4.97698783874511720000e+001) (81, -1.08479232788085940000e+001) (2, -9.90076243877410890000e-001) (53, -1.51259589195251460000e+000) (114, 3.35111045837402340000e+001) (97, 1.80933036804199220000e+001) (76, 3.71314735412597660000e+001) (41, -2.74183616638183590000e+001) (21, -2.59987659454345700000e+001) (102, 1.37463960647583010000e+001) (47, 1.05490913391113280000e+001) (95, 3.17353019714355470000e+001) (120, 2.09209516644477840000e-001) (9, 2.83655881881713870000e+000) (70, 3.29464149475097660000e+000) (79, -3.01252563476562500000e+002) (55, 7.12110351562500000000e+002) (52, 4.52819061279296870000e+000) (113, -1.76980853080749510000e-001) (21, 5.12003231048583980000e+000) (17, -2.50663447380065920000e+000) (71, 8.79713475704193120000e-001) (0, 2.03637194633483890000e+000) (43, 1.96174010634422300000e-001) (29, 7.89646208286285400000e-001) (77, -1.03833780288696290000e+001) (42, -4.80849146842956540000e-002) (74, -1.77873170375823970000e+000) (45, 1.79824388027191160000e+000) (68, 1.52665748596191410000e+001) (36, -1.05045974254608150000e+000) (98, 3.22024202346801760000e+000) (64, 4.63973730802536010000e-001) (11, -1.63328146934509280000e+000) (35, 7.82667398452758790000e+000) (95, -3.38974285125732420000e+000) (67, 4.03796052932739260000e+000) (39, -4.45071411132812500000e+000) (41, 7.36636209487915040000e+000) (84, -8.30698609352111820000e-001) (19, 1.67548990249633790000e+000) (117, -5.45475959777832030000e+000) (61, -5.75819253921508790000e+000) (13, -3.21752691268920900000e+000) (110, -8.06003034114837650000e-001) (48, -4.73897504806518550000e+000) (92, -2.49481856822967530000e-001) (3, 6.70054578781127930000e+000) (28, -1.14337766170501710000e+000) (53, 4.74494075775146480000e+000) (102, -9.73125874996185300000e-001) (4, -1.98356819152832030000e+000) (31, 2.23949551582336430000e+000) (32, 5.94637989997863770000e-001) (73, -5.92184257507324220000e+000) (58, -1.40949258804321290000e+001) (16, -5.21042156219482420000e+000) (115, 4.88152885437011720000e+000) (27, 7.53040969371795650000e-001) (30, -9.11282539367675780000e+000) (62, 1.04300236701965330000e+000) (57, -3.31694459915161130000e+000) (66, 6.43349349498748780000e-001) (22, -2.43437811732292180000e-001) (99, -1.59337246417999270000e+000) (96, 1.17249708175659180000e+001) (54, 1.49942895507812500000e+003) (103, -3.26970982551574710000e+000) (80, 6.85465860366821290000e+000) (18, 1.97565901279449460000e+000) (6, -2.13890060782432560000e-001) (8, 3.55222916603088380000e+000) (97, -3.08184790611267090000e+000) (120, 8.11283141374588010000e-002) (28, 2.25929141044616700000e+000) (4, -1.91555929183959960000e+000) (54, 4.24086761474609370000e+000) (72, 4.73427683115005490000e-001) (112, -4.74611967802047730000e-001) (85, -1.03688669204711910000e+000) (3, 3.95061135292053220000e-001) (13, 1.25633344054222110000e-001) (75, 1.07715225219726560000e+000) (9, 1.00990861654281620000e-001) (106, -8.71410906314849850000e-001) (21, -3.37833225727081300000e-001) (44, 5.52404820919036870000e-001) (97, 2.63521403074264530000e-001) (114, -6.86439514160156250000e-001) (61, 1.50000000000000000000e+003) (26, 2.56439000368118290000e-001) (117, 1.70462512969970700000e+000) (91, -5.96571743488311770000e-001) (84, -3.44083189964294430000e-001) (105, -1.88648068904876710000e+000) (66, 9.75772857666015620000e+000) (14, -2.65891623497009280000e+000) (102, -3.32445167005062100000e-002) (12, -2.85618519783020020000e+000) (76, -4.40686047077178960000e-002) (36, -4.85784739255905150000e-001) (111, -1.22053039073944090000e+000) (87, -1.61985188722610470000e-001) (31, -4.24480170011520390000e-001) (55, -1.19045495986938480000e+000) (45, 8.03593844175338750000e-002) (49, -5.13868518173694610000e-002) (46, -3.50955295562744140000e+000) (47, -1.02330005168914790000e+000) (80, -4.49224501848220830000e-001) (99, 1.96460023522377010000e-001) (57, -4.18830096721649170000e-001) (33, 1.81854975223541260000e+000) (110, -3.26007425785064700000e-001) (1, 4.71006721258163450000e-001) (96, -3.28838974237442020000e-001) (22, 2.01941990852355960000e+000) (118, 2.50745683908462520000e-001) (39, 4.42112147808074950000e-001) (63, -2.96246814727783200000e+000) (89, 7.96979129314422610000e-001) (59, 5.03172826766967770000e+000) (88, 2.13913798332214360000e-001) (62, -3.77709627151489260000e+000) (94, -2.10322216153144840000e-001) (0, -2.41233825683593750000e-001) (8, 7.58839070796966550000e-001) (70, -2.06843686103820800000e+000) (103, 1.41725516319274900000e+000) (51, -4.36053089797496800000e-002) (18, -1.56861856579780580000e-001) (65, -4.88129854202270510000e-001) (2, -1.70856893062591550000e-001) (37, 6.94105923175811770000e-001) (120, 2.23550602793693540000e-001) (46, -3.21775269508361820000e+000) (49, 4.13287734985351560000e+000) (47, -6.08664894104003910000e+000) (97, 2.77588582038879390000e+000) (115, 3.73350143432617190000e+001) (50, -5.58704614639282230000e+000) (28, 2.53500699996948240000e+000) (30, -1.91812908649444580000e+000) (99, -1.00511560440063480000e+001) (100, -3.96522879600524900000e-001) (110, 6.04839944839477540000e+000) (21, -3.86758303642272950000e+000) (105, -8.40298175811767580000e-001) (54, -3.49022712707519530000e+001) (79, 1.22766697406768800000e+000) (13, 4.14249753952026370000e+000) (38, 8.71865749359130860000e+000) (27, -1.91977715492248540000e+000) (55, 3.99783477783203130000e+001) (15, 6.67581748962402340000e+000) (43, -4.77231979370117190000e-001) (6, -1.24380531311035160000e+001) (7, 5.52330684661865230000e+000) (36, 3.12290215492248540000e+000) (114, 6.00662660598754880000e+000) (2, -3.43210196495056150000e+000) (39, 4.33109551668167110000e-001) (59, -1.02417373657226560000e+002) (4, 5.69275081157684330000e-001) (103, -1.05081284046173100000e+000) (52, -8.85193347930908200000e-001) (72, 4.48681116104125980000e+000) (80, 3.77259230613708500000e+000) (34, -1.59395420551300050000e+000) (14, 2.94433975219726560000e+000) (81, -6.19649961590766910000e-002) (87, 3.91145318746566770000e-001) (42, -8.92265915870666500000e-001) (9, 1.04250116348266600000e+001) (10, 7.77845084667205810000e-001) (92, 4.57168292999267580000e+000) (17, -1.70913684368133540000e+000) (8, -1.50429797172546390000e+000) (88, 1.43554944992065430000e+001) (95, 5.50158119201660160000e+000) (31, 6.57137012481689450000e+000) (113, 2.78601020574569700000e-001) (40, -3.29991728067398070000e-001) (90, 1.52464294433593750000e+000) (12, 2.24189543724060060000e+000) (56, -1.05095703125000000000e+002) (102, 9.07119560241699220000e+000) (98, 7.85431241989135740000e+000) (109, 1.90273940563201900000e+000) (89, -3.05216388702392580000e+001) (106, -3.43302667140960690000e-001) (112, -1.65794265270233150000e+000) (18, 6.84679937362670900000e+000) (16, 3.27947759628295900000e+000) (5, -9.45195972919464110000e-001) (120, 2.15655848383903500000e-001) (3, 2.97004729509353640000e-001) (8, -1.66884803771972660000e+000) (1, 2.96925336122512820000e-001) (119, 1.62348008155822750000e+000) (13, 2.71845459938049320000e-001) (106, 2.74365574121475220000e-001) (77, 2.82478362321853640000e-001) (57, -7.69500017166137700000e+000) (39, 4.19349431991577150000e-001) (84, 2.50309675931930540000e-001) (114, 4.72000539302825930000e-001) (42, -4.22813892364501950000e-001) (48, 1.40260887145996090000e+000) (108, 4.26893472671508790000e-001) (95, 1.86621499061584470000e+000) (105, 5.56930482387542720000e-001) (53, 4.49032497406005860000e+000) (107, 1.39273941516876220000e-001) (10, 5.79708874225616460000e-001) (64, 9.70212593674659730000e-002) (30, -6.82031642645597460000e-003) (69, 1.06388819217681880000e+000) (58, -4.90299940109252930000e+000) (113, 1.66267380118370060000e-001) (7, 4.31279778480529790000e-001) (38, -7.55304038524627690000e-001) (46, 1.39685881137847900000e+000) (12, 1.02814346551895140000e-001) (89, 1.08398473262786870000e+000) (62, -3.99202466011047360000e-001) (19, 2.92212963104248050000e-001) (112, -1.64434779435396190000e-002) (52, 3.41705179214477540000e+000) (61, -1.93744197487831120000e-001) (26, 1.40884542465209960000e+000) (78, -7.78948128223419190000e-001) (103, 1.71228456497192380000e+000) (24, 3.47726047039031980000e-001) (23, -5.96685171127319340000e-001) (43, 2.09748566150665280000e-001) (81, 1.33136105537414550000e+000) (116, 7.95010328292846680000e-002) (40, 5.04425354301929470000e-002) (28, 4.90680813789367680000e-001) (118, 2.85235196352005000000e-001) (35, -2.00707244873046870000e+000) (88, 2.19684258103370670000e-001) (65, 1.86379283666610720000e-001) (31, 1.72808730602264400000e+000) (94, 1.08217084407806400000e+000) (109, 3.46786290407180790000e-001) (4, -8.58721554279327390000e-001) (50, -1.80857285857200620000e-001) (90, 2.54993308335542680000e-002) (51, 2.92116254568099980000e-001) (22, 7.36279845237731930000e-001) (70, -2.52266913652420040000e-001) (72, 2.27295711636543270000e-001) (97, 7.52642869949340820000e-001) (20, -3.41079652309417720000e-001) (120, 2.39214405417442320000e-001) (22, 1.72531330585479740000e+000) (25, -3.43740344047546390000e-001) (35, -4.70489531755447390000e-001) (73, 2.96808910369873050000e+000) (88, 2.63349390029907230000e+000) (34, 2.83166736364364620000e-001) (32, -1.86172688007354740000e+000) (117, -1.15460383892059330000e+000) (95, 7.48333811759948730000e-001) (110, 2.71201133728027340000e-001) (46, 1.49825167655944820000e+000) (62, -4.09947061538696290000e+000) (12, -1.02457046508789060000e+000) (13, -1.06400477886199950000e+000) (100, 1.05644464492797850000e+000) (84, 2.16247773170471190000e+000) (23, -2.31426686048507690000e-001) (66, 4.85430192947387700000e+000) (20, -1.22817206382751460000e+000) (64, 4.00742149353027340000e+000) (57, -6.66557073593139650000e+000) (5, 1.88453269004821780000e+000) (42, -8.03627252578735350000e-001) (116, -1.24028635025024410000e+000) (72, -2.64645159244537350000e-001) (24, -5.27690172195434570000e-001) (16, -1.64334201812744140000e+000) (70, -4.84523153305053710000e+000) (27, 1.65108788013458250000e+000) (104, 5.17423152923583980000e-001) (83, 7.53715395927429200000e-001) (82, -1.66783940792083740000e+000) (63, -4.61627864837646480000e+000) (10, -2.39105701446533200000e+000) (4, 2.71998882293701170000e+000) (59, 7.69167232513427730000e+000) (71, -2.59138536453247070000e+000) (103, 1.19550609588623050000e+000) (80, -1.76250946521759030000e+000) (99, 3.06572532653808590000e+000) (90, 1.12550818920135500000e+000) (60, -4.07333135604858400000e+000) (19, -1.26998722553253170000e+000) (39, 4.14756441116333010000e+000) (86, -2.45945549011230470000e+000) (106, 2.02200651168823240000e+000) (31, 4.46305036544799800000e+000) (7, 2.45569372177124020000e+000) (14, 1.54027342796325680000e+000) (1, 1.51022660732269290000e+000) (87, 8.91296803951263430000e-001) (11, 2.84775972366333010000e+000) (107, 1.65253710746765140000e+000) (9, -1.09234774112701420000e+000) (101, -1.20614850521087650000e+000) (74, 9.77746963500976560000e-001) (68, -1.40993320941925050000e+000) (108, -1.86991763114929200000e+000) (52, 3.82274341583251950000e+000) (28, 2.68369495868682860000e-001) (120, -5.42083941400051120000e-002) (76, -6.14617466926574710000e-001) (88, 4.63990592956542970000e+000) (9, -4.28211927413940430000e+000) (100, 1.29937261343002320000e-001) (97, 8.46060180664062500000e+000) (46, 1.52388155460357670000e+000) (115, 3.43362236022949220000e+000) (108, 5.49491167068481450000e+000) (47, -4.90855073928833010000e+000) (8, 8.39892292022705080000e+000) (72, -3.66411089897155760000e+000) (31, -7.04923963546752930000e+000) (45, 3.37921690940856930000e+000) (30, -2.94259500503540040000e+000) (82, 4.82091099023818970000e-001) (25, 6.26626586914062500000e+000) (94, 4.07956790924072270000e+000) (92, 4.18251991271972660000e+000) (90, 1.65812408924102780000e+000) (84, -1.61861073970794680000e+000) (37, 5.98477900028228760000e-001) (1, -3.72430711984634400000e-001) (48, -1.08649408817291260000e+000) (22, 2.14790105819702150000e-001) (35, 7.35614448785781860000e-002) (2, -2.21019294112920760000e-002) (118, -2.40314245223999020000e+000) (39, 2.66011834144592290000e+000) (69, -6.76061248779296870000e+000) (32, -9.70783174037933350000e-001) (103, -2.09161639213562010000e+000) (57, -7.55992650985717770000e+000) (41, -1.85447824001312260000e+000) (66, 1.78104598999023440000e+002) (63, 8.85801410675048830000e+000) (114, 5.90469956398010250000e-001) (4, -1.95382666587829590000e+000) (86, 9.75814819335937500000e-001) (36, -3.99716830253601070000e+000) (42, -8.42505455017089840000e+000) (87, 3.22846436500549320000e+000) (14, 3.50085544586181640000e+000) (96, 2.48912262916564940000e+000) (34, -4.78454446792602540000e+000) (67, 4.64994335174560550000e+000) (43, 2.66548943519592290000e+000) (0, -4.19754803180694580000e-001) (44, 3.78386282920837400000e+000) (38, -1.86066865921020510000e+000) (10, -8.85467827320098880000e-001) (95, -3.98487359285354610000e-001) (28, -1.79101467132568360000e+000) (80, 7.07095563411712650000e-002) (116, -5.45438885688781740000e-001) (109, 2.97241449356079100000e+000) (73, -2.72580146789550780000e+000) (49, 9.96327936649322510000e-001) (53, -1.20776546001434330000e+000) (54, -2.11164962768554690000e+002) (11, -1.77394402027130130000e+000) (120, 1.55180025100708010000e+000) (115, -2.63098812103271480000e+000) (38, 1.02705154418945310000e+001) (106, -1.91551238298416140000e-001) (49, -4.87165594100952150000e+000) (41, 2.39193677902221680000e+000) (24, 3.89110875129699710000e+000) (66, 1.19828201830387120000e-001) (95, -8.54694843292236330000e+000) (61, -1.16475648880004880000e+001) (67, -3.00056600570678710000e+000) (9, 3.52727556228637700000e+000) (15, -3.47312718629837040000e-001) (28, 1.74514102935791020000e+000) (53, -5.87382555007934570000e-001) (117, -2.60866069793701170000e+000) (55, -6.87859249114990230000e+000) (47, 2.03112030029296870000e+000) (45, 4.75299167633056640000e+000) (8, -2.02816939353942870000e+000) (34, -3.94758439064025880000e+000) (3, -3.00015711784362790000e+000) (71, -3.32232475280761720000e+000) (101, -3.56508660316467290000e+000) (93, -1.18717360496521000000e+000) (65, 2.91750097274780270000e+000) (83, 8.33838176727294920000e+000) (19, -1.35669514536857600000e-001) (22, -8.14151838421821590000e-002) (10, -2.70429682731628420000e+000) (62, 2.83868384361267090000e+000) (35, 5.02153825759887700000e+000) (73, 7.99594447016716000000e-002) (96, -1.08308439254760740000e+001) (97, -6.56465339660644530000e+000) (4, 1.55135452747344970000e+000) (39, -9.73435783386230470000e+000) (32, 5.19188976287841800000e+000) (94, -8.30440163612365720000e-001) (104, 7.91643428802490230000e+000) (110, 9.79709744453430180000e-001) (44, 4.31359815597534180000e+000) (25, -9.20278739929199220000e+000) (63, -3.54318308830261230000e+000) (7, -4.94147658348083500000e-001) (46, 9.02842342853546140000e-001) (70, 2.36363196372985840000e+000) (103, -2.80851936340332030000e+000) (51, 1.20503826141357420000e+001) (98, -2.52124929428100590000e+000) (2, -2.75133281946182250000e-001) (56, -1.94386856079101560000e+002) (72, 3.66870880126953130000e+000) (57, 1.88979854583740230000e+001) (1, 2.68192005157470700000e+000) (36, 3.16443729400634770000e+000) (84, -5.39896011352539060000e+000) (29, -5.21304941177368160000e+000) (60, -1.66423332691192630000e+000) (80, 1.22848439216613770000e+000) (108, 3.23951411247253420000e+000) (120, -3.11838316917419430000e+000) (55, 1.41548299789428710000e+001) (74, -1.43021678924560550000e+000) (38, -1.99292194843292240000e+000) (51, -7.75108528137207030000e+000) (58, 8.89323472976684570000e-001) (59, -2.44430613517761230000e+000) (72, -1.40544452667236330000e+001) (45, 1.97914409637451170000e+000) (119, -1.27767343521118160000e+001) (70, 3.42042708396911620000e+000) (31, 5.95016574859619140000e+000) (62, 4.46309280395507810000e+001) (44, -1.84380455017089840000e+001) (115, -9.05896842479705810000e-001) (82, -1.95752584934234620000e+000) (88, 4.26810413599014280000e-001) (95, -2.09952926635742190000e+000) (96, 2.99936032295227050000e+000) (80, -1.37376432418823240000e+001) (73, -6.30188703536987300000e+000) (7, -3.90250301361083980000e+000) (3, -1.38467311859130860000e+001) (5, 4.26338195800781250000e+000) (34, -1.65679283142089840000e+001) (6, -3.66839122772216800000e+000) (14, 8.97645759582519530000e+000) (42, -1.09617242813110350000e+001) (105, -3.65560760498046880000e+001) (86, 2.67909860610961910000e+000) (85, -1.33873052597045900000e+001) (108, 5.20242404937744140000e+000) (15, -6.95695829391479490000e+000) (106, 1.39019451141357420000e+001) (56, -1.08359107971191410000e+001) (75, 5.97877502441406250000e-001) (101, -1.28193759918212890000e+000) (21, -9.64337062835693360000e+000) (57, 2.34549474716186520000e+000) (52, -9.24137783050537110000e+000) (16, 3.91248512268066410000e+000) (32, 1.94150769710540770000e+000) (103, -7.60982799530029300000e+000) (13, -1.28156852722167970000e+000) (22, -9.80043697357177730000e+000) (113, 2.60285282135009770000e+000) (65, 1.18603134155273440000e+001) (92, 4.22199773788452150000e+000) (109, -1.48322200775146480000e+000) (43, -2.29945030212402340000e+001) (50, 9.33059120178222660000e+000) (64, -7.94899129867553710000e+000) (46, 3.02235984802246090000e+000) (41, 4.98972988128662110000e+000) (19, -1.55014109611511230000e+000) (83, 1.49181481933593750000e+003) (114, -1.15655517578125000000e+001) (49, 1.37850303649902340000e+001) (23, -1.06677746772766110000e+000) (112, 1.02939596176147460000e+001) (26, -6.05353069305419920000e+000) (120, -1.87521260231733320000e-002) (47, -1.45795655250549320000e+000) (94, 1.44899398088455200000e-001) (107, -3.08416038751602170000e-001) (82, 1.78727090358734130000e-001) (3, -7.50978827476501460000e-001) (99, -1.59864068031311040000e-001) (6, -1.69197339564561840000e-002) (97, -1.76799356937408450000e-001) (51, 2.83172464370727540000e+000) (78, 3.54050993919372560000e-001) (26, 6.48936128616333010000e+000) (5, -1.30163758993148800000e-001) (53, 3.04219102859497070000e+000) (28, 4.00090247392654420000e-001) (92, 2.70046591758728030000e-001) (72, 1.47904193401336670000e+000) (116, 1.14968216419219970000e+000) (77, -9.35110509395599370000e-001) (91, -2.25454807281494140000e-001) (64, -2.82812893390655520000e-001) (79, -2.42653489112854000000e+000) (113, 8.58125627040863040000e-001) (61, 7.58336603641510010000e-001) (14, -1.77114784717559810000e+000) (88, -5.52692227065563200000e-002) (71, -7.24818611145019530000e+000) (109, -7.09690392017364500000e-001) (21, 5.62391042709350590000e-001) (90, 2.77725666761398320000e-001) (112, -1.16358242928981780000e-001) (23, -1.40582486987113950000e-001) (12, -3.07787321507930760000e-002) (7, 2.20764946937561040000e+000) (52, -7.51353859901428220000e-001) (22, -1.57718098163604740000e+000) (36, 5.61026573181152340000e-001) (67, 1.17635202407836910000e+000) (106, 4.13115292787551880000e-001) (84, 3.64731818437576290000e-001) (74, 1.30717372894287110000e+000) (46, -5.10316967964172360000e-001) (10, -1.49811446666717530000e+000) (57, 7.35116386413574220000e+000) (95, 6.16655886173248290000e-001) (56, -1.50000000000000000000e+003) (83, 8.10581982135772710000e-001) (100, -2.31773644685745240000e-001) (111, -1.61944639682769780000e+000) (76, -3.24428796768188480000e+000) (19, -9.98885869979858400000e-001) (38, 3.04253220558166500000e+000) (105, -8.42234790325164790000e-002) (117, 4.41227406263351440000e-002) (115, -1.47876846790313720000e+000) (87, -3.08202385902404790000e+000) (108, -2.39195466041564940000e+000) (16, 5.44044002890586850000e-002) (63, -1.31684982776641850000e+000) (80, -7.01811373233795170000e-001) (81, -1.98349857330322270000e+000) (120, 8.93606185913085940000e-001) (0, -3.37103915214538570000e+000) (21, 6.86468124389648440000e+000) (79, 6.00211334228515620000e+000) (84, -8.52328062057495120000e-001) (100, 2.14821982383728030000e+000) (8, -5.08848607540130620000e-001) (88, -6.11578464508056640000e-001) (68, -4.05358076095581050000e+000) (19, 1.03292727470397950000e+000) (93, 8.49521994590759280000e-001) (46, 7.25950479507446290000e-001) (37, -9.71933454275131230000e-002) (18, -2.39149570465087890000e+000) (67, -5.90593814849853520000e+000) (105, 1.39909839630126950000e+000) (87, 1.60562956333160400000e+000) (50, -2.81160783767700200000e+000) (76, 1.59445285797119140000e+000) (86, -5.79271972179412840000e-001) (14, 7.31973934173583980000e+000) (51, -1.05727389454841610000e-001) (27, 1.87021183967590330000e+000) (116, 4.73969638347625730000e-001) (56, 1.77721214294433590000e+001) (52, 7.65788030624389650000e+000) (85, 3.93464922904968260000e+000) (36, 8.47895219922065730000e-002) (64, 1.95541203022003170000e+000) (26, -4.26172685623168950000e+000) (81, 4.02926445007324220000e+000) (47, 1.07503938674926760000e+000) (41, -3.07557964324951170000e+000) (13, -9.55259144306182860000e-001) (58, -2.10367603302001950000e+001) (108, 1.80580511689186100000e-001) (29, 6.25205612182617190000e+000) (1, -4.74018001556396480000e+000) (70, -5.13327479362487790000e-001) (40, 3.83916807174682620000e+000) (38, -5.08187007904052730000e+000) (43, -3.74399471282958980000e+000) (28, -9.38270688056945800000e-001) (104, 1.28053128719329830000e+000) (72, 1.28170919418334960000e+000) (77, 4.63287162780761720000e+000) (4, -1.92792451381683350000e+000) (20, -6.93441486358642580000e+000) (74, 8.43654453754425050000e-001) (75, 3.36821842193603520000e+000) (115, 1.34557592868804930000e+000) (95, 6.92068755626678470000e-001) (5, 3.55198979377746580000e-001) (23, 1.17259061336517330000e+000) (107, -4.43186140060424800000e+000) (12, 2.53296113014221190000e+000) (25, -3.65739017724990840000e-001) (32, 1.99563562870025630000e-001) (112, 2.88718605041503910000e+000) (53, 1.18209707736968990000e+000) (35, -8.33476841449737550000e-001) (120, -1.71892419457435610000e-002) (13, 1.08772426843643190000e-001) (17, 2.87665462493896480000e+000) (72, -9.84404310584068300000e-002) (37, 7.89353847503662110000e-001) (26, 2.60209345817565920000e+000) (74, -3.02756458520889280000e-001) (31, 8.45322251319885250000e-001) (24, 1.38630187511444090000e+000) (47, -1.67326998710632320000e+000) (36, 2.49470517039299010000e-001) (81, 1.48052406311035160000e+000) (109, -5.94720840454101560000e-001) (18, 5.54035365581512450000e-001) (87, -2.29354798793792720000e-001) (15, 4.35041576623916630000e-001) (34, -7.51597527414560320000e-003) (110, -2.00188398361206050000e+000) (57, -3.64783549308776860000e+000) (3, 4.35355246067047120000e-001) (56, 8.60213756561279300000e+000) (9, 3.23770344257354740000e-002) (48, 3.49742054939270020000e+000) (68, 3.98847365379333500000e+000) (35, -9.92439460754394530000e+000) (104, 5.50472068786621090000e+000) (32, -3.02274680137634280000e+000) (108, 2.14362099766731260000e-001) (112, 6.77245736122131350000e-001) (53, 8.02788376808166500000e-001) (67, 2.31041878461837770000e-001) (22, 1.05728164315223690000e-001) (50, 7.19813108444213870000e-002) (10, 1.57894289493560790000e+000) (8, 9.98090114444494250000e-003) (75, -2.83456742763519290000e-002) (77, 9.72898840904235840000e-001) (61, -6.35259807109832760000e-001) (14, -6.14449679851531980000e-001) (46, 7.30045318603515630000e-001) (86, 1.45676776766777040000e-001) (105, 1.70905023813247680000e-001) (76, 1.41873860359191890000e+000) (19, 3.06588709354400630000e-001) (92, 7.77748167514801030000e-001) (89, 6.28124415874481200000e-001) (118, 2.57503539323806760000e-001) (42, -8.79948198795318600000e-001) (84, 6.77641332149505620000e-001) (117, 8.75097751617431640000e+000) (20, -1.87159597873687740000e+000) (58, -4.77008295059204100000e+000) (40, -6.03659331798553470000e-001) (95, 1.20036266744136810000e-001) (28, 1.27311334013938900000e-001) (45, 4.15996342897415160000e-001) (115, -8.71077850461006160000e-002) (96, 3.99918794631958010000e-001) (79, -1.27157509326934810000e-001) (11, -6.95656165480613710000e-002) (82, -4.55194711685180660000e+000) (120, -3.30121845006942750000e-001) (10, -1.03289103507995610000e+000) (45, 1.01938092708587650000e+000) (59, 7.65630187988281250000e+001) (113, 1.21627740561962130000e-001) (81, -1.07618771493434910000e-001) (49, 7.47518479824066160000e-001) (89, -2.30917990207672120000e-001) (93, -7.00893580913543700000e-001) (56, 4.23559684753417970000e+001) (112, 1.19587731361389160000e+000) (62, 4.61155605316162110000e+000) (6, 2.31000870466232300000e-001) (116, -9.39096450805664060000e-001) (33, -6.36567592620849610000e-001) (60, 4.13404369354248050000e+000) (19, -3.90902131795883180000e-001) (53, 4.87365770339965820000e+000) (84, -4.00354057550430300000e-001) (41, -2.25489759445190430000e+000) (71, 4.72017526626586910000e-001) (111, 6.03656768798828130000e-002) (28, -6.78821265697479250000e-001) (101, -1.62060892581939700000e+000) (2, 4.57604795694351200000e-001) (15, 2.30822220444679260000e-001) (21, -7.53136575222015380000e-002) (43, -2.78908109664916990000e+000) (110, 9.12829302251338960000e-003) (42, -1.28599941730499270000e+000) (11, 1.54884815216064450000e+000) (119, 1.81725919246673580000e+000) (97, 9.65811669826507570000e-001) (66, -3.13083400726318360000e+001) (88, 4.82164800167083740000e-001) (83, 2.50203037261962890000e+000) (27, 3.04560214281082150000e-001) (72, 4.55488622188568120000e-001) (1, -8.84720534086227420000e-002) (115, -1.34021866321563720000e+000) (65, -6.17772080004215240000e-002) (31, -3.27454715967178340000e-001) (8, 5.92857480049133300000e-001) (29, -2.11646342277526860000e+000) (117, -8.27846705913543700000e-001) (76, -4.58609819412231450000e-001) (57, -1.43727719783782960000e+000) (23, -1.72703361511230470000e+000) (25, -8.41701984405517580000e-001) (0, -4.46188479661941530000e-001) (38, -2.49837207794189450000e+000) (94, 2.69639164209365840000e-001) (91, 3.98566573858261110000e-001) (106, 4.73680943250656130000e-001) (61, -1.02431268692016600000e+001) (4, -3.42206090688705440000e-001) (109, -1.59083172678947450000e-001) (80, 2.11243391036987300000e+000) (47, -2.44654846191406250000e+000) (85, -7.55671560764312740000e-001) (114, 4.75246608257293700000e-002) (120, -2.48424977064132690000e-001) (118, -1.40526667237281800000e-001) (90, 1.72434616088867190000e+000) (110, -2.84223604202270510000e+000) (6, -1.32584834098815920000e+000) (80, 3.91408371925354000000e+000) (10, -2.49727144837379460000e-001) (16, -3.86454153060913090000e+000) (66, -7.94371306896209720000e-001) (87, -6.89619112014770510000e+000) (25, -1.73685759305953980000e-001) (50, 1.04523062705993650000e+000) (77, -1.13440055847167970000e+001) (83, -1.82423412799835210000e+000) (22, 4.67423057556152340000e+000) (115, -4.85476553440093990000e-001) (27, 5.54387712478637700000e+000) (35, -2.18311831355094910000e-001) (81, -1.09274663031101230000e-001) (24, -1.95125804748386140000e-003) (13, -7.58886337280273440000e-001) (84, 3.04632503539323810000e-002) (7, -1.66745984554290770000e+000) (52, 2.36287617683410640000e+000) (46, 6.38021409511566160000e-001) (44, 3.03334407508373260000e-002) (116, 1.29870176315307620000e+000) (42, -6.03188760578632350000e-002) (99, 6.18356406688690190000e-001) (112, -2.99300241470336910000e+000) (74, -2.21819901466369630000e+000) (113, -7.72073507308959960000e-001) (97, 1.16717064380645750000e+000) (61, 1.17755969238281250000e+003) (65, 2.34676814079284670000e+000) (40, 2.68567144870758060000e-001) (8, 2.10406732559204100000e+000) (95, 1.53637215495109560000e-001) (85, -1.21335577964782710000e+000) (105, -1.13169305026531220000e-001) (82, -1.74952700734138490000e-001) (64, 1.08040571212768550000e+001) (0, 9.47201609611511230000e-001) (54, -9.88103027343750000000e+002) (47, -2.63776898384094240000e+000) (93, 8.04898357391357420000e+000) (103, -1.41549503803253170000e+000) (4, 1.00062906742095950000e+000) (59, 1.43036230468750000000e+003) (23, 1.30696976184844970000e+000) (48, -1.78350791931152340000e+001) (11, 2.10120344161987300000e+000) (37, 1.00601739883422850000e+001) (86, 1.38399887084960940000e+000) (41, -1.41717071533203130000e+001) (89, -2.44104549288749690000e-001) (18, 1.59655752182006840000e+001) (56, 1.50000000000000000000e+003) (62, 7.67239332199096680000e+000) (12, -8.56540584564208980000e+000) (60, 2.07068696618080140000e-001) (120, -1.13705074787139890000e+000) (96, -4.69850301742553710000e+000) (36, -4.09807014465332030000e+000) (66, 2.21580314636230470000e+000) (82, -1.00398170948028560000e+000) (76, -3.62266135215759280000e+000) (4, -6.46989393234252930000e+000) (14, 4.85102266073226930000e-001) (60, -6.15088045597076420000e-001) (51, 2.88897466659545900000e+000) (68, -1.84253144264221190000e+000) (90, 8.74398136138916020000e+000) (118, -6.73491096496582030000e+000) (54, 1.23323783874511720000e+001) (43, 3.77700233459472660000e+000) (1, 5.05001306533813480000e+000) (58, 3.03797197341918950000e+000) (100, -2.66412878036499020000e+000) (74, -1.06789455413818360000e+001) (64, -4.14821243286132810000e+000) (80, -2.18365526199340820000e+000) (97, 9.36013889312744140000e+000) (88, 