FANN_FLO_2.1
num_layers=4
learning_rate=0.900000
connection_rate=0.500000
network_type=0
learning_momentum=0.100000
training_algorithm=2
train_error_function=1
train_stop_function=0
cascade_output_change_fraction=0.010000
quickprop_decay=-0.000100
quickprop_mu=1.750000
rprop_increase_factor=1.200000
rprop_decrease_factor=0.500000
rprop_delta_min=0.000000
rprop_delta_max=50.000000
rprop_delta_zero=0.100000
cascade_output_stagnation_epochs=12
cascade_candidate_change_fraction=0.010000
cascade_candidate_stagnation_epochs=12
cascade_max_out_epochs=150
cascade_max_cand_epochs=150
cascade_num_candidate_groups=2
bit_fail_limit=3.49999994039535520000e-001
cascade_candidate_limit=1.00000000000000000000e+003
cascade_weight_multiplier=4.00000005960464480000e-001
cascade_activation_functions_count=10
cascade_activation_functions=3 5 7 8 10 11 14 15 16 17 
cascade_activation_steepnesses_count=4
cascade_activation_steepnesses=2.50000000000000000000e-001 5.00000000000000000000e-001 7.50000000000000000000e-001 1.00000000000000000000e+000 
layer_sizes=33 21 9 2 
scale_included=0
neurons (num_inputs, activation_function, activation_steepness)=(0, 0, 0.00000000000000000000e+000) (0, 0, 0.00000000000000000000e+000) (0, 0, 0.00000000000000000000e+000) (0, 0, 0.00000000000000000000e+000) (0, 0, 0.00000000000000000000e+000) (0, 0, 0.00000000000000000000e+000) (0, 0, 0.00000000000000000000e+000) (0, 0, 0.00000000000000000000e+000) (0, 0, 0.00000000000000000000e+000) (0, 0, 0.00000000000000000000e+000) (0, 0, 0.00000000000000000000e+000) (0, 0, 0.00000000000000000000e+000) (0, 0, 0.00000000000000000000e+000) (0, 0, 0.00000000000000000000e+000) (0, 0, 0.00000000000000000000e+000) (0, 0, 0.00000000000000000000e+000) (0, 0, 0.00000000000000000000e+000) (0, 0, 0.00000000000000000000e+000) (0, 0, 0.00000000000000000000e+000) (0, 0, 0.00000000000000000000e+000) (0, 0, 0.00000000000000000000e+000) (0, 0, 0.00000000000000000000e+000) (0, 0, 0.00000000000000000000e+000) (0, 0, 0.00000000000000000000e+000) (0, 0, 0.00000000000000000000e+000) (0, 0, 0.00000000000000000000e+000) (0, 0, 0.00000000000000000000e+000) (0, 0, 0.00000000000000000000e+000) (0, 0, 0.00000000000000000000e+000) (0, 0, 0.00000000000000000000e+000) (0, 0, 0.00000000000000000000e+000) (0, 0, 0.00000000000000000000e+000) (0, 0, 0.00000000000000000000e+000) (17, 5, 5.00000000000000000000e-001) (17, 5, 5.00000000000000000000e-001) (17, 5, 5.00000000000000000000e-001) (17, 5, 5.00000000000000000000e-001) (17, 5, 5.00000000000000000000e-001) (17, 5, 5.00000000000000000000e-001) (17, 5, 5.00000000000000000000e-001) (17, 5, 5.00000000000000000000e-001) (17, 5, 5.00000000000000000000e-001) (17, 5, 5.00000000000000000000e-001) (17, 5, 5.00000000000000000000e-001) (17, 5, 5.00000000000000000000e-001) (17, 5, 5.00000000000000000000e-001) (17, 5, 5.00000000000000000000e-001) (17, 5, 5.00000000000000000000e-001) (17, 5, 5.00000000000000000000e-001) (17, 5, 5.00000000000000000000e-001) (17, 5, 5.00000000000000000000e-001) (17, 5, 5.00000000000000000000e-001) (17, 5, 5.00000000000000000000e-001) (0, 5, 5.00000000000000000000e-001) (11, 5, 5.00000000000000000000e-001) (11, 5, 5.00000000000000000000e-001) (11, 5, 5.00000000000000000000e-001) (11, 5, 5.00000000000000000000e-001) (11, 5, 5.00000000000000000000e-001) (11, 5, 5.00000000000000000000e-001) (11, 5, 5.00000000000000000000e-001) (11, 5, 5.00000000000000000000e-001) (0, 5, 5.00000000000000000000e-001) (9, 5, 5.00000000000000000000e-001) (0, 5, 5.00000000000000000000e-001) 
connections (connected_to_neuron, weight)=(32, 3.90014892578125000000e+002) (25, 3.65754852294921880000e+001) (16, 1.47726159667968750000e+003) (21, -1.50000000000000000000e+003) (27, 1.38362487792968750000e+003) (20, 3.88438262939453120000e+002) (19, -1.49932446289062500000e+003) (1, -1.49999987792968750000e+003) (15, -1.49101721191406250000e+003) (6, -1.49978173828125000000e+003) (18, 1.50000000000000000000e+003) (31, 1.50000000000000000000e+003) (30, 1.49985717773437500000e+003) (9, -7.16664276123046880000e+001) (10, -1.00369439697265620000e+003) (24, 4.32877616882324220000e+001) (12, 1.65729431152343750000e+002) (32, -1.33287596702575680000e+000) (24, 5.50054073333740230000e-001) (13, 1.60314500331878660000e-001) (28, 5.01855075359344480000e-001) (15, -6.90050004050135610000e-003) (17, -3.50385278463363650000e-001) (27, 4.27030026912689210000e-001) (20, 3.96251499652862550000e-001) (8, -9.87810865044593810000e-002) (26, 1.77921414375305180000e-001) (29, 6.88949823379516600000e-001) (12, 1.12740285694599150000e-001) (1, 3.98328602313995360000e-001) (21, 3.65121334791183470000e-001) (22, -1.13600365817546840000e-001) (23, 3.57111513614654540000e-001) (19, 1.58504128456115720000e-001) (32, -4.96028214693069460000e-001) (5, 1.34022283554077150000e+000) (14, 4.66471910476684570000e-001) (27, 8.67611229419708250000e-001) (9, -4.30324435234069820000e-001) (3, 1.81971015990711750000e-004) (28, 9.71375823020935060000e-001) (25, 1.17581784725189210000e-001) (15, 1.50000000000000000000e+003) (18, 1.37422907352447510000e+000) (20, 1.95927524566650390000e+000) (17, 5.18016695976257320000e-001) (22, 1.38714504241943360000e+000) (2, 1.17098844051361080000e+000) (24, -4.77406263351440430000e-001) (11, 1.49585977196693420000e-001) (23, -1.60152745246887210000e+000) (32, -9.46502506732940670000e-001) (18, 3.03129410743713380000e+000) (14, 1.16669006347656250000e+002) (9, -2.66052222251892090000e+000) (15, 5.71629345417022710000e-001) (16, -4.10349577665328980000e-001) (7, -2.60382461547851560000e+000) (27, -4.25959110260009770000e-001) (10, 4.18384885787963870000e+000) (13, 4.66573524475097660000e+000) (23, -3.47671359777450560000e-001) (21, -1.38421070575714110000e+000) (8, 2.40435481071472170000e+000) (1, -1.88215446472167970000e+000) (2, 2.61154127120971680000e+000) (12, 1.87330615520477290000e+000) (19, 2.33441400527954100000e+000) (32, -1.35544347763061520000e+000) (25, 7.10322260856628420000e-001) (7, 5.63393235206604000000e-001) (21, 8.70657786726951600000e-002) (9, 5.11316478252410890000e-001) (11, 4.43359851837158200000e-001) (20, 1.13654053211212160000e+000) (5, -1.23656332492828370000e+000) (23, -8.08946266770362850000e-002) (8, -3.46533507108688350000e-001) (1, 6.06106936931610110000e-001) (12, 9.61637020111083980000e-001) (29, -5.87213039398193360000e-001) (13, 1.03006267547607420000e+000) (10, 4.19163674116134640000e-001) (4, -1.01200401782989500000e+000) (14, 6.21468782424926760000e-001) (32, 1.12573087215423580000e-001) (3, 1.48862755298614500000e+000) (5, 5.10105431079864500000e-001) (24, 7.25146353244781490000e-001) (23, 2.69993615150451660000e+000) (13, 1.50000000000000000000e+003) (11, -1.38335621356964110000e+000) (28, -6.08138561248779300000e-001) (12, 1.35352814197540280000e+000) (30, 1.88080295920372010000e-001) (4, -4.63717132806777950000e-001) (22, 1.63169717788696290000e+000) (21, 1.38892483711242680000e+000) (19, 6.05262100696563720000e-001) (9, -7.23026037216186520000e-001) (15, 1.56052815914154050000e+000) (27, 4.94692295789718630000e-001) (32, -5.86753845214843750000e-001) (11, -3.54764074087142940000e-001) (12, -5.49893796443939210000e-001) (23, 1.26953339576721190000e+000) (26, -1.69037520885467530000e+000) (1, -5.68410903215408330000e-002) (2, 1.11715435981750490000e+000) (6, 1.05821621417999270000e+000) (7, 1.38360679149627690000e+000) (22, -4.42543439567089080000e-002) (20, 4.08258050680160520000e-001) (30, -3.39223742485046390000e-002) (4, 2.03464698791503910000e+000) (13, 1.37471660971641540000e-001) (25, 3.45156580209732060000e-001) (3, 1.30927646160125730000e+000) (10, -5.78648269176483150000e-001) (32, -1.21950292587280270000e+000) (13, -3.00688296556472780000e-001) (23, 2.96024501323699950000e-001) (31, 6.98724865913391110000e-001) (10, 1.96559175848960880000e-001) (29, -1.26834377646446230000e-001) (26, 4.93001192808151250000e-001) (2, -1.51259267330169680000e+000) (11, 5.22061705589294430000e-001) (12, 1.46105557680130000000e-001) (25, 2.97959089279174800000e-001) (5, -1.73787727952003480000e-001) (15, 9.58075895905494690000e-002) (6, 3.13916504383087160000e-001) (16, 7.29290902614593510000e-001) (8, -5.10036289691925050000e-001) (24, -1.05891026556491850000e-001) (32, -5.85887491703033450000e-001) (0, -4.19321447610855100000e-001) (2, -2.45581969618797300000e-001) (30, 8.35893511772155760000e-001) (12, -1.30336642265319820000e-001) (29, -8.37671279907226560000e-001) (25, -7.27629244327545170000e-001) (19, -2.46784418821334840000e-001) (18, 1.53651922941207890000e-001) (31, 3.37114334106445310000e+000) (27, 2.26414650678634640000e-001) (20, 1.48854863643646240000e+000) (3, 4.33256745338439940000e-001) (24, 6.13240361213684080000e-001) (17, 1.28091633319854740000e-001) (13, 1.30571797490119930000e-002) (28, 5.41468858718872070000e-001) (32, -1.25366413593292240000e+000) (16, 7.77672171592712400000e-001) (19, 8.12039673328399660000e-002) (29, -2.76344329118728640000e-001) (24, -5.11356472969055180000e-001) (30, 6.59052848815917970000e-001) (12, -6.04703962802886960000e-001) (9, 3.28273214399814610000e-002) (10, 3.38618457317352290000e-001) (5, 7.76027381420135500000e-001) (13, -2.63046890497207640000e-001) (23, 3.04395079612731930000e-001) (2, 1.00622808933258060000e+000) (20, 4.67450290918350220000e-001) (7, 5.75266778469085690000e-001) (17, 4.08240884542465210000e-001) (11, -1.28240436315536500000e-001) (32, -2.10472151637077330000e-001) (6, 6.50689482688903810000e-001) (23, 2.32633590698242190000e+000) (24, 2.25720882415771480000e-001) (19, 1.89695727825164790000e+000) (16, 1.41498461365699770000e-001) (25, 8.64957034587860110000e-001) (30, 1.52271687984466550000e+000) (17, 1.17337846755981450000e+000) (15, 1.50000000000000000000e+003) (21, 1.32254624366760250000e+000) (13, -4.64093387126922610000e-002) (11, -3.66577863693237300000e-001) (1, 3.37190794944763180000e+000) (29, 1.31756258010864260000e+000) (9, -1.05364723131060600000e-002) (4, 1.50000000000000000000e+003) (32, -1.24356997013092040000e+000) (17, 3.69179248809814450000e-001) (27, -2.79270023107528690000e-001) (21, 3.92568826675415040000e-001) (15, 4.96055558323860170000e-003) (18, 4.22497749328613280000e-001) (8, 1.28483235836029050000e-001) (28, -8.88240858912467960000e-002) (2, 1.20053999125957490000e-001) (25, -5.26570156216621400000e-003) (9, -4.06330227851867680000e-002) (23, 1.62152141332626340000e-001) (30, 1.53410881757736210000e-001) (1, -3.89789402484893800000e-001) (11, -7.26831182837486270000e-002) (22, -5.58130145072937010000e-002) (12, -1.40940919518470760000e-001) (32, 1.91523623466491700000e+000) (10, 6.41782641410827640000e-001) (14, 1.32914471626281740000e+000) (6, 1.24459254741668700000e+000) (9, -2.67287194728851320000e-001) (2, 7.11459457874298100000e-001) (1, -1.19947171211242680000e+000) (17, 5.92001080513000490000e-001) (24, 7.15446770191192630000e-001) (31, -1.09595894813537600000e-001) (29, 5.25233864784240720000e-001) (11, -7.30521440505981450000e-001) (23, 1.22035467624664310000e+000) (19, 3.82294863462448120000e-001) (0, 1.46115720272064210000e+000) (27, 6.99959158897399900000e-001) (12, -1.11683940887451170000e+000) (32, -2.42836737632751460000e+000) (7, -4.10449415445327760000e-001) (21, -5.93345751985907550000e-003) (25, 2.95867741107940670000e-001) (26, 5.21524101495742800000e-002) (0, -2.05051183700561520000e-001) (27, 7.89781272411346440000e-001) (5, 9.35772731900215150000e-002) (22, 1.27092468738555910000e+000) (14, -4.96199205517768860000e-002) (29, -1.21309287846088410000e-001) (19, 6.67764008045196530000e-001) (28, -5.45493653044104580000e-003) (17, 1.00715255737304690000e+000) (13, -1.66489288210868840000e-001) (9, 6.50161206722259520000e-002) (8, 2.32959449291229250000e-001) (32, -5.96257925033569340000e-001) (8, 8.54697692871093750000e+002) (15, -2.57375955581665040000e-001) (2, 7.45003521442413330000e-001) (26, 4.87163126468658450000e-001) (14, 4.91478174924850460000e-001) (23, 5.70817768573760990000e-001) (3, 7.10252344608306880000e-001) (5, 1.59935042262077330000e-001) (13, -3.68591696023941040000e-001) (19, 7.76175439357757570000e-001) (27, 1.41096249222755430000e-001) (1, 5.13214826583862300000e-001) (21, 1.82547390460968020000e-001) (17, 7.52889633178710940000e-001) (7, 5.86233973503112790000e-001) (16, 5.81272304058074950000e-001) (32, 2.31011056900024410000e+000) (28, -1.76668727397918700000e+000) (8, -7.51391768455505370000e-001) (15, -9.67729270458221440000e-001) (27, -4.64678943157196040000e-001) (22, 1.35557675361633300000e+000) (24, -2.44357571005821230000e-001) (25, 1.05436599254608150000e+000) (14, 2.33290761709213260000e-001) (9, -2.76183545589447020000e-001) (16, -8.52470517158508300000e-001) (30, -5.40953278541564940000e-001) (31, -2.03969144821166990000e+000) (0, 1.59341681003570560000e+000) (17, 5.99490940570831300000e-001) (11, 1.58186697959899900000e+000) (12, -3.60108673572540280000e-001) (32, -5.89028120040893550000e-001) (22, 5.43175876140594480000e-001) (25, 8.56669068336486820000e-001) (19, -1.39371371269226070000e+000) (18, 1.95277893543243410000e+000) (8, 1.81309312582015990000e-001) (5, 1.86427521705627440000e+000) (3, 1.45666912198066710000e-001) (7, 4.88620340824127200000e-001) (21, 1.47113716602325440000e+000) (24, 1.13953089714050290000e+000) (11, -3.08676868677139280000e-001) (12, -9.32988524436950680000e-001) (1, -2.53604412078857420000e-001) (29, 4.81375038623809810000e-001) (9, -5.56045114994049070000e-001) (10, -2.16395586729049680000e-001) (32, -1.77932369709014890000e+000) (1, -3.33886921405792240000e-001) (6, -6.45547568798065190000e-001) (24, -5.60755133628845210000e-001) (15, -2.11013033986091610000e-001) (8, 1.47392839193344120000e-001) (5, -1.05464295484125610000e-003) (23, 1.63265988230705260000e-001) (22, 9.30827260017395020000e-001) (18, 6.24779760837554930000e-001) (16, 4.02566999197006230000e-001) (27, -2.49186620116233830000e-001) (21, -8.10680150985717770000e-001) (13, -3.13053339719772340000e-001) (26, 6.65118694305419920000e-001) (7, -6.69142246246337890000e-001) (10, -3.48969012498855590000e-001) (32, -4.09554660320281980000e-001) (9, 8.60821083188056950000e-002) (20, -9.71036590635776520000e-003) (26, -1.27016991376876830000e-001) (16, 5.40921986103057860000e-001) (29, 9.70597714185714720000e-002) (5, -1.26424223184585570000e-001) (12, 1.89120545983314510000e-001) (19, 1.02398991584777830000e+000) (3, -6.54768705368041990000e-001) (23, -3.67455631494522090000e-001) (14, -2.05648422241210940000e-001) (30, 4.98183101415634160000e-001) (15, -7.70408287644386290000e-002) (24, 4.00979369878768920000e-001) (7, 4.84196096658706670000e-001) (25, 3.57916563749313350000e-001) (32, 8.34952473640441890000e-001) (4, 1.50000000000000000000e+003) (2, 2.19827428460121150000e-001) (27, 1.50000000000000000000e+003) (8, 2.43121314048767090000e+000) (1, 1.78432476520538330000e+000) (16, 1.50000000000000000000e+003) (22, 6.82481646537780760000e-001) (15, 1.45584940910339360000e+000) (10, 5.01221060752868650000e-001) (26, 1.50000000000000000000e+003) (7, 1.80676662921905520000e+000) (6, 1.69038951396942140000e+000) (9, 1.50000000000000000000e+003) (20, 3.96855473518371580000e+000) (17, 1.72213256359100340000e+000) (28, 1.50000000000000000000e+003) (53, -2.66127258539199830000e-001) (40, 2.23486757278442380000e+000) (41, 1.08842396736145020000e+000) (42, 7.56886780261993410000e-001) (38, -4.48094755411148070000e-001) (45, -2.74719204753637310000e-002) (52, 2.17201977968215940000e-001) (48, 1.55901563167572020000e+000) (37, -5.16934573650360110000e-001) (36, 1.23773705959320070000e+000) (46, 3.26726627349853520000e+000) (53, -1.24476432800292970000e+000) (33, 2.48976707458496090000e-001) (46, 1.48730099201202390000e+000) (47, 1.35454165935516360000e+000) (48, -1.85817933082580570000e+000) (50, 1.15794229507446290000e+000) (49, 3.53398621082305910000e-001) (35, 7.61242985725402830000e-001) (45, 4.54997271299362180000e-002) (37, -1.70632386207580570000e+000) (43, 1.60927140712738040000e+000) (53, -6.11645400524139400000e-001) (36, 1.05237782001495360000e+000) (39, 3.92013698816299440000e-001) (43, 1.18372976779937740000e+000) (46, -2.03277960419654850000e-001) (51, 1.49412691593170170000e-001) (45, -5.80468773841857910000e-001) (34, 1.08016216754913330000e+000) (35, 1.39490818977355960000e+000) (47, 5.70523679256439210000e-001) (48, 4.98877316713333130000e-001) (53, -9.50044393539428710000e-001) (37, 1.64671048521995540000e-001) (51, 4.23458695411682130000e-001) (52, 1.55691429972648620000e-002) (35, -1.68118730187416080000e-001) (34, 2.50184082984924320000e+000) (44, 1.83886694908142090000e+000) (41, 1.96401149034500120000e-001) (50, 7.92112112045288090000e-001) (39, -1.39438286423683170000e-001) (38, -5.08025646209716800000e-001) (53, 1.40034449100494380000e+000) (38, 1.20297336578369140000e+000) (51, 4.18917417526245120000e-001) (52, 1.06147587299346920000e+000) (49, 1.33230292797088620000e+000) (47, 1.07259893417358400000e+000) (35, -4.90586787462234500000e-001) (33, 2.45704507827758790000e+000) (45, 1.04782164096832280000e+000) (44, -3.41120052337646480000e+000) (39, 1.35951268672943120000e+000) (53, -6.65189921855926510000e-001) (50, 3.72901856899261470000e-002) (46, 1.55491733551025390000e+000) (39, -3.34795862436294560000e-002) (41, 6.77589356899261470000e-001) (35, 1.91955178976058960000e-001) (48, 3.54579746723175050000e-001) (40, 1.75464773178100590000e+000) (44, -2.45987844467163090000e+000) (42, 1.83250337839126590000e-001) (47, 2.85241603851318360000e-001) (53, -7.06323862075805660000e-001) (34, 3.44010800123214720000e-001) (35, 7.38659799098968510000e-001) (45, -6.92332088947296140000e-001) (49, 6.36270999908447270000e-001) (46, 2.12108939886093140000e-001) (43, 6.21178150177001950000e-001) (39, 9.07612323760986330000e-001) (48, -3.49699467420578000000e-001) (47, 5.79594492912292480000e-001) (51, 4.56757545471191410000e-001) (53, -1.24352478981018070000e+000) (44, 4.57498931884765630000e+000) (42, 1.70520782470703130000e+000) (43, 8.89634251594543460000e-001) (40, 2.00315165519714360000e+000) (39, 1.64871871471405030000e-001) (46, 3.34356856346130370000e+000) (37, 1.17563652992248540000e+000) (50, 1.02512800693511960000e+000) (38, -4.76673334836959840000e-001) (35, 6.61292672157287600000e-001) (62, 1.68790295720100400000e-002) (54, 7.97212198376655580000e-002) (55, 1.01540520787239070000e-001) (56, 4.92396652698516850000e-001) (57, 2.59590625762939450000e+000) (58, 6.49834096431732180000e-001) (59, 2.65177369117736820000e-001) (60, 1.53301632404327390000e+000) (61, 5.41256308555603030000e-001) 
